svm_type c_svc
kernel_type rbf
gamma 0.0078125
nr_class 2
total_sv 134
rho 0.40572267548469848
label 1 -1
nr_sv 64 70
SV
1.0089052709673645 1:0.160784 2:0.0666667 3:0.34902 4:0.0277778 5:0.192966 6:0.152941 7:0.0313725 8:0.364706 9:0.0314465 10:0.571727 11:0.172549 12:0.00392157 13:0.447059 14:0.0172414 15:0.925129 16:0.184314 18:0.478431 19:0.00409836 20:0.120559 21:0.196078 23:0.462745 24:0.008 25:0.925812 26:0.192157 27:0.0117647 28:0.454902 30:0.498801 31:0.192157 32:0.0117647 33:0.454902 34:0.0272727 35:0.0866669 36:0.164706 37:0.00392157 38:0.431373 39:0.0119522 40:0.675302 41:0.164706 42:0.0313725 43:0.423529 44:0.0414747 45:0.10886 46:0.133333 47:0.0117647 48:0.4 49:0.0368421 50:0.704374 51:0.152941 52:0.027451 53:0.448819 54:0.0540541 55:0.091492 56:0.141176 57:0.00784314 58:0.42 59:0.0366492 60:0.341057 61:0.12549 63:0.388235 64:0.0462963 65:0.613473 66:0.168627 67:0.0156863 68:0.415686 69:0.0292887 70:0.454156 71:0.164706 73:0.427451 74:0.029661 75:0.684877 76:0.192157 77:0.027451 78:0.454902 79:0.0721154 80:0.0318578 81:0.172549 82:0.0156863 83:0.427451 84:0.0265957 85:0.116932 86:0.14902 87:0.00392157 88:0.403922 89:0.0382514 90:0.541592 91:0.156863 92:0.0117647 93:0.410359 94:0.00943396 95:0.24526 96:0.14902 98:0.415686 101:0.156863 102:0.0431373 103:0.376471 104:0.0422535 105:0.925191 106:0.168627 107:0.0470588 108:0.404762 109:0.0361446 110:0.351358 111:0.14902 113:0.431373 114:0.0178571 115:0.778814 116:0.176471 117:0.00784314 118:0.458824 119:0.00711744 120:0.32128 121:0.172549 122:0.0117647 123:0.423529 124:0.03 125:0.55009 126:0.184314 127:0.027451 128:0.423529 129:0.350254 130:0.484815 131:0.156863 132:0.00784314 133:0.392157 134:0.679012 135:0.503999 136:0.164706 137:0.0313725 138:0.401575 139:0.444444 140:0.486081 141:0.108434 142:0.0196078 143:0.368627 144:0.145455 145:0.514009 146:0.133333 147:0.0352941 148:0.380392 149:0.0119522 150:0.405726 151:0.12549 152:0.0156863 153:0.392157 154:0.0235294 155:0.800712 156:0.14902 157:0.0392157 158:0.415686 159:0.0645161 160:0.477089 161:0.142292 162:0.0392157 163:0.38 164:0.472527 165:0.50927 166:0.180392 167:0.0588235 168:0.40873 169:0.388186 170:0.488678 171:0.172549 172:0.0313725 173:0.383065 174:0.486034 175:0.479194 176:0.129412 178:0.355731 179:0.15942 180:0.532894 181:0.14902 182:0.0117647 183:0.392157 184:0.0493827 185:0.650793 186:0.176471 187:0.0352941 188:0.427451 189:0.089172 190:0.0428992 191:0.156863 192:0.0117647 193:0.411765 194:0.00877193 195:0.618278 196:0.164706 197:0.0196078 198:0.427451 201:0.122047 203:0.415686 204:0.0949721 205:0.652473 206:0.184314 207:0.0509804 208:0.47451 209:0.0829493 210:0.130303 211:0.137255 213:0.423529 214:0.0561798 215:0.602044 216:0.164706 217:0.0313725 218:0.427451 219:0.223827 220:0.512535 221:0.188235 222:0.0784314 223:0.394422 224:1 225:0.551683 226:0.431373 227:0.345098 228:0.625984 229:0.681564 230:0.544769 231:0.568627 232:0.480159 233:0.745902 234:0.25969 235:0.44482 236:0.470588 237:0.4 238:0.662745 239:0.389655 240:0.415843 241:0.243137 242:0.180392 243:0.431373 244:0.583618 245:0.474138 246:0.141176 247:0.0745098 248:0.337255 249:0.569307 250:0.489111 251:0.113725 252:0.0392157 253:0.32549 254:0.487288 255:0.532316 256:0.207843 257:0.129412 258:0.423529 259:0.743902 260:0.558805 261:0.47451 262:0.403922 263:0.676 264:0.478873 265:0.515106 266:0.52549 267:0.454902 268:0.717647 269:0.306383 270:0.4749 271:0.482353 272:0.415686 273:0.662745 274:0.616667 275:0.400076 276:0.235294 277:0.152941 278:0.42126 279:0.774336 280:0.478369 281:0.160784 282:0.0470588 283:0.380392 284:0.4 285:0.474632 286:0.113725 288:0.329218 289:0.0878049 290:0.599503 291:0.156863 292:0.027451 293:0.407843 294:0.0254777 295:1 296:0.156863 297:0.027451 298:0.407843 301:0.164706 302:0.0235294 303:0.470588 304:0.0428016 305:0.0826472 306:0.137255 307:0.00392157 308:0.427451 309:0.024735 310:0.696163 311:0.156863 312:0.0431373 313:0.429134 314:0.316239 315:0.636066 316:0.388235 317:0.290196 318:0.643137 319:0.737069 320:0.611151 321:0.823529 322:0.74902 323:1 324:0.133094 325:0.947288 326:0.870588 327:0.798387 328:1 329:0.622222 330:0.0143639 331:0.799213 332:0.733333 333:1 334:0.286982 335:0.978976 336:0.847059 337:0.792157 338:1 339:0.50463 340:0.982673 341:0.894118 342:0.847059 343:1 344:0.630208 345:0.108532 346:0.576471 347:0.533333 348:0.780392 349:0.342995 350:0.475964 351:0.541176 352:0.486275 353:0.764706 354:0.416974 355:0.62357 356:0.858824 357:0.8 358:1 359:0.280488 360:1 361:0.858824 362:0.792157 363:1 364:0.488 365:0.0210094 366:0.788235 367:0.72549 368:1 369:0.388235 370:0.987136 371:0.819608 372:0.764706 373:1 374:0.529101 375:0.971332 376:0.898039 377:0.835294 378:1 379:0.710383 380:0.151489 381:0.498039 382:0.396078 383:0.718254 384:0.579186 385:0.381877 386:0.172549 387:0.054902 388:0.379592 389:0.404762 390:0.484217 391:0.141176 392:0.0196078 393:0.374016 394:0.00653595 395:0.118817 396:0.137255 397:0.0156863 398:0.372549 401:0.12549 403:0.403922 404:0.0331126 405:0.637653 406:0.137255 407:0.0313725 408:0.396078 409:0.209877 410:0.734531 411:0.32549 412:0.258824 413:0.54902 414:0.821918 415:0.634651 416:0.870588 417:0.819608 418:1 419:0.247934 420:0.155798 421:0.666667 422:0.588235 423:0.976471 424:0.42439 425:0.125672 426:0.4 427:0.313725 428:0.752941 429:0.0377358 430:0.0101543 431:0.392157 432:0.298039 433:0.760784 434:0.0159574 435:0.968185 436:0.396078 437:0.309804 438:0.748031 439:0.166667 440:0.778595 441:0.529412 442:0.466667 443:0.811765 444:0.477778 445:0.809718 446:0.847059 447:0.788235 448:1 449:0.462857 450:0.000911327 451:0.843137 452:0.776471 453:1 454:0.398148 455:0.131554 456:0.580392 457:0.498039 458:0.885827 459:0.311005 460:0.14105 461:0.372549 462:0.266667 463:0.734127 464:0.0380952 465:0.580915 466:0.380392 467:0.27451 468:0.772549 469:0.0333333 470:0.728273 471:0.403922 472:0.32549 473:0.751055 474:0.304965 475:0.756652 476:0.580392 477:0.509804 478:0.905882 479:0.366972 480:0.856424 481:0.862745 482:0.772549 483:1 484:0.5 485:0.180715 486:0.498039 487:0.4 488:0.704453 489:0.577982 490:0.36238 491:0.129412 492:0.027451 493:0.354331 494:0.126437 495:0.483464 496:0.121569 497:0.0196078 498:0.34127 501:0.141176 502:0.0156863 503:0.411765 504:0.013986 505:0.657967 506:0.152941 507:0.054902 508:0.4 509:0.669456 510:0.720252 511:0.756863 512:0.709804 513:0.968627 514:0.153846 515:0.485762 516:0.729412 517:0.694118 518:0.980392 519:0.394191 520:0.136006 521:0.415686 522:0.341176 523:0.794466 524:0.0877743 525:0.125218 526:0.329412 527:0.231373 528:0.761317 529:0.0553191 530:0.568077 531:0.352941 532:0.239216 533:0.823529 534:0.0116279 535:0.49446 536:0.356863 537:0.25098 538:0.8 539:0.0545455 540:0.5755 541:0.396078 542:0.305882 543:0.752941 544:0.183432 545:0.778963 546:0.52549 547:0.443137 548:0.847059 549:0.15261 550:0.886258 551:0.623529 552:0.533333 553:0.960317 554:0.373737 555:0.120351 556:0.419608 557:0.309804 558:0.796078 559:0.0310881 560:0.138673 561:0.384314 562:0.258824 563:0.843137 564:0.0316742 565:0.0407433 566:0.368627 567:0.243137 568:0.85098 569:0.0196078 570:0.83524 571:0.376471 572:0.278431 573:0.843137 574:0.0628272 575:0.0648626 576:0.368627 577:0.286275 578:0.755102 579:0.421348 580:0.746577 581:0.703557 582:0.619608 583:0.968379 584:0.509091 585:0.949655 586:0.827451 587:0.737255 588:1 589:0.840426 590:0.274141 591:0.215686 592:0.121569 593:0.391667 594:0.169903 595:0.406865 596:0.145098 597:0.0470588 598:0.360784 601:0.160784 602:0.0196078 603:0.443137 604:0.112727 605:0.761572 606:0.266667 607:0.160784 608:0.521912 609:1 610:0.733809 611:0.882353 612:0.831373 613:1 614:0.421525 615:0.245273 616:0.486275 617:0.45098 618:0.764706 619:0.108025 620:0.202314 621:0.32549 622:0.25098 623:0.74902 624:0.0613208 625:0.628999 626:0.352941 627:0.258824 628:0.870588 629:0.0157233 630:0.0592619 631:0.352941 632:0.235294 633:0.882353 634:0.0240964 635:0.705148 636:0.388235 637:0.26378 638:0.898039 639:0.0993789 640:0.0970219 641:0.356863 642:0.243137 643:0.811765 644:0.0403587 645:0.656501 646:0.403922 647:0.286275 648:0.823529 650:0.506554 651:0.411765 652:0.282353 653:0.825397 654:0.0700637 655:0.0267358 656:0.396078 657:0.258824 658:0.847059 659:0.0496894 660:0.202422 661:0.34902 662:0.207843 663:0.858824 664:0.0521327 665:0.525606 666:0.345098 667:0.215686 668:0.878431 669:0.02 670:0.41103 671:0.317647 672:0.211765 673:0.85098 674:0.0529101 675:0.610276 676:0.360784 677:0.27451 678:0.807843 679:0.0334928 680:0.127889 681:0.384314 682:0.301961 683:0.660079 684:0.57265 685:0.746823 686:0.929412 687:0.854902 688:1 689:0.784615 690:0.237834 691:0.329412 692:0.25098 693:0.5 694:0.226244 695:0.296429 696:0.141176 697:0.0627451 698:0.34902 701:0.156863 702:0.00392157 703:0.431373 704:0.15748 705:0.70794 706:0.294118 707:0.176471 708:0.518828 709:0.758454 710:0.773749 711:0.882353 712:0.831373 713:1 714:0.389313 715:0.243044 716:0.447059 717:0.411765 718:0.718876 719:0.127072 720:0.363326 721:0.356863 722:0.286275 723:0.8 724:0.045614 725:0.0395911 726:0.333333 727:0.235294 728:0.854902 729:0.0309278 730:0.620362 731:0.352941 732:0.243137 733:0.898039 734:0.0481928 735:0.296906 736:0.32549 737:0.215686 738:0.843137 739:0.046875 740:0.648766 741:0.376471 742:0.270588 743:0.819608 744:0.210046 745:0.496033 746:0.403922 747:0.290196 748:0.811765 749:0.18932 750:0.45225 751:0.368627 752:0.247059 753:0.760784 754:0.258621 755:0.513576 756:0.388235 757:0.259843 758:0.814961 759:0.251613 760:0.511418 761:0.392157 762:0.258824 763:0.890196 764:0.0192308 765:0.318632 766:0.364706 767:0.235294 768:0.898039 769:0.0106762 770:1 771:0.341176 772:0.243137 773:0.886275 774:0.02 775:0.214806 776:0.333333 777:0.254902 778:0.792157 779:0.00938967 780:0.540839 781:0.384314 782:0.311024 783:0.647541 784:0.62201 785:0.727163 786:0.921569 787:0.85098 788:1 789:0.768362 790:0.243235 791:0.388235 792:0.313725 793:0.561983 794:0.331839 795:0.185845 796:0.109804 797:0.0313725 798:0.313725 801:0.203922 802:0.0509804 803:0.45098 804:0.0543478 805:0.943597 806:0.203922 807:0.0862745 808:0.384615 809:0.743902 810:0.745757 811:0.898039 812:0.843137 813:1 814:0.5 815:0.211677 816:0.52549 817:0.486275 818:0.784314 819:0.210526 820:0.331315 821:0.309804 822:0.239216 823:0.717131 824:0.0797872 825:0.683463 826:0.360784 827:0.266667 828:0.847059 829:0.0149254 830:0.798927 831:0.372549 832:0.27451 833:0.870588 834:0.0520833 835:0.100558 836:0.356863 837:0.266667 838:0.807843 839:0.316092 840:0.666139 841:0.568627 842:0.501961 843:0.913725 844:0.435583 845:0.481363 846:0.552941 847:0.501961 848:0.839216 849:0.472727 850:0.486404 851:0.545098 852:0.490196 853:0.810277 854:0.577922 855:0.499018 856:0.552941 857:0.47451 858:0.862745 859:0.592357 860:0.448837 861:0.407843 862:0.294118 863:0.839216 864:0.0663265 865:0.392002 866:0.352941 867:0.243137 868:0.847059 869:0.00401606 870:0.622235 871:0.337255 872:0.258824 873:0.843137 874:0.0277778 875:0.433634 876:0.345098 877:0.278431 878:0.776471 879:0.0552995 880:0.796868 881:0.443137 882:0.377953 883:0.708661 884:0.458167 885:0.70678 886:0.909804 887:0.839216 888:1 889:0.675439 890:0.243451 891:0.305882 892:0.231373 893:0.501961 894:0.25 895:0.0798356 896:0.129412 897:0.0509804 898:0.333333 901:0.160784 902:0.0117647 903:0.396078 904:0.0588235 905:0.875119 906:0.203922 907:0.0901961 908:0.423529 909:0.66 910:0.773685 911:0.831373 912:0.772549 913:1 914:0.415638 915:0.034373 916:0.65098 917:0.607843 918:0.890196 919:0.448454 920:0.351674 921:0.34902 922:0.278431 923:0.721569 924:0.106383 925:0.533455 926:0.364706 927:0.27451 928:0.815686 929:0.0555556 930:0.0249966 931:0.34902 932:0.247059 933:0.823529 934:0.106299 935:0.691623 936:0.462745 937:0.380392 938:0.878431 939:0.549133 940:0.768594 941:0.85098 942:0.815686 943:1 944:0.0397351 945:0.489905 946:0.866667 947:0.843137 948:1 949:0.0405405 950:0.634664 951:0.901961 952:0.878431 953:1 954:0.0544218 955:0.471451 956:0.894118 957:0.847059 958:1 959:0.726667 960:0.221722 961:0.45098 962:0.34902 963:0.857708 964:0.0895522 965:0.264618 966:0.368627 967:0.254902 968:0.843137 969:0.0161943 970:0.682748 971:0.372549 972:0.290196 973:0.834646 974:0.0717949 975:0.122347 976:0.337255 977:0.27451 978:0.733333 979:0.234146 980:0.68682 981:0.560784 982:0.490196 983:0.815686 984:0.607955 985:0.627535 986:0.890196 987:0.815686 988:1 989:1 990:0.16326 991:0.152941 992:0.0745098 993:0.346614 994:0.0571429 995:0.0324713 996:0.137255 997:0.0588235 998:0.345098 1001:0.164706 1002:0.0156863 1003:0.392157 1004:0.0160643 1005:0.172246 1006:0.137255 1007:0.0156863 1008:0.34902 1009:0.309278 1010:0.741836 1011:0.466667 1012:0.4 1013:0.647059 1014:0.614286 1015:0.83885 1016:0.878431 1017:0.823529 1018:1 1019:0.58427 1020:0.203055 1021:0.466667 1022:0.392157 1023:0.796078 1024:0.300448 1025:0.417369 1026:0.321569 1027:0.231373 1028:0.733333 1029:0.134021 1030:0.627034 1031:0.4 1032:0.286275 1033:0.854902 1034:0.0490196 1035:0.944047 1036:0.415686 1037:0.329412 1038:0.823529 1039:0.620321 1040:0.770175 1041:0.882353 1042:0.85098 1043:1 1044:0.546053 1045:0.998104 1046:0.894118 1047:0.890196 1048:1 1049:0.055 1050:0.864671 1051:0.933333 1052:0.929412 1053:1 1054:0.156977 1055:0.155637 1056:0.835294 1057:0.792157 1058:1 1059:0.553191 1060:0.149639 1061:0.470588 1062:0.352941 1063:0.889328 1064:0.192513 1065:0.0843447 1066:0.388235 1067:0.25098 1068:0.869565 1069:0.0201613 1070:0.169145 1071:0.352941 1072:0.258824 1073:0.784314 1074:0.122093 1075:0.631087 1076:0.419608 1077:0.356863 1078:0.779528 1079:0.612903 1080:0.660369 1081:0.854902 1082:0.776471 1083:1 1084:0.394737 1085:0.223811 1086:0.580392 1087:0.490196 1088:0.779528 1089:0.600791 1090:0.14095 1091:0.105882 1092:0.0156863 1093:0.284553 1094:0.0515021 1095:0.68486 1096:0.14902 1097:0.054902 1098:0.360784 1101:0.156863 1103:0.396078 1104:0.0119522 1105:0.621246 1106:0.152941 1107:0.0235294 1108:0.380392 1109:0.0609756 1110:0.696988 1111:0.2 1112:0.109804 1113:0.4 1114:0.847458 1115:0.771422 1116:0.768627 1117:0.701961 1118:0.992157 1119:0.544643 1120:0.0069312 1121:0.717647 1122:0.647059 1123:1 1124:0.435233 1125:0.321017 1126:0.419608 1127:0.32549 1128:0.764706 1129:0.230189 1130:0.464236 1131:0.372549 1132:0.255906 1133:0.780392 1134:0.047619 1135:0.475206 1136:0.360784 1137:0.270588 1138:0.748031 1139:0.18254 1140:0.740456 1141:0.552941 1142:0.501961 1143:0.830709 1144:0.480226 1145:0.823054 1146:0.862745 1147:0.831373 1148:1 1149:0.635714 1150:0.994622 1151:0.87451 1152:0.843137 1153:1 1154:0.512315 1155:0.0968293 1156:0.627451 1157:0.564706 1158:0.90873 1159:0.444444 1160:0.12822 1161:0.356863 1162:0.227451 1163:0.769841 1164:0.0496183 1165:0.603896 1166:0.384314 1167:0.25098 1168:0.831373 1169:0.045082 1170:0.801582 1171:0.419608 1172:0.337255 1173:0.791339 1174:0.343284 1175:0.652308 1176:0.670588 1177:0.6 1178:0.964706 1179:0.33526 1180:0.576578 1181:0.815686 1182:0.72549 1183:1 1184:0.942584 1185:0.139998 1186:0.215686 1187:0.121569 1188:0.418327 1189:0.113725 1190:0.128957 1191:0.12549 1192:0.0235294 1193:0.327935 1194:0.0266667 1195:0.81972 1196:0.156863 1197:0.054902 1198:0.380392 1201:0.164706 1203:0.435294 1204:0.0291262 1205:0.581962 1206:0.172549 1207:0.027451 1208:0.435294 1209:0.0512821 1210:0.201141 1211:0.109804 1213:0.360784 1214:0.173145 1215:0.728667 1216:0.301961 1217:0.207843 1218:0.537255 1219:0.903955 1220:0.799482 1221:0.890196 1222:0.819608 1223:1 1224:0.678899 1225:0.0530141 1226:0.670588 1227:0.596078 1228:0.929412 1229:0.296154 1230:0.350881 1231:0.419608 1232:0.329412 1233:0.742063 1234:0.268657 1235:0.472217 1236:0.384314 1237:0.282353 1238:0.741176 1239:0.0379147 1240:0.596932 1241:0.4 1242:0.309804 1243:0.764706 1244:0.110236 1245:0.82024 1246:0.505882 1247:0.411765 1248:0.87451 1249:0.114679 1250:0.956218 1251:0.533333 1252:0.435294 1253:0.913725 1254:0.316901 1255:0.119163 1256:0.411765 1257:0.298039 1258:0.796078 1259:0.0617978 1260:0.0357933 1261:0.4 1262:0.27451 1263:0.803922 1264:0.0208333 1265:0.195883 1266:0.376471 1267:0.270588 1268:0.741176 1269:0.314286 1270:0.622448 1271:0.592157 1272:0.52549 1273:0.864542 1274:0.513089 1275:0.626719 1276:0.882353 1277:0.826772 1278:1 1279:0.841121 1280:0.131169 1281:0.345098 1282:0.258824 1283:0.568627 1284:0.35124 1285:0.0813738 1286:0.14902 1287:0.0352941 1288:0.368627 1289:0.0327869 1290:0.355882 1291:0.117647 1293:0.338645 1294:0.0431034 1295:0.685599 1296:0.156863 1297:0.0392157 1298:0.388235 1301:0.180392 1302:0.054902 1303:0.403922 1304:0.63197 1305:0.487226 1306:0.156863 1307:0.0392157 1308:0.388235 1309:0.44878 1310:0.488567 1311:0.141176 1312:0.0196078 1313:0.376471 1314:0.0921659 1315:0.448557 1316:0.113725 1317:0.0117647 1318:0.341176 1319:0.25 1320:0.769103 1321:0.34902 1322:0.270588 1323:0.545817 1324:0.591837 1325:0.809642 1326:0.874016 1327:0.803922 1328:1 1329:0.632124 1330:0.0676187 1331:0.643137 1332:0.568627 1333:0.909804 1334:0.333333 1335:0.36996 1336:0.419608 1337:0.329412 1338:0.732 1339:0.276 1340:0.455788 1341:0.34902 1342:0.25098 1343:0.729412 1344:0.0737705 1345:0.635527 1346:0.407843 1347:0.290196 1348:0.827451 1349:0.00578035 1350:0.0644969 1351:0.403922 1352:0.27451 1353:0.843137 1354:0.0571429 1355:0.150055 1356:0.356863 1357:0.239216 1358:0.776471 1359:0.0338983 1360:0.620239 1361:0.392157 1362:0.294118 1363:0.741176 1364:0.376884 1365:0.618659 1366:0.596078 1367:0.52549 1368:0.882353 1369:0.411523 1370:0.604243 1371:0.87451 1372:0.815686 1373:1 1374:0.705069 1375:0.109254 1376:0.458824 1377:0.391304 1378:0.644269 1379:0.532787 1380:0.125918 1381:0.0941176 1383:0.301205 1384:0.0777027 1385:0.64445 1386:0.176471 1387:0.054902 1388:0.411765 1389:0.0569106 1390:0.128284 1391:0.133333 1392:0.00784314 1393:0.380392 1394:0.0347222 1395:0.47954 1396:0.129412 1397:0.00392157 1398:0.376471 1401:0.839216 1402:0.792157 1403:0.933071 1404:0.395652 1405:0.306954 1406:0.517647 1407:0.454902 1408:0.636364 1409:0.397059 1410:0.392573 1411:0.219608 1412:0.133333 1413:0.388235 1414:0.84492 1415:0.475371 1416:0.145098 1417:0.054902 1418:0.345098 1419:0.195531 1420:0.493151 1421:0.145098 1422:0.0588235 1423:0.341176 1424:0.449704 1425:0.756946 1426:0.443137 1427:0.364706 1428:0.647059 1429:0.556017 1430:0.847563 1431:0.862745 1432:0.796078 1433:1 1434:0.517857 1435:0.0354459 1436:0.690196 1437:0.627451 1438:0.956863 1439:0.257525 1440:0.317022 1441:0.4 1442:0.324111 1443:0.737255 1444:0.247911 1445:0.496573 1446:0.392157 1447:0.305882 1448:0.772549 1449:0.0422535 1450:0.382867 1451:0.364706 1452:0.258824 1453:0.780392 1454:0.0365854 1455:0.534636 1456:0.384314 1457:0.290196 1458:0.752941 1459:0.523316 1460:0.592471 1461:0.615686 1462:0.568627 1463:0.866667 1464:0.415179 1465:0.632898 1466:0.901961 1467:0.862205 1468:1 1469:0.715415 1470:0.111201 1471:0.443137 1472:0.384314 1473:0.616935 1474:0.431655 1475:0.102463 1476:0.117647 1477:0.027451 1478:0.317647 1479:0.0294118 1480:0.646519 1481:0.152941 1482:0.0392157 1483:0.369048 1484:0.0103806 1485:0.18028 1486:0.14902 1487:0.0156863 1488:0.388235 1489:0.0325203 1490:0.805473 1491:0.180392 1492:0.0392157 1493:0.431373 1494:0.0611111 1495:0.171138 1496:0.141176 1498:0.396078 1501:0.984314 1502:0.976471 1503:1 1504:0.158824 1505:0.0539981 1506:0.941176 1507:0.921569 1508:1 1509:0.177143 1510:0.301821 1511:0.831373 1512:0.780392 1513:0.96063 1514:0.755319 1515:0.272924 1516:0.282353 1517:0.215686 1518:0.439216 1519:0.880435 1520:0.456081 1521:0.129412 1522:0.0588235 1523:0.295276 1524:0.284024 1525:0.505991 1526:0.141176 1527:0.0627451 1528:0.317647 1529:0.242574 1530:0.732282 1531:0.32549 1532:0.247059 1533:0.533333 1534:0.806818 1535:0.804142 1536:0.843137 1537:0.768627 1538:1 1539:0.574545 1540:0.0106517 1541:0.764706 1542:0.692913 1543:1 1544:0.312741 1545:0.239555 1546:0.439216 1547:0.368627 1548:0.733068 1549:0.608187 1550:0.488285 1551:0.419608 1552:0.337255 1553:0.733871 1554:0.766667 1555:0.592426 1556:0.72549 1557:0.658824 1558:1 1559:0.185185 1560:0.659345 1561:0.866142 1562:0.835294 1563:1 1564:0.876543 1565:0.0953032 1566:0.368627 1567:0.333333 1568:0.533333 1569:0.323843 1570:0.1299 1571:0.109804 1572:0.0352941 1573:0.305882 1574:0.021645 1575:0.780251 1576:0.137255 1577:0.0352941 1578:0.364706 1579:0.0110701 1580:0.544638 1581:0.14902 1582:0.0235294 1583:0.396078 1584:0.0231481 1585:0.239482 1586:0.137255 1588:0.392157 1589:0.0376344 1590:0.637507 1591:0.160784 1592:0.0156863 1593:0.423529 1594:0.0394737 1595:0.773008 1596:0.184314 1597:0.0352941 1598:0.45098 1601:0.866667 1602:0.85098 1603:1 1604:0.92623 1605:0.96404 1606:0.972549 1607:0.952941 1608:1 1609:0.248677 1610:0.0369509 1611:0.929412 1612:0.909804 1613:1 1614:0.0465116 1615:0.279817 1616:0.894118 1617:0.866667 1618:0.996078 1619:0.672727 1620:0.251579 1621:0.321569 1622:0.278431 1623:0.427451 1624:0.769231 1625:0.455751 1626:0.168627 1627:0.0941176 1628:0.309804 1629:0.120879 1630:0.461198 1631:0.141176 1632:0.0431373 1633:0.356863 1634:0.133333 1635:0.766899 1636:0.227451 1637:0.129412 1638:0.47451 1639:0.633484 1640:0.776571 1641:0.776471 1642:0.698039 1643:0.984314 1644:0.704167 1645:0.97539 1646:0.87451 1647:0.811765 1648:1 1649:0.457944 1650:0.987009 1651:0.898039 1652:0.85098 1653:1 1654:0.4 1655:0.0250848 1656:0.827451 1657:0.784314 1658:1 1659:1 1660:0.110412 1661:0.223529 1662:0.168627 1663:0.396078 1664:0.141593 1665:0.115786 1666:0.133333 1667:0.0627451 1668:0.333333 1669:0.0338983 1670:0.24169 1671:0.113725 1672:0.00392157 1673:0.352941 1674:0.040678 1675:0.617429 1676:0.14902 1677:0.027451 1678:0.415686 1679:0.0198413 1680:0.0549906 1681:0.14902 1682:0.0117647 1683:0.419608 1685:0.498165 1686:0.14902 1687:0.00784314 1688:0.431373 1690:0.497981 1691:0.14902 1692:0.00784314 1693:0.431373 1695:0.498575 1696:0.14902 1697:0.00784314 1698:0.431373 1701:0.423529 1702:0.376471 1703:0.658824 1704:0.737705 1705:0.761502 1706:0.784314 1707:0.745098 1708:0.980392 1709:0.440329 1710:0.947144 1711:0.929412 1712:0.909804 1713:1 1714:0.309677 1715:0.00952548 1716:0.917647 1717:0.898039 1718:1 1719:0.048913 1720:0.511645 1721:0.929412 1722:0.901961 1723:1 1724:0.769912 1725:0.248468 1726:0.254902 1727:0.192157 1728:0.366534 1729:0.633166 1730:0.457612 1731:0.137255 1732:0.0235294 1733:0.344 1734:0.0697674 1735:0.535642 1736:0.14902 1737:0.019685 1738:0.393701 1739:0.00906344 1740:0.336181 1741:0.129412 1742:0.0352941 1743:0.341176 1744:0.46798 1745:0.734104 1746:0.501961 1747:0.423529 1748:0.678431 1749:0.473934 1750:0.99204 1751:0.513725 1752:0.458824 1753:0.670588 1754:0.501742 1755:0.109392 1756:0.145098 1757:0.0862745 1758:0.301587 1759:0.00934579 1760:0.235319 1761:0.137255 1762:0.0588235 1763:0.345098 1764:0.00986842 1765:1 1766:0.137255 1767:0.0392157 1768:0.374016 1769:0.0161943 1770:0.960692 1771:0.14902 1772:0.027451 1773:0.415686 1774:0.0333333 1775:0.101047 1776:0.129412 1778:0.409449 1779:0.034632 1780:0.545145 1781:0.14902 1782:0.00784314 1783:0.431373 1785:0.495781 1786:0.14902 1787:0.00392157 1788:0.435294 1790:0.477875 1791:0.14902 1792:0.00392157 1793:0.435294 1795:0.48168 1796:0.14902 1797:0.00392157 1798:0.435294 1801:0.388235 1802:0.290196 1803:0.729412 1804:0.0457516 1805:0.42799 1806:0.384314 1807:0.301961 1808:0.666667 1809:0.532934 1810:0.742227 1811:0.741176 1812:0.694118 1813:0.921569 1814:0.519337 1815:0.908409 1816:0.952941 1817:0.92549 1818:1 1819:0.257732 1820:1 1821:0.960784 1822:0.937255 1823:1 1824:0.236 1825:0.248199 1826:0.737255 1827:0.682353 1828:0.843137 1829:0.746269 1830:0.304596 1831:0.196078 1832:0.0823529 1833:0.415686 1834:0.125523 1835:0.442829 1836:0.156863 1837:0.0156863 1838:0.431373 1839:0.0197044 1840:0.70757 1841:0.164706 1842:0.0392157 1843:0.435294 1844:0.0682927 1845:0.196456 1846:0.109804 1848:0.368627 1849:0.0772532 1850:0.455947 1851:0.0823529 1853:0.341176 1854:0.0657439 1855:0.651735 1856:0.145098 1857:0.0392157 1858:0.403922 1859:0.026616 1860:0.108037 1861:0.12549 1862:0.0117647 1863:0.4 1864:0.0116959 1865:0.422124 1866:0.121569 1867:0.00392157 1868:0.407843 1869:0.0331126 1870:0.482668 1871:0.12549 1873:0.399209 1874:0.0542169 1875:0.7288 1876:0.160784 1877:0.0313725 1878:0.439216 1879:0.0328638 1880:0.109315 1881:0.14902 1882:0.00784314 1883:0.431373 1885:0.498404 1886:0.14902 1887:0.00392157 1888:0.435294 1890:0.495435 1891:0.14902 1892:0.00392157 1893:0.435294 1895:0.481971 1896:0.14902 1897:0.00392157 1898:0.435294 1901:0.415686 1902:0.290196 1903:0.803922 1906:0.396078 1907:0.290196 1908:0.721569 1911:0.431373 1912:0.372549 1913:0.639216 1916:0.854902 1917:0.819608 1918:0.976471 1921:0.980392 1922:0.956863 1923:1 1926:0.972549 1927:0.921569 1928:1 1931:0.309804 1932:0.196078 1933:0.529412 1936:0.160784 1937:0.0156863 1938:0.447059 1941:0.14902 1942:0.00784314 1943:0.447059 1946:0.180392 1947:0.0392157 1948:0.478431 1951:0.12549 1953:0.431373 1956:0.121569 1958:0.423529 1961:0.133333 1963:0.444882 1966:0.160784 1967:0.0352941 1968:0.462745 1971:0.129412 1973:0.411765 1976:0.141176 1977:0.0117647 1978:0.419608 1981:0.14902 1982:0.00784314 1983:0.431373 1986:0.14902 1987:0.00392157 1988:0.435294 1991:0.14902 1992:0.00392157 1993:0.435294 1996:0.14902 1997:0.00392157 1998:0.435294 
2 1:0.239216 2:0.360784 3:0.490196 4:0.0555556 5:0.57308 6:0.254902 7:0.376471 8:0.505882 9:0.0188679 10:0.246366 11:0.25098 12:0.352941 13:0.498039 14:0.0344828 15:0.0432958 16:0.239216 17:0.341176 18:0.486275 19:0.0368852 20:0.430562 21:0.219608 22:0.317647 23:0.482353 24:0.024 25:0.497305 26:0.211765 27:0.321569 28:0.482353 29:0.00390625 30:1 31:0.211765 32:0.32549 33:0.478431 34:0.0863636 35:0.943391 36:0.223529 37:0.356863 38:0.498039 39:0.0717131 40:0.11117 41:0.164706 42:0.305882 43:0.447059 44:0.0460829 45:0.578855 46:0.180392 47:0.333333 48:0.458824 49:0.0368421 50:0.386661 51:0.164706 52:0.313725 53:0.437008 54:0.0675676 55:0.794755 56:0.211765 57:0.352941 58:0.46 59:0.0837696 60:0.0160183 61:0.231373 62:0.341176 63:0.462745 64:0.037037 65:0.28727 66:0.215686 67:0.305882 68:0.431373 69:0.0753138 70:0.580357 71:0.270588 72:0.333333 73:0.47451 74:0.0423729 75:0.201886 76:0.223529 77:0.294118 78:0.439216 79:0.0576923 80:0.799214 81:0.243137 82:0.345098 83:0.490196 84:0.0531915 85:0.127623 86:0.2 87:0.313725 88:0.466667 89:0.0819672 90:0.622778 91:0.254902 92:0.356863 93:0.494024 94:0.0613208 95:0.472392 96:0.247059 97:0.34902 98:0.494118 101:0.27451 102:0.384314 103:0.517647 104:0.028169 105:0.366378 106:0.262745 107:0.372549 108:0.5 109:0.0682731 110:0.102838 111:0.215686 112:0.321569 113:0.466667 114:0.05 115:0.758507 116:0.270588 117:0.376471 118:0.521569 119:0.0462633 120:0.0806431 121:0.243137 122:0.341176 123:0.505882 124:0.0266667 125:0.1653 126:0.207843 127:0.317647 128:0.478431 129:0.0862944 130:0.196331 131:0.129412 132:0.25098 133:0.403922 134:0.111111 135:0.594439 136:0.164706 137:0.298039 138:0.437008 139:0.0634921 140:0.667644 141:0.180723 142:0.341176 143:0.482353 144:0.0136364 145:0.906249 146:0.207843 147:0.352941 148:0.486275 149:0.0677291 150:0.150296 151:0.152941 152:0.301961 153:0.427451 154:0.0235294 155:0.0714735 156:0.156863 157:0.290196 158:0.407843 159:0.0645161 160:0.778175 161:0.233202 162:0.34902 163:0.46 164:0.032967 165:0.749072 166:0.278431 167:0.368627 168:0.488095 169:0.0464135 170:0.174664 171:0.25098 172:0.32549 173:0.447581 174:0.0893855 175:0.116745 176:0.203922 177:0.278431 178:0.418972 179:0.0483092 180:0.669029 181:0.215686 182:0.313725 183:0.470588 184:0.0617284 185:0.703195 186:0.243137 187:0.356863 188:0.509804 189:0.089172 190:0.816578 191:0.301961 192:0.403922 193:0.560784 194:0.0964912 195:0.109315 196:0.239216 197:0.345098 198:0.490196 201:0.287402 202:0.396078 203:0.529412 204:0.173184 205:0.392669 206:0.211765 207:0.321569 208:0.454902 209:0.156682 210:0.495992 211:0.211765 212:0.317647 213:0.462745 214:0.0224719 215:0.896763 216:0.215686 217:0.329412 218:0.47451 219:0.00361011 220:0.874272 221:0.211765 222:0.329412 223:0.482072 224:0.0558659 225:0.346562 226:0.168627 227:0.294118 228:0.452756 229:0.296089 230:0.510383 231:0.176471 232:0.309524 233:0.442623 234:0.189922 235:0.50224 236:0.180392 237:0.321569 238:0.462745 239:0.193103 240:0.50346 241:0.188235 242:0.329412 243:0.470588 244:0.191126 245:0.484152 246:0.168627 247:0.313725 248:0.447059 249:0.113861 250:0.42791 251:0.137255 252:0.27451 253:0.403922 254:0.029661 255:0.498937 256:0.152941 257:0.27451 258:0.403922 259:0.0772358 260:0.749003 261:0.239216 262:0.345098 263:0.468 264:0.0985915 265:0.992372 266:0.258824 267:0.345098 268:0.482353 269:0.0851064 270:0.157037 271:0.203922 272:0.27451 273:0.419608 274:0.0555556 275:0.592764 276:0.215686 277:0.301961 278:0.440945 279:0.0619469 280:0.921006 281:0.223529 282:0.32549 283:0.482353 284:0.0227273 285:0.528005 286:0.211765 287:0.329412 288:0.465021 289:0.0146341 290:0.655382 291:0.231373 292:0.341176 293:0.501961 294:0.0955414 295:0.22509 296:0.172549 297:0.286275 298:0.439216 301:0.380392 302:0.501961 303:0.631373 304:0.136187 305:0.0331268 306:0.329412 307:0.458824 308:0.588235 309:0.134276 310:0.199941 311:0.172549 312:0.305882 313:0.444882 314:0.111111 315:0.521883 316:0.184314 317:0.333333 318:0.470588 319:0.0732759 320:0.582422 321:0.211765 322:0.364706 323:0.513834 324:0.205036 325:0.610211 326:0.34902 327:0.495968 328:0.662745 329:0.0611111 330:0.507521 331:0.346457 332:0.517647 333:0.661417 334:0.0325444 335:0.633745 336:0.380392 337:0.552941 338:0.698039 339:0.0324074 340:0.499028 341:0.388235 342:0.552941 343:0.690196 344:0.244792 345:0.332842 346:0.239216 347:0.4 348:0.529412 349:0.304348 350:0.434228 351:0.152941 352:0.301961 353:0.435294 354:0.0701107 355:0.435846 356:0.129412 357:0.278431 358:0.403922 359:0.00813008 360:0.245933 361:0.137255 362:0.266667 363:0.396078 364:0.164 365:0.541544 366:0.188235 367:0.305882 368:0.443137 369:0.156863 370:0.510717 371:0.207843 372:0.317647 373:0.441767 374:0.111111 375:0.363432 376:0.145098 377:0.25098 378:0.396078 379:0.136612 380:0.724029 381:0.219608 382:0.34902 383:0.496032 384:0.0769231 385:0.0142001 386:0.211765 387:0.341176 388:0.473469 389:0.0142857 390:0.0486118 391:0.215686 392:0.337255 393:0.488189 394:0.0784314 395:0.296269 396:0.168627 397:0.290196 398:0.443137 401:0.215686 402:0.368627 403:0.494118 404:0.112583 405:0.790252 406:0.278431 407:0.439216 408:0.564706 409:0.0823045 410:0.0279593 411:0.239216 412:0.419608 413:0.552941 414:0.0319635 415:0.101381 416:0.2 417:0.4 418:0.529412 419:0.202479 420:0.639897 421:0.329412 422:0.545098 423:0.690196 424:0.0780488 425:0.938771 426:0.345098 427:0.572549 428:0.713725 429:0.0125786 430:0.112319 431:0.321569 432:0.556863 433:0.698039 434:0.037234 435:0.679418 436:0.364706 437:0.592157 438:0.728346 439:0.0885417 440:0.703262 441:0.439216 442:0.662745 443:0.788235 444:0.0333333 445:0.24667 446:0.427451 447:0.639216 448:0.758893 449:0.371429 450:0.271129 451:0.188235 452:0.380392 453:0.505882 454:0.287037 455:0.430386 456:0.0980392 457:0.282353 458:0.405512 459:0.430622 460:0.567768 461:0.25098 462:0.427451 463:0.551587 464:0.238095 465:0.533242 466:0.294118 467:0.470588 468:0.603922 469:0.229167 470:0.427304 471:0.203922 472:0.380392 473:0.476793 474:0.546099 475:0.443842 476:0.109804 477:0.27451 478:0.411765 479:0.252294 480:0.510374 481:0.133333 482:0.290196 483:0.427451 484:0.101942 485:0.588919 486:0.188235 487:0.337255 488:0.45749 489:0.0275229 490:0.722109 491:0.215686 492:0.356863 493:0.496063 494:0.109195 495:0.187657 496:0.152941 497:0.286275 498:0.420635 501:0.180392 502:0.352941 503:0.47451 504:0.013986 505:0.578589 506:0.180392 507:0.364706 508:0.486275 509:0.104603 510:0.9448 511:0.192157 512:0.403922 513:0.52549 514:0.149038 515:0.773556 516:0.286275 517:0.52549 518:0.65098 519:0.0373444 520:0.346645 521:0.235294 522:0.494118 523:0.628458 524:0.0658307 525:0.633399 526:0.282353 527:0.564706 528:0.683128 529:0.0170213 530:0.707136 531:0.298039 532:0.580392 533:0.713725 534:0.0377907 535:0.629307 536:0.341176 537:0.619608 538:0.752941 539:0.0863636 540:0.894954 541:0.403922 542:0.666667 543:0.796078 544:0.0650888 545:0.957342 546:0.427451 547:0.678431 548:0.8 549:0.0682731 550:0.218698 551:0.376471 552:0.607843 553:0.730159 554:0.131313 555:0.499062 556:0.384314 557:0.607843 558:0.733333 559:0.129534 560:0.532831 561:0.403922 562:0.627451 563:0.752941 564:0.0542986 565:0.709938 566:0.45098 567:0.670588 568:0.807843 569:0.027451 570:1 571:0.443137 572:0.670588 573:0.807843 574:0.230366 575:0.272748 576:0.286275 577:0.498039 578:0.620408 579:0.269663 580:0.378728 581:0.177866 582:0.368627 583:0.490119 584:0.151515 585:0.465038 586:0.184314 587:0.345098 588:0.453441 589:0.0106383 590:0.319927 591:0.184314 592:0.337255 593:0.429167 594:0.0728155 595:0.16293 596:0.129412 597:0.282353 598:0.407843 601:0.2 602:0.372549 603:0.486275 604:0.105455 605:0.170275 606:0.0823529 607:0.266667 608:0.378486 609:0.229814 610:0.620695 611:0.160784 612:0.384314 613:0.505882 614:0.197309 615:0.696894 616:0.290196 617:0.552941 618:0.67451 619:0.0185185 620:0.517028 621:0.266667 622:0.556863 623:0.690196 624:0.0471698 625:0.537924 626:0.254902 627:0.572549 628:0.701961 629:0.0377358 630:0.711664 631:0.298039 632:0.623529 633:0.74902 634:0.064257 635:0.132857 636:0.247059 637:0.562992 638:0.694118 639:0.173913 640:0.586501 641:0.32549 642:0.627451 643:0.752941 644:0.0493274 645:0.762128 646:0.384314 647:0.670588 648:0.796078 649:0.0524017 650:0.735717 651:0.443137 652:0.713725 653:0.84127 654:0.0318471 655:0.46755 656:0.447059 657:0.709804 658:0.839216 659:0.10559 660:0.195691 661:0.372549 662:0.643137 663:0.772549 664:0.00947867 665:0.7484 666:0.372549 667:0.65098 668:0.784314 669:0.064 670:0.665696 671:0.423529 672:0.705882 673:0.839216 674:0.0952381 675:0.147383 676:0.384314 677:0.647059 678:0.776471 679:0.220096 680:0.190257 681:0.266667 682:0.47451 683:0.577075 684:0.132479 685:0.305501 686:0.180392 687:0.360784 688:0.448413 689:0.123077 690:0.424485 691:0.14902 692:0.321569 693:0.368644 694:0.135747 695:0.477584 696:0.133333 697:0.305882 698:0.4 701:0.172549 702:0.321569 703:0.439216 704:0.0433071 705:0.673851 706:0.192157 707:0.364706 708:0.451883 709:0.111111 710:0.869657 711:0.223529 712:0.439216 713:0.553785 714:0.129771 715:0.760058 716:0.329412 717:0.584314 718:0.698795 719:0.038674 720:0.914555 721:0.301961 722:0.603922 723:0.733333 724:0.0210526 725:0.120696 726:0.262745 727:0.588235 728:0.713725 729:0.00515464 730:0.367269 731:0.247059 732:0.580392 733:0.705882 734:0.13253 735:0.699131 736:0.333333 737:0.666667 738:0.792157 739:0.046875 740:0.175082 741:0.305882 742:0.623529 743:0.752941 744:0.0684932 745:0.649247 746:0.376471 747:0.678431 748:0.803922 749:0.0728155 750:0.706969 751:0.45098 752:0.737255 753:0.862745 754:0.0632184 755:0.203386 756:0.407843 757:0.692913 758:0.818898 759:0.0709677 760:0.250383 761:0.360784 762:0.643137 763:0.776471 764:0.108974 765:0.585767 766:0.384314 767:0.686275 768:0.815686 769:0.0142349 770:0.2479 771:0.352941 772:0.670588 773:0.807843 774:0.085 775:0.199967 776:0.309804 777:0.596078 778:0.721569 779:0.084507 780:0.198885 781:0.298039 782:0.519685 783:0.606557 784:0.0861244 785:0.228287 786:0.258824 787:0.45098 788:0.537255 789:0.0169492 790:0.403853 791:0.266667 792:0.439216 793:0.508264 794:0.143498 795:0.0119633 796:0.239216 797:0.411765 798:0.501961 801:0.227451 802:0.337255 803:0.458824 804:0.152174 805:0.424305 806:0.160784 807:0.290196 808:0.367521 809:0.191057 810:0.609125 811:0.243137 812:0.419608 813:0.54902 814:0.177778 815:0.714101 816:0.329412 817:0.552941 818:0.678431 819:0.0714286 820:0.950759 821:0.309804 822:0.576471 823:0.709163 824:0.037234 825:0.966342 826:0.290196 827:0.592157 828:0.721569 829:0.0497512 830:0.54118 831:0.286275 832:0.603922 833:0.741176 834:0.0833333 835:0.617294 836:0.329412 837:0.647059 838:0.776471 839:0.0172414 840:0.743252 841:0.356863 842:0.658824 843:0.788235 844:0.0858896 845:0.598229 846:0.4 847:0.690196 848:0.823529 849:0.0727273 850:0.630436 851:0.443137 852:0.729412 853:0.853755 854:0.0454545 855:0.300793 856:0.411765 857:0.698039 858:0.823529 859:0.0254777 860:0.634967 861:0.423529 862:0.705882 863:0.839216 864:0.0306122 865:0.153204 866:0.384314 867:0.686275 868:0.815686 869:0.0361446 870:0.160407 871:0.329412 872:0.65098 873:0.788235 874:0.1 875:0.251155 876:0.286275 877:0.576471 878:0.709804 879:0.0875576 880:0.356566 881:0.294118 882:0.511811 883:0.625984 884:0.0876494 885:0.385931 886:0.270588 887:0.458824 888:0.545817 889:0.166667 890:0.206538 891:0.141176 892:0.309804 893:0.415686 894:0.0211864 895:0.043255 896:0.129412 897:0.301961 898:0.396078 901:0.34902 902:0.439216 903:0.564706 904:0.0392157 905:0.00259531 906:0.321569 907:0.427451 908:0.560784 909:0.084 910:0.989503 911:0.294118 912:0.443137 913:0.576471 914:0.156379 915:0.974326 916:0.282353 917:0.470588 918:0.603922 919:0.108247 920:0.86953 921:0.298039 922:0.541176 923:0.682353 924:0.0851064 925:0.690849 926:0.34902 927:0.627451 928:0.760784 929:0.0198413 930:0.777003 931:0.34902 932:0.647059 933:0.788235 935:0.245292 936:0.337255 937:0.647059 938:0.776471 939:0.104046 940:0.631851 941:0.403922 942:0.705882 943:0.835294 944:0.0728477 945:0.565187 946:0.431373 947:0.721569 948:0.854902 949:0.0135135 950:0.710273 951:0.454902 952:0.741176 953:0.866667 954:0.0816327 955:0.0923503 956:0.423529 957:0.709804 958:0.835294 959:0.0266667 960:0.140389 961:0.4 962:0.690196 963:0.822134 964:0.0348259 965:0.172431 966:0.364706 967:0.666667 968:0.796078 969:0.0121457 970:0.361531 971:0.337255 972:0.654902 973:0.791339 974:0.0307692 975:0.206987 976:0.345098 977:0.627451 978:0.760784 979:0.0536585 980:0.258221 981:0.368627 982:0.580392 983:0.701961 984:0.244318 985:0.285102 986:0.239216 987:0.411765 988:0.52549 989:0.151961 990:0.203616 991:0.12549 992:0.286275 993:0.40239 994:0.0285714 995:0.620362 996:0.145098 997:0.309804 998:0.423529 1001:0.317647 1002:0.4 1003:0.52549 1004:0.108434 1005:0.0868226 1006:0.235294 1007:0.341176 1008:0.47451 1009:0.0446735 1010:0.199093 1011:0.156863 1012:0.294118 1013:0.427451 1014:0.128571 1015:0.776253 1016:0.227451 1017:0.407843 1018:0.541176 1019:0.241573 1020:0.838132 1021:0.341176 1022:0.568627 1023:0.709804 1024:0.0852018 1025:0.905818 1026:0.352941 1027:0.619608 1028:0.756863 1029:0.0257732 1030:0.748622 1031:0.356863 1032:0.647059 1033:0.780392 1034:0.0686275 1035:0.644759 1036:0.396078 1037:0.698039 1038:0.827451 1039:0.0748663 1040:0.84233 1041:0.443137 1042:0.745098 1043:0.87451 1044:0.0328947 1045:0.106213 1046:0.435294 1047:0.729412 1048:0.854902 1049:0.03 1050:0.309449 1051:0.407843 1052:0.701961 1053:0.827451 1054:0.0348837 1055:0.467206 1056:0.403922 1057:0.698039 1058:0.823529 1059:0.037234 1060:0.405901 1061:0.388235 1062:0.678431 1063:0.810277 1064:0.0106952 1065:0.0705763 1066:0.376471 1067:0.678431 1068:0.806324 1069:0.0322581 1070:0.12982 1071:0.34902 1072:0.647059 1073:0.788235 1074:0.0639535 1075:0.0438257 1076:0.360784 1077:0.627451 1078:0.771654 1079:0.0537634 1080:0.985312 1081:0.427451 1082:0.623529 1083:0.762846 1084:0.357895 1085:0.16545 1086:0.227451 1087:0.384314 1088:0.519685 1089:0.106719 1090:0.136724 1091:0.152941 1092:0.298039 1093:0.426829 1094:0.0214592 1095:0.558842 1096:0.160784 1097:0.309804 1098:0.447059 1101:0.219608 1102:0.309804 1103:0.435294 1104:0.0199203 1105:0.678826 1106:0.219608 1107:0.32549 1108:0.458824 1109:0.0650407 1110:0.338218 1111:0.137255 1112:0.27451 1113:0.407843 1114:0.107345 1115:0.625915 1116:0.160784 1117:0.337255 1118:0.470588 1119:0.178571 1120:0.776495 1121:0.286275 1122:0.494118 1123:0.639216 1124:0.217617 1125:0.878891 1126:0.368627 1127:0.619608 1128:0.756863 1129:0.109434 1130:0.91237 1131:0.403922 1132:0.681102 1133:0.815686 1134:0.026455 1135:0.152388 1136:0.372549 1137:0.662745 1138:0.795276 1139:0.0555556 1140:0.705372 1141:0.423529 1142:0.72549 1143:0.850394 1144:0.0282486 1145:0.60389 1146:0.439216 1147:0.741176 1148:0.866667 1149:0.0285714 1150:0.286888 1151:0.431373 1152:0.72549 1153:0.850394 1154:0.0246305 1155:1 1156:0.431373 1157:0.72549 1158:0.849206 1159:0.0757576 1160:0.147982 1161:0.388235 1162:0.670588 1163:0.801587 1164:0.0152672 1165:0.152778 1166:0.368627 1167:0.65098 1168:0.784314 1169:0.0491803 1170:0.261671 1171:0.321569 1172:0.6 1173:0.744094 1174:0.0149254 1175:0.132718 1176:0.337255 1177:0.580392 1178:0.721569 1179:0.138728 1180:0.14888 1181:0.309804 1182:0.486275 1183:0.631373 1184:0.215311 1185:0.195221 1186:0.168627 1187:0.313725 1188:0.454183 1189:0.0196078 1190:0.525337 1191:0.176471 1192:0.317647 1193:0.449393 1194:0.01 1195:0.947609 1196:0.188235 1197:0.317647 1198:0.470588 1201:0.215686 1202:0.32549 1203:0.447059 1204:0.0631068 1205:0.630594 1206:0.247059 1207:0.368627 1208:0.498039 1209:0.0683761 1210:0.0706579 1211:0.192157 1212:0.329412 1213:0.462745 1214:0.0176678 1215:0.147951 1216:0.141176 1217:0.305882 1218:0.443137 1219:0.107345 1220:0.641202 1221:0.164706 1222:0.368627 1223:0.505976 1224:0.16055 1225:0.782698 1226:0.282353 1227:0.517647 1228:0.658824 1229:0.207692 1230:0.884352 1231:0.4 1232:0.666667 1233:0.801587 1234:0.159204 1235:0.990278 1236:0.396078 1237:0.678431 1238:0.811765 1239:0.0900474 1240:0.630568 1241:0.45098 1242:0.745098 1243:0.870588 1244:0.0393701 1245:1 1246:0.443137 1247:0.745098 1248:0.870588 1249:0.059633 1250:0.143438 1251:0.407843 1252:0.705882 1253:0.819608 1254:0.00704225 1255:0.170713 1256:0.407843 1257:0.694118 1258:0.811765 1259:0.0393258 1260:0.190215 1261:0.388235 1262:0.658824 1263:0.788235 1264:0.00833333 1265:1 1266:0.396078 1267:0.658824 1268:0.788235 1269:0.0979592 1270:0.117901 1271:0.341176 1272:0.584314 1273:0.721116 1274:0.183246 1275:0.0550099 1276:0.317647 1277:0.527559 1278:0.664032 1279:0.252336 1280:0.0558289 1281:0.266667 1282:0.431373 1283:0.568627 1284:0.0991736 1285:0.227003 1286:0.2 1287:0.337255 1288:0.470588 1289:0.0819672 1290:0.447522 1291:0.180392 1292:0.305882 1293:0.434263 1294:0.0991379 1295:0.37215 1296:0.117647 1297:0.243137 1298:0.380392 1301:0.25098 1302:0.360784 1303:0.482353 1304:0.0408922 1305:0.207417 1306:0.203922 1307:0.313725 1308:0.447059 1309:0.00487805 1310:0.36943 1311:0.184314 1312:0.309804 1313:0.447059 1314:0.0506912 1315:0.656227 1316:0.203922 1317:0.352941 1318:0.490196 1319:0.0282258 1320:0.38895 1321:0.156863 1322:0.333333 1323:0.474104 1324:0.0244898 1325:0.571727 1326:0.141732 1327:0.34902 1328:0.490119 1329:0.233161 1330:0.776061 1331:0.298039 1332:0.533333 1333:0.67451 1334:0.25 1335:0.841173 1336:0.470588 1337:0.729412 1338:0.864 1339:0.116 1340:0.0298099 1341:0.419608 1342:0.698039 1343:0.827451 1344:0.0163934 1345:0.601517 1346:0.431373 1347:0.713725 1348:0.831373 1349:0.0635838 1350:0.0416878 1351:0.423529 1352:0.698039 1353:0.815686 1354:0.12381 1355:0.0152129 1356:0.423529 1357:0.678431 1358:0.8 1359:0.211864 1360:0.0123799 1361:0.403922 1362:0.643137 1363:0.776471 1364:0.296482 1365:0.032366 1366:0.368627 1367:0.580392 1368:0.717647 1369:0.263374 1370:0.0579244 1371:0.25098 1372:0.443137 1373:0.592157 1374:0.184332 1375:0.106808 1376:0.156863 1377:0.328063 1378:0.462451 1379:0.106557 1380:0.796528 1381:0.286275 1382:0.435294 1383:0.542169 1384:0.0878378 1385:1 1386:0.301961 1387:0.435294 1388:0.54902 1389:0.0609756 1390:0.173635 1391:0.254902 1392:0.380392 1393:0.494118 1394:0.0972222 1395:0.29498 1396:0.14902 1397:0.27451 1398:0.388235 1401:0.258824 1402:0.345098 1403:0.480315 1404:0.0521739 1405:0.0936281 1406:0.219608 1407:0.317647 1408:0.44664 1409:0.0235294 1410:0.924654 1411:0.227451 1412:0.329412 1413:0.470588 1414:0.0641711 1415:0.87317 1416:0.25098 1417:0.364706 1418:0.509804 1419:0.0391061 1420:0.0811677 1421:0.211765 1422:0.34902 1423:0.505882 1424:0.0769231 1425:0.371877 1426:0.14902 1427:0.309804 1428:0.462745 1429:0.0871369 1430:0.718489 1431:0.207843 1432:0.4 1433:0.547244 1434:0.2 1435:0.811976 1436:0.392157 1437:0.607843 1438:0.752941 1439:0.113712 1440:0.883349 1441:0.470588 1442:0.715415 1443:0.843137 1444:0.0779944 1445:0.0626821 1446:0.411765 1447:0.662745 1448:0.784314 1449:0.244131 1450:0.056388 1451:0.341176 1452:0.580392 1453:0.705882 1454:0.268293 1455:0.0411558 1456:0.258824 1457:0.47451 1458:0.596078 1459:0.248705 1460:0.0486182 1461:0.223529 1462:0.403922 1463:0.537255 1464:0.0803571 1465:0.117977 1466:0.192157 1467:0.346457 1468:0.486275 1469:0.0197628 1470:0.269817 1471:0.184314 1472:0.313725 1473:0.451613 1474:0.0179856 1475:0.306375 1476:0.176471 1477:0.294118 1478:0.431373 1479:0.0336134 1480:0.836704 1481:0.207843 1482:0.341176 1483:0.428571 1484:0.0692042 1485:0.760453 1486:0.286275 1487:0.423529 1488:0.501961 1489:0.0609756 1490:0.989316 1491:0.298039 1492:0.427451 1493:0.505882 1494:0.144444 1496:0.294118 1497:0.423529 1498:0.501961 1501:0.207843 1502:0.309804 1503:0.454902 1504:0.205882 1505:0.469191 1506:0.176471 1507:0.282353 1508:0.427451 1509:0.188571 1510:0.511551 1511:0.188235 1512:0.290196 1513:0.444882 1514:0.0851064 1515:0.620568 1516:0.219608 1517:0.341176 1518:0.494118 1519:0.0706522 1520:0.806516 1521:0.262745 1522:0.388235 1523:0.547244 1524:0.112426 1525:0.162955 1526:0.180392 1527:0.321569 1528:0.478431 1529:0.0247525 1530:0.371396 1531:0.141176 1532:0.309804 1533:0.462745 1534:0.261364 1535:0.731388 1536:0.313725 1537:0.501961 1538:0.643137 1539:0.138182 1540:0.896875 1541:0.403922 1542:0.598425 1543:0.73494 1544:0.247104 1545:0.091907 1546:0.25098 1547:0.458824 1548:0.581673 1549:0.222222 1550:0.147364 1551:0.133333 1552:0.333333 1553:0.443548 1554:0.0555556 1555:0.274222 1556:0.105882 1557:0.282353 1558:0.375 1559:0.106481 1560:0.624704 1561:0.192913 1562:0.345098 1563:0.476378 1564:0.0246914 1565:0.540589 1566:0.231373 1567:0.345098 1568:0.490196 1569:0.0213523 1570:0.386895 1571:0.223529 1572:0.32549 1573:0.470588 1574:0.0606061 1575:0.268705 1576:0.176471 1577:0.27451 1578:0.407843 1579:0.0516605 1580:0.627194 1581:0.211765 1582:0.329412 1583:0.427451 1584:0.0324074 1585:0.789792 1586:0.235294 1587:0.364706 1588:0.443137 1589:0.0537634 1590:0.261948 1591:0.2 1592:0.321569 1593:0.403922 1594:0.0789474 1595:0.677446 1596:0.243137 1597:0.364706 1598:0.447059 1601:0.298039 1602:0.447059 1603:0.611765 1604:0.352459 1605:0.456552 1606:0.262745 1607:0.411765 1608:0.576471 1609:0.280423 1610:0.441008 1611:0.192157 1612:0.341176 1613:0.505882 1614:0.27907 1615:0.485626 1616:0.172549 1617:0.321569 1618:0.486275 1619:0.25 1620:0.519865 1621:0.196078 1622:0.352941 1623:0.517647 1624:0.149038 1625:0.476603 1626:0.180392 1627:0.337255 1628:0.501961 1629:0.043956 1630:0.439535 1631:0.168627 1632:0.329412 1633:0.482353 1634:0.0777778 1635:0.873429 1636:0.207843 1637:0.372549 1638:0.517647 1639:0.0995475 1640:0.980169 1641:0.219608 1642:0.384314 1643:0.529412 1644:0.0208333 1645:0.309752 1646:0.207843 1647:0.364706 1648:0.501961 1649:0.0373832 1650:0.268218 1651:0.184314 1652:0.333333 1653:0.466667 1654:0.00784314 1655:0.749233 1656:0.196078 1657:0.341176 1658:0.47451 1659:0.0340426 1660:0.806106 1661:0.25098 1662:0.368627 1663:0.505882 1664:0.0176991 1665:0.9606 1666:0.262745 1667:0.372549 1668:0.509804 1669:0.0423729 1670:0.16009 1671:0.239216 1672:0.333333 1673:0.47451 1674:0.0237288 1675:0.139384 1676:0.215686 1677:0.313725 1678:0.447059 1679:0.0119048 1680:1 1681:0.215686 1682:0.313725 1683:0.439216 1684:0.0447761 1685:0.749083 1686:0.243137 1687:0.352941 1688:0.47451 1689:0.0292683 1690:0.2436 1691:0.227451 1692:0.32549 1693:0.45098 1694:0.0816327 1695:0.247862 1696:0.180392 1697:0.278431 1698:0.403922 1701:0.447059 1702:0.611765 1703:0.788235 1704:0.0983607 1705:0.00815134 1706:0.439216 1707:0.603922 1708:0.780392 1709:0.0699588 1710:0.0736435 1711:0.407843 1712:0.576471 1713:0.745098 1714:0.0645161 1715:0.2104 1716:0.368627 1717:0.537255 1718:0.705882 1719:0.146739 1720:0.392501 1721:0.309804 1722:0.47451 1723:0.639216 1724:0.221239 1725:0.403747 1726:0.203922 1727:0.368627 1728:0.525896 1729:0.336683 1730:0.445127 1731:0.129412 1732:0.290196 1733:0.432 1734:0.334884 1735:0.494959 1736:0.121569 1737:0.271654 1738:0.42126 1739:0.217523 1740:0.560995 1741:0.243137 1742:0.388235 1743:0.537255 1744:0.0295567 1745:0.321589 1746:0.223529 1747:0.364706 1748:0.505882 1749:0.042654 1750:0.284037 1751:0.196078 1752:0.333333 1753:0.466667 1754:0.00348432 1755:0.247337 1756:0.207843 1757:0.32549 1758:0.456349 1759:0.0327103 1760:0.745108 1761:0.243137 1762:0.352941 1763:0.486275 1765:0.493815 1766:0.247059 1767:0.352941 1768:0.484252 1769:0.0323887 1770:0.26384 1771:0.223529 1772:0.321569 1773:0.454902 1774:0.0238095 1775:0.303176 1776:0.203922 1777:0.301961 1778:0.433071 1779:0.017316 1780:0.614877 1781:0.215686 1782:0.309804 1783:0.45098 1784:0.037037 1785:0.680766 1786:0.25098 1787:0.345098 1788:0.486275 1789:0.0393258 1790:0.314537 1791:0.227451 1792:0.321569 1793:0.462745 1794:0.097561 1795:0.275603 1796:0.180392 1797:0.27451 1798:0.415686 1801:0.392157 1802:0.568627 1803:0.741176 1804:0.0849673 1805:0.045811 1806:0.372549 1807:0.54902 1808:0.721569 1809:0.0718563 1810:0.93146 1811:0.4 1812:0.568627 1813:0.737255 1814:0.0828729 1815:0.813718 1816:0.454902 1817:0.623529 1818:0.792157 1819:0.123711 1820:0.930884 1821:0.478431 1822:0.643137 1823:0.807843 1824:0.084 1825:0.0244961 1826:0.454902 1827:0.619608 1828:0.784314 1829:0.0945274 1830:0.105373 1831:0.411765 1832:0.572549 1833:0.72549 1834:0.0460251 1835:0.330819 1836:0.380392 1837:0.533333 1838:0.682353 1839:0.182266 1840:0.311906 1841:0.254902 1842:0.4 1843:0.54902 1844:0.273171 1845:0.474155 1846:0.231373 1847:0.372549 1848:0.513725 1849:0.223176 1850:0.465275 1851:0.196078 1852:0.333333 1853:0.466667 1854:0.141869 1855:0.49261 1856:0.207843 1857:0.32549 1858:0.462745 1859:0.106464 1860:0.537676 1861:0.243137 1862:0.352941 1863:0.486275 1864:0.0935673 1865:0.506446 1866:0.247059 1867:0.356863 1868:0.490196 1869:0.0264901 1870:0.330723 1871:0.223529 1872:0.329412 1873:0.458498 1874:0.0361446 1875:0.0954187 1876:0.207843 1877:0.313725 1878:0.447059 1879:0.0469484 1880:0.938356 1881:0.231373 1882:0.32549 1883:0.466667 1884:0.0517241 1885:0.815977 1886:0.266667 1887:0.360784 1888:0.501961 1889:0.047619 1890:0.148714 1891:0.243137 1892:0.337255 1893:0.478431 1894:0.0536585 1895:0.179053 1896:0.2 1897:0.294118 1898:0.435294 1901:0.341176 1902:0.517647 1903:0.690196 1906:0.329412 1907:0.505882 1908:0.678431 1911:0.376471 1912:0.545098 1913:0.713725 1916:0.411765 1917:0.580392 1918:0.74902 1921:0.396078 1922:0.560784 1923:0.72549 1926:0.4 1927:0.564706 1928:0.729412 1931:0.435294 1932:0.596078 1933:0.74902 1936:0.435294 1937:0.6 1938:0.745098 1941:0.47451 1942:0.619608 1943:0.768627 1946:0.431373 1947:0.572549 1948:0.713725 1951:0.356863 1952:0.494118 1953:0.627451 1956:0.309804 1957:0.435294 1958:0.572549 1961:0.305882 1962:0.415686 1963:0.547244 1966:0.262745 1967:0.372549 1968:0.505882 1971:0.203922 1972:0.309804 1973:0.443137 1976:0.168627 1977:0.27451 1978:0.407843 1981:0.215686 1982:0.309804 1983:0.45098 1986:0.25098 1987:0.345098 1988:0.486275 1991:0.231373 1992:0.32549 1993:0.466667 1996:0.184314 1997:0.278431 1998:0.419608 
0.037510776429238737 1:0.984314 2:0.976471 3:0.972549 4:0.0555556 5:0.616424 6:1 7:1 8:0.988235 9:0.0188679 10:0.0343345 11:0.996078 12:1 13:0.984314 14:0.185345 15:0.21296 16:0.819608 17:0.831373 18:0.823529 19:0.155738 20:0.693298 21:0.952941 22:0.964706 23:0.980392 24:0.04 25:0.645684 26:0.984314 27:0.988235 28:1 29:0.0625 30:0.080424 31:0.960784 32:0.94902 33:1 34:0.2 35:0.141079 36:0.819608 37:0.811765 38:0.858824 39:0.12749 40:0.658115 41:0.945098 42:0.929412 43:0.952941 44:0.0645161 45:0.566915 46:0.968627 47:0.960784 48:0.960784 49:0.0157895 50:0.497733 51:0.976471 52:0.964706 53:0.948819 54:0.0540541 55:0.690439 56:1 57:0.996078 58:0.976 59:0.0942408 60:0.0050183 61:0.996078 62:0.996078 63:0.972549 64:0.0694444 65:1 66:0.988235 67:1 68:0.964706 69:0.117155 70:0.048505 71:0.952941 72:0.968627 73:0.921569 74:0.0550847 75:0.0454416 76:0.929412 77:0.952941 78:0.909804 79:0.230769 80:0.147027 81:0.780392 82:0.776471 83:0.784314 84:0.0797872 85:0.369237 86:0.737255 87:0.733333 88:0.74902 89:0.344262 90:0.61212 91:0.901961 92:0.898039 93:0.904382 94:0.146226 95:0.600924 96:0.976471 97:0.976471 98:0.976471 101:1 102:0.992157 103:1 104:0.0422535 105:0.0950743 106:0.992157 107:0.980392 108:0.988095 109:0.0240964 110:0.0913872 111:0.968627 112:0.968627 113:0.968627 114:0.0857143 115:0.181 116:0.870588 117:0.878431 118:0.882353 119:0.103203 120:0.786908 121:0.976471 122:0.984314 123:1 124:0.04 125:0.27448 126:0.92549 127:0.933333 128:0.976471 129:0.106599 130:0.183059 131:0.847059 132:0.843137 133:0.905882 134:0.0617284 135:0.643545 136:0.890196 137:0.878431 138:0.937008 139:0.153439 140:0.641202 141:0.987952 142:0.980392 143:1 144:0.0818182 145:0.0330742 146:0.980392 147:0.968627 148:0.976471 149:0.0916335 150:1 151:0.988235 152:0.976471 153:0.960784 154:0.109804 155:0.0740072 156:0.937255 157:0.92549 158:0.909804 159:0.0322581 160:0.960776 161:0.936759 162:0.929412 163:0.924 164:0.0824176 165:0.136233 166:0.882353 167:0.882353 168:0.880952 169:0.105485 170:0.530538 171:0.894118 172:0.901961 173:0.903226 174:0.100559 175:0.257708 176:0.823529 177:0.823529 178:0.84585 179:0.0869565 180:0.481974 181:0.815686 182:0.811765 183:0.847059 184:0.246914 185:0.610526 186:0.917647 187:0.917647 188:0.941176 189:0.152866 190:0.639231 191:1 192:1 193:1 194:0.0745614 195:1 196:0.992157 197:1 198:0.988235 201:1 202:0.956863 203:1 204:0.0167598 205:0.201953 206:0.984314 207:0.945098 208:0.996078 209:0.0552995 210:0.379417 211:0.941176 212:0.921569 213:0.956863 214:0.11236 215:0.251623 216:0.843137 217:0.839216 218:0.878431 219:0.140794 220:0.707353 221:0.980392 222:0.988235 223:1 224:0.201117 225:0.0920865 226:0.882353 227:0.894118 228:0.952756 229:0.351955 230:0.00935558 231:0.862745 232:0.869048 233:0.938525 234:0.197674 235:0.937048 236:0.94902 237:0.94902 238:1 239:0.0931034 240:0.0676127 241:0.909804 242:0.905882 243:0.945098 244:0.0307167 245:0.196181 246:0.890196 247:0.87451 248:0.894118 249:0.108911 250:0.484347 251:0.890196 252:0.87451 253:0.870588 254:0.101695 255:0.525277 256:0.905882 257:0.886275 258:0.890196 259:0.0650407 260:0.498003 261:0.898039 262:0.878431 263:0.912 264:0.14554 265:0.625811 266:0.980392 267:0.956863 268:1 269:0.242553 270:0.0520923 271:0.898039 272:0.862745 273:0.992157 274:0.438889 276:0.886275 277:0.858824 278:0.996063 279:0.274336 280:0.971919 281:0.929412 282:0.913725 283:1 284:0.0909091 285:0.918705 286:0.968627 287:0.968627 288:1 289:0.0829268 290:0.128747 291:0.92549 292:0.937255 293:0.929412 294:0.10828 295:0.942618 296:0.941176 297:0.972549 298:0.929412 301:1 302:0.952941 303:1 304:0.151751 305:0.975921 306:1 307:0.976471 308:1 309:0.0636042 310:0.141479 311:0.929412 312:0.917647 313:0.980315 314:0.0470085 315:0.215571 316:0.862745 317:0.858824 318:0.960784 319:0.159483 321:0.835294 322:0.831373 323:0.996047 324:0.402878 325:0.0800997 326:0.6 327:0.592742 328:0.8 329:0.411111 330:0.978979 331:0.641732 332:0.639216 333:0.850394 334:0.275148 335:0.928352 336:0.807843 337:0.807843 338:0.996078 339:0.402778 340:0.980171 341:0.870588 342:0.87451 343:0.984314 344:0.0833333 345:0.717939 346:0.94902 347:0.94902 348:1 349:0.0386473 350:1 351:0.960784 352:0.952941 353:1 354:0.0147601 355:0.203776 356:0.945098 357:0.929412 358:1 359:0.0325203 360:0.622967 361:0.968627 362:0.92549 363:1 364:0.352 365:0.0997642 366:0.74902 367:0.690196 368:0.929412 369:0.486275 370:0.0553879 371:0.568627 372:0.494118 373:0.799197 374:0.439153 375:0.969284 376:0.623529 377:0.564706 378:0.854902 379:0.644809 380:0.923005 381:0.854902 382:0.815686 383:1 384:0.384615 385:0.969908 386:0.917647 387:0.905882 388:1 389:0.109524 390:0.127542 391:0.85098 392:0.870588 393:0.874016 394:0.196078 395:0.528105 396:0.87451 397:0.913725 398:0.866667 401:0.827451 402:0.811765 403:0.835294 404:0.238411 405:0.746532 406:0.94902 407:0.94902 408:0.996078 409:0.0699588 410:0.0673951 411:0.890196 412:0.909804 413:0.992157 414:0.214612 415:0.206084 416:0.67451 417:0.690196 418:0.882353 419:0.384298 420:0.114835 421:0.392157 422:0.388235 423:0.756863 424:0.234146 425:0.115306 426:0.247059 427:0.223529 428:0.690196 429:0.0283019 430:0.508846 431:0.25098 432:0.215686 433:0.713725 434:0.191489 435:0.72574 436:0.411765 437:0.388235 438:0.814961 439:0.5625 440:0.805967 441:0.835294 442:0.843137 443:1 444:0.627778 445:0.992931 446:0.87451 447:0.894118 448:1 449:0.108571 450:0.940909 451:0.917647 452:0.92549 453:1 454:0.0231481 455:0.90199 456:0.929412 457:0.913725 458:1 459:0.545455 460:0.101406 461:0.65098 462:0.580392 463:0.944444 464:0.666667 465:0.119007 466:0.25098 467:0.160784 468:0.639216 469:0.0416667 470:0.228645 471:0.2 472:0.105882 473:0.611814 474:0.0567376 475:0.346716 476:0.176471 477:0.0941176 478:0.576471 479:0.357798 480:0.710312 481:0.501961 482:0.439216 483:0.764706 484:0.543689 485:0.864463 486:0.847059 487:0.819608 488:0.995951 489:0.366972 490:0.940937 491:0.960784 492:0.976471 493:1 494:0.0574713 495:0.0898706 496:0.937255 497:0.976471 498:0.952381 501:0.803922 502:0.819608 503:0.823529 504:0.15035 505:0.574245 506:0.870588 507:0.890196 508:0.94902 509:0.0376569 510:1 511:0.835294 512:0.858824 513:1 514:0.567308 515:0.183862 516:0.364706 517:0.384314 518:0.694118 519:0.174274 520:0.104069 521:0.219608 522:0.207843 523:0.727273 524:0.0658307 525:0.572 526:0.235294 527:0.211765 528:0.835391 529:0.0340426 530:0.409563 531:0.219608 532:0.184314 533:0.85098 534:0.0377907 535:0.430931 536:0.215686 537:0.188235 538:0.780392 539:0.122727 540:0.719736 541:0.341176 542:0.352941 543:0.764706 544:0.615385 545:0.797952 546:0.760784 547:0.768627 548:1 549:0.433735 550:0.968732 551:0.858824 552:0.85098 553:1 554:0.641414 555:0.110981 556:0.541176 557:0.505882 558:0.886275 559:0.559585 560:0.1324 561:0.211765 562:0.137255 563:0.658824 564:0.0180995 565:0.572209 566:0.211765 567:0.113725 568:0.733333 569:0.0588235 570:0.455978 571:0.184314 572:0.0823529 573:0.756863 574:0.0471204 575:0.623779 576:0.215686 577:0.129412 578:0.730612 579:0.101124 580:0.219713 581:0.189723 582:0.109804 583:0.545455 584:0.509091 585:0.748333 586:0.545098 587:0.494118 588:0.753036 589:0.569149 590:0.827433 591:0.917647 592:0.921569 593:1 594:0.0873786 595:0.928869 596:0.94902 597:0.984314 598:1 601:0.952941 602:0.972549 603:0.984314 604:0.0981818 605:0.243897 606:0.819608 607:0.835294 608:0.944223 609:0.229814 610:0.307368 611:0.647059 612:0.65098 613:0.941176 614:0.457399 615:0.207549 616:0.207843 617:0.207843 618:0.670588 619:0.0771605 620:0.676927 621:0.262745 622:0.258824 623:0.878431 624:0.0141509 625:0.116489 626:0.231373 627:0.219608 628:0.921569 629:0.0283019 630:0.983856 631:0.227451 632:0.227451 633:0.92549 634:0.0481928 635:0.165666 636:0.192157 637:0.181102 638:0.862745 639:0.0559006 640:0.289326 641:0.180392 642:0.156863 643:0.788235 644:0.116592 645:0.704592 646:0.305882 647:0.270588 648:0.862745 649:0.152838 650:0.854683 651:0.443137 652:0.384314 653:0.97619 654:0.547771 655:0.112858 656:0.227451 657:0.156863 658:0.756863 659:0.0559006 660:0.371285 661:0.2 662:0.117647 663:0.756863 664:0.0616114 665:0.689587 666:0.235294 667:0.156863 668:0.835294 669:0.08 670:0.0932704 671:0.176471 672:0.0980392 673:0.815686 674:0.026455 675:0.407714 676:0.176471 677:0.101961 678:0.764706 679:0.076555 680:0.178571 681:0.180392 682:0.0784314 683:0.612648 684:0.141026 685:0.725197 686:0.337255 687:0.262745 688:0.623016 689:0.661538 690:0.747898 691:0.843137 692:0.831373 693:1 694:0.0769231 695:0.739992 696:0.909804 697:0.933333 698:1 701:0.956863 702:0.976471 703:0.988235 704:0.0314961 705:0.264475 706:0.901961 707:0.909804 708:1 709:0.36715 710:0.255767 711:0.552941 712:0.537255 713:0.884462 714:0.236641 715:0.242463 716:0.254902 717:0.231373 718:0.75502 719:0.0497238 720:0.789433 721:0.243137 722:0.231373 723:0.898039 724:0.0280702 725:0.228612 726:0.180392 727:0.176471 728:0.913725 729:0.0309278 730:0.588557 731:0.188235 732:0.196078 733:0.921569 734:0.0120482 735:0.245383 736:0.192157 737:0.184314 738:0.905882 739:0.0260417 740:0.31399 741:0.188235 742:0.160784 743:0.870588 744:0.0273973 745:1 746:0.215686 747:0.160784 748:0.858824 749:0.160194 750:0.416666 751:0.176471 752:0.0941176 753:0.796078 754:0.431034 755:0.521013 756:0.239216 757:0.149606 758:0.850394 759:0.0580645 760:0.141705 761:0.203922 762:0.117647 763:0.815686 764:0.0512821 765:0.244276 766:0.156863 767:0.0823529 768:0.792157 769:0.0498221 770:0.616356 771:0.180392 772:0.113725 773:0.847059 774:0.06 775:0.196589 776:0.14902 777:0.0705882 778:0.760784 779:0.0140845 780:0.308168 781:0.196078 782:0.0826772 783:0.647541 784:0.129187 785:0.769562 786:0.329412 787:0.243137 788:0.658824 789:0.740113 790:0.759885 791:0.847059 792:0.823529 793:1 794:0.058296 795:0.113346 796:0.807843 797:0.819608 798:0.929412 801:0.980392 802:0.972549 803:0.996078 804:0.173913 805:0.00338804 806:0.937255 807:0.929412 808:1 809:0.325203 810:0.225301 811:0.576471 812:0.54902 813:0.866667 814:0.5 815:0.361437 816:0.262745 817:0.227451 818:0.72549 819:0.0977444 820:0.5689 821:0.258824 822:0.223529 823:0.89243 824:0.0638298 825:0.0216857 826:0.223529 827:0.192157 828:0.941176 829:0.0149254 830:0.399603 831:0.203922 832:0.184314 833:0.941176 835:0.498965 836:0.211765 837:0.192157 838:0.917647 839:0.0977011 840:0.153971 841:0.168627 842:0.145098 843:0.815686 844:0.233129 845:0.680104 846:0.329412 847:0.294118 848:0.937255 849:0.175758 850:0.758399 851:0.466667 852:0.403922 853:1 854:0.422078 855:0.209103 856:0.223529 857:0.141176 858:0.803922 859:0.121019 860:0.482229 861:0.211765 862:0.117647 863:0.815686 864:0.00510204 865:0.757806 866:0.211765 867:0.117647 868:0.839216 869:0.0160643 870:0.21036 871:0.180392 872:0.0980392 873:0.827451 874:0.0444444 875:0.167675 876:0.168627 877:0.0823529 878:0.756863 879:0.0460829 880:0.333911 881:0.180392 882:0.0669291 883:0.645669 884:0.0876494 885:0.775384 886:0.294118 887:0.207843 888:0.61753 889:0.622807 890:0.685131 891:0.811765 892:0.788235 893:1 894:0.144068 895:0.668606 896:0.933333 897:0.945098 898:1 901:0.858824 902:0.843137 903:0.866667 904:0.14902 905:0.691084 906:0.92549 907:0.905882 908:1 909:0.096 910:0.0900046 911:0.827451 912:0.8 913:1 914:0.427984 915:0.235297 916:0.368627 917:0.345098 918:0.772549 919:0.360825 920:0.44115 921:0.231373 922:0.188235 923:0.8 924:0.0553191 925:0.68982 926:0.25098 927:0.211765 928:0.933333 929:0.047619 930:0.0490791 931:0.215686 932:0.184314 933:0.933333 934:0.0275591 935:0.171038 936:0.184314 937:0.160784 938:0.886275 939:0.138728 940:0.545657 941:0.231373 942:0.215686 943:0.866667 944:0.198675 945:0.594389 946:0.321569 947:0.290196 948:0.917647 949:0.0810811 950:0.664519 951:0.411765 952:0.352941 953:0.984314 954:0.217687 955:0.202512 956:0.290196 957:0.219608 958:0.87451 959:0.186667 960:0.358003 961:0.211765 962:0.113725 963:0.818182 964:0.119403 965:0.498675 966:0.207843 967:0.113725 968:0.843137 969:0.0445344 970:0.371084 971:0.172549 972:0.0862745 973:0.80315 974:0.0307692 975:0.947688 976:0.2 977:0.109804 978:0.768627 979:0.097561 980:0.196893 981:0.168627 982:0.0705882 983:0.596078 984:0.494318 985:0.69212 986:0.517647 987:0.443137 988:0.807843 989:0.539216 990:0.638956 991:0.866667 992:0.854902 993:1 994:0.0571429 995:0.702068 996:0.921569 997:0.945098 998:1 1001:0.972549 1002:0.960784 1003:0.996078 1004:0.11245 1005:0.241317 1006:0.847059 1007:0.839216 1008:0.917647 1009:0.113402 1010:0.546281 1011:0.854902 1012:0.85098 1013:1 1014:0.190476 1015:0.27081 1016:0.65098 1017:0.647059 1018:0.960784 1019:0.516854 1020:0.303489 1021:0.262745 1022:0.247059 1023:0.741176 1024:0.134529 1025:0.4868 1026:0.219608 1027:0.196078 1028:0.827451 1029:0.0154639 1030:0.571441 1031:0.215686 1032:0.180392 1033:0.890196 1034:0.0931373 1035:0.763986 1036:0.286275 1037:0.254902 1038:0.980392 1039:0.0427807 1040:0.787299 1041:0.32549 1042:0.301961 1043:0.972549 1044:0.0921053 1045:0.95847 1046:0.352941 1047:0.32549 1048:0.968627 1049:0.055 1050:1 1051:0.368627 1052:0.32549 1053:0.968627 1054:0.0348837 1055:0.214114 1056:0.360784 1057:0.290196 1058:0.960784 1059:0.106383 1060:0.12928 1061:0.298039 1062:0.203922 1063:0.924901 1064:0.13369 1065:0.0904375 1066:0.243137 1067:0.145098 1068:0.881423 1069:0.0887097 1070:0.222749 1071:0.152941 1072:0.0588235 1073:0.788235 1074:0.116279 1075:0.509874 1076:0.184314 1077:0.0941176 1078:0.728346 1079:0.102151 1080:0.856059 1081:0.294118 1082:0.215686 1083:0.656126 1084:0.721053 1085:0.6749 1086:0.784314 1087:0.733333 1088:1 1089:0.162055 1090:0.631174 1091:0.890196 1092:0.894118 1093:0.995935 1094:0.055794 1095:0.920948 1096:0.917647 1097:0.952941 1098:0.968627 1101:0.968627 1102:0.956863 1103:0.992157 1104:0.0278884 1105:0.654745 1106:0.972549 1107:0.972549 1108:1 1109:0.0569106 1110:0.205988 1111:0.886275 1112:0.901961 1113:1 1114:0.124294 1115:0.343041 1116:0.780392 1117:0.796078 1118:0.996078 1119:0.392857 1120:0.290376 1121:0.411765 1122:0.407843 1123:0.784314 1124:0.26943 1125:0.398592 1126:0.258824 1127:0.243137 1128:0.772549 1129:0.0226415 1130:0.0905783 1131:0.219608 1132:0.185039 1133:0.843137 1134:0.10582 1135:0.746532 1136:0.286275 1137:0.25098 1138:0.96063 1139:0.0833333 1140:0.02514 1141:0.266667 1142:0.235294 1143:0.929134 1144:0.101695 1145:0.940445 1146:0.301961 1147:0.266667 1148:0.94902 1149:0.121429 1150:0.893694 1151:0.34902 1152:0.309804 1153:0.992126 1154:0.162562 1155:0.0836561 1156:0.294118 1157:0.231373 1158:0.924603 1159:0.156566 1160:0.131983 1161:0.211765 1162:0.12549 1163:0.84127 1164:0.0114504 1165:0.671867 1166:0.231373 1167:0.141176 1168:0.854902 1169:0.0614754 1170:1 1171:0.231373 1172:0.14902 1173:0.838583 1174:0.179104 1175:0.136979 1176:0.137255 1177:0.0666667 1178:0.627451 1179:0.589595 1180:0.702371 1181:0.580392 1182:0.52549 1183:0.870588 1184:0.488038 1185:0.63832 1186:0.917647 1187:0.890196 1188:1 1189:0.0627451 1190:0.240269 1191:0.854902 1192:0.870588 1193:0.910931 1194:0.07 1195:0.799045 1196:0.933333 1197:0.972549 1198:0.94902 1201:0.980392 1202:0.980392 1203:1 1204:0.00970874 1205:0.228553 1206:0.956863 1207:0.972549 1208:0.992157 1209:0.0213675 1210:0.983567 1211:0.94902 1212:0.976471 1213:1 1214:0.0459364 1215:0.0934098 1216:0.886275 1217:0.921569 1218:1 1219:0.367232 1220:0.269026 1221:0.603922 1222:0.619608 1223:0.87251 1224:0.46789 1225:0.359599 1226:0.258824 1227:0.258824 1228:0.67451 1229:0.223077 1230:0.499636 1231:0.243137 1232:0.211765 1233:0.785714 1234:0.00497512 1235:0.116979 1236:0.211765 1237:0.172549 1238:0.854902 1239:0.00947867 1240:0.0257322 1241:0.196078 1242:0.152941 1243:0.882353 1244:0.0393701 1245:0.762877 1246:0.239216 1247:0.192157 1248:0.937255 1249:0.0321101 1250:0.0866669 1251:0.231373 1252:0.176471 1253:0.913725 1254:0.119718 1255:0.0637984 1256:0.203922 1257:0.14902 1258:0.87451 1259:0.0224719 1260:0.144748 1261:0.203922 1262:0.141176 1263:0.835294 1264:0.0541667 1265:0.168379 1266:0.168627 1267:0.101961 1268:0.756863 1269:0.0326531 1270:0.164959 1271:0.152941 1272:0.0941176 1273:0.681275 1274:0.13089 1275:0.613706 1276:0.258824 1277:0.204724 1278:0.660079 1279:0.771028 1280:0.654121 1281:0.847059 1282:0.815686 1283:1 1284:0.119835 1285:0.566737 1286:0.92549 1287:0.913725 1288:1 1289:0.0786885 1290:0.185954 1291:0.835294 1292:0.854902 1293:0.856574 1294:0.133621 1295:0.721142 1296:0.956863 1297:0.996078 1298:0.94902 1301:0.988235 1302:0.984314 1303:1 1304:0.0892193 1305:0.0363028 1306:0.94902 1307:0.956863 1308:0.960784 1309:0.0243902 1310:0.156538 1311:0.917647 1312:0.945098 1313:0.933333 1314:0.0552995 1315:0.691833 1316:0.94902 1317:0.976471 1318:1 1319:0.0282258 1320:0.136387 1321:0.898039 1322:0.921569 1323:1 1324:0.359184 1325:0.251816 1326:0.523622 1327:0.52549 1328:0.822134 1329:0.549223 1330:0.402004 1331:0.262745 1332:0.235294 1333:0.709804 1334:0.364035 1335:0.489526 1336:0.219608 1337:0.180392 1338:0.78 1339:0.06 1340:0.510671 1341:0.211765 1342:0.156863 1343:0.854902 1344:0.0204918 1345:0.698111 1346:0.223529 1347:0.168627 1348:0.905882 1349:0.115607 1350:0.116221 1351:0.164706 1352:0.109804 1353:0.847059 1354:0.0428571 1355:0.582889 1356:0.2 1357:0.145098 1358:0.843137 1359:0.029661 1360:0.182651 1361:0.192157 1362:0.137255 1363:0.756863 1364:0.080402 1365:0.092458 1366:0.164706 1367:0.12549 1368:0.658824 1369:0.242798 1370:0.53268 1371:0.25098 1372:0.223529 1373:0.658824 1374:0.635945 1375:0.60487 1376:0.635294 1377:0.612648 1378:0.924901 1379:0.405738 1380:0.625436 1381:0.964706 1382:0.945098 1383:1 1384:0.0675676 1385:0.18806 1386:0.898039 1387:0.898039 1388:0.945098 1389:0.0406504 1390:0.270896 1391:0.866667 1392:0.878431 1393:0.870588 1394:0.0868056 1395:0.703935 1396:0.956863 1397:0.988235 1398:0.945098 1401:0.917647 1402:0.890196 1403:0.909449 1404:0.0565217 1405:0.657636 1406:0.960784 1407:0.941176 1408:0.944664 1409:0.0294118 1410:0.967922 1411:0.968627 1412:0.960784 1413:0.929412 1414:0.0909091 1415:0.971793 1416:0.964706 1417:0.968627 1418:0.952941 1419:0.122905 1420:0.985373 1421:0.952941 1422:0.956863 1423:1 1424:0.0650888 1425:0.0194196 1426:0.921569 1427:0.909804 1428:1 1429:0.26556 1430:0.232347 1431:0.635294 1432:0.607843 1433:0.940945 1434:0.339286 1435:0.358522 1436:0.321569 1437:0.278431 1438:0.756863 1439:0.324415 1440:0.476301 1441:0.247059 1442:0.193676 1443:0.8 1444:0.0696379 1445:0.426942 1446:0.192157 1447:0.129412 1448:0.803922 1449:0.0422535 1450:0.732958 1451:0.231373 1452:0.168627 1453:0.843137 1454:0.0650407 1455:0.0414334 1456:0.211765 1457:0.156863 1458:0.776471 1459:0.0932642 1460:0.272168 1461:0.156863 1462:0.121569 1463:0.619608 1464:0.513393 1465:0.588521 1466:0.427451 1467:0.405512 1468:0.768627 1469:0.470356 1470:0.591673 1471:0.709804 1472:0.713725 1473:0.939516 1474:0.233813 1475:0.634562 1476:0.937255 1477:0.94902 1478:1 1479:0.0252101 1480:0.0516562 1481:0.956863 1482:0.94902 1483:1 1484:0.0519031 1485:0.142845 1486:0.913725 1487:0.913725 1488:0.937255 1489:0.0325203 1490:0.396232 1491:0.901961 1492:0.901961 1493:0.901961 1494:0.0611111 1495:0.748462 1496:0.937255 1497:0.952941 1498:0.933333 1501:0.945098 1502:0.917647 1503:0.929412 1504:0.1 1505:0.454641 1506:0.92549 1507:0.905882 1508:0.901961 1509:0.114286 1510:0.457816 1511:0.905882 1512:0.898039 1513:0.858268 1514:0.117021 1515:0.479491 1516:0.894118 1517:0.886275 1518:0.854902 1519:0.103261 1520:0.591802 1521:0.921569 1522:0.917647 1523:0.925197 1524:0.035503 1525:0.792724 1526:0.933333 1527:0.921569 1528:1 1529:0.0940594 1530:0.983213 1531:0.913725 1532:0.890196 1533:1 1534:0.232955 1535:0.154024 1536:0.752941 1537:0.713725 1538:1 1539:0.327273 1540:0.301776 1541:0.384314 1542:0.334646 1543:0.771084 1544:0.420849 1545:0.448908 1546:0.243137 1547:0.184314 1548:0.681275 1549:0.280702 1550:0.47276 1551:0.207843 1552:0.156863 1553:0.649194 1554:0.166667 1555:0.559307 1556:0.262745 1557:0.219608 1558:0.654167 1559:0.648148 1560:0.587006 1561:0.586614 1562:0.556863 1563:0.897638 1564:0.411523 1565:0.605462 1566:0.858824 1567:0.843137 1568:1 1569:0.0213523 1570:0.79344 1571:0.898039 1572:0.909804 1573:1 1574:0.017316 1575:0.70947 1576:0.937255 1577:0.945098 1578:0.984314 1579:0.0332103 1580:0.425143 1581:0.933333 1582:0.933333 1583:0.956863 1584:0.0277778 1585:0.556672 1586:0.94902 1587:0.945098 1588:0.960784 1589:0.0645161 1590:0.232698 1591:0.901961 1592:0.898039 1593:0.905882 1594:0.0328947 1595:0.57995 1596:0.913725 1597:0.913725 1598:0.913725 1601:1 1602:0.996078 1603:0.980392 1604:0.0409836 1605:0.0418521 1606:0.992157 1607:0.992157 1608:0.968627 1609:0.026455 1610:0.393247 1611:0.980392 1612:0.980392 1613:0.956863 1614:0.0465116 1615:0.362991 1616:0.94902 1617:0.941176 1618:0.937255 1619:0.0409091 1620:0.358608 1621:0.913725 1622:0.909804 1623:0.92549 1624:0.0817308 1625:0.397863 1626:0.866667 1627:0.858824 1628:0.905882 1629:0.120879 1630:0.482464 1631:0.85098 1632:0.831373 1633:0.937255 1634:0.105556 1635:0.687089 1636:0.917647 1637:0.886275 1638:1 1639:0.0859729 1640:0.102095 1641:0.858824 1642:0.823529 1643:1 1644:0.379167 1645:0.233413 1646:0.494118 1647:0.458824 1648:0.678431 1649:0.420561 1650:0.454292 1651:0.396078 1652:0.360784 1653:0.580392 1654:0.619608 1655:0.606026 1656:0.784314 1657:0.756863 1658:0.956863 1659:0.251064 1660:0.611659 1661:0.945098 1662:0.92549 1663:1 1664:0.10177 1665:0.120657 1666:0.886275 1667:0.870588 1668:0.984314 1669:0.0423729 1670:0.794131 1671:0.929412 1672:0.921569 1673:0.996078 1674:0.0474576 1675:0.64948 1676:0.984314 1677:0.980392 1678:1 1679:0.0277778 1680:0.222838 1681:0.964706 1682:0.960784 1683:0.976471 1684:0.0248756 1685:0.215715 1686:0.945098 1687:0.941176 1688:0.94902 1689:0.0292683 1690:0.216856 1691:0.921569 1692:0.921569 1693:0.921569 1694:0.0272109 1695:0.208762 1696:0.905882 1697:0.905882 1698:0.905882 1701:0.972549 1702:0.984314 1703:0.94902 1704:0.057377 1705:0.679703 1706:1 1707:1 1708:0.976471 1710:0.497649 1711:1 1712:1 1713:0.988235 1714:0.0580645 1715:0.1904 1716:0.964706 1717:0.964706 1718:0.964706 1719:0.0217391 1720:0.960528 1721:0.968627 1722:0.964706 1723:0.980392 1724:0.00884956 1725:0.241068 1726:0.960784 1727:0.94902 1728:0.984064 1729:0.0854271 1730:0.272012 1731:0.894118 1732:0.878431 1733:0.924 1734:0.027907 1735:0.302954 1736:0.870588 1737:0.850394 1738:0.909449 1739:0.0151057 1740:0.180301 1741:0.85098 1742:0.827451 1743:0.894118 1744:0.0541872 1745:0.572404 1746:0.870588 1747:0.847059 1748:0.913725 1749:0.14218 1750:0.563975 1751:0.917647 1752:0.894118 1753:0.960784 1754:0.101045 1755:0.619774 1756:0.996078 1757:0.972549 1758:1 1759:0.107477 1760:0.178724 1761:0.909804 1762:0.890196 1763:0.94902 1764:0.0164474 1765:0.114177 1766:0.894118 1767:0.878431 1768:0.925197 1769:0.11336 1770:0.62996 1771:0.976471 1772:0.960784 1773:1 1774:0.0285714 1775:0.569228 1776:0.988235 1777:0.976471 1778:1 1779:0.038961 1780:0.113929 1781:0.960784 1782:0.956863 1783:0.964706 1784:0.0205761 1785:0.275352 1786:0.941176 1787:0.941176 1788:0.941176 1789:0.0337079 1790:0.216812 1791:0.917647 1792:0.917647 1793:0.917647 1794:0.0406504 1795:0.222519 1796:0.898039 1797:0.898039 1798:0.898039 1801:0.984314 1802:1 1803:0.956863 1804:0.0326797 1805:0.619971 1806:1 1807:1 1808:0.976471 1809:0.0239521 1810:0.116742 1811:0.988235 1812:0.992157 1813:0.976471 1814:0.0607735 1815:0.160732 1816:0.94902 1817:0.952941 1818:0.945098 1819:0.0515464 1820:0.807163 1821:0.968627 1822:0.964706 1823:0.972549 1824:0.032 1825:0.979799 1826:0.972549 1827:0.964706 1828:0.988235 1829:0.119403 1830:0.120853 1831:0.901961 1832:0.886275 1833:0.929412 1834:0.0460251 1835:0.157453 1836:0.862745 1837:0.847059 1838:0.894118 1839:0.0689655 1840:0.573595 1841:0.890196 1842:0.870588 1843:0.929412 1844:0.160976 1845:0.617208 1846:0.980392 1847:0.960784 1848:1 1849:0.0214592 1850:0.83573 1851:1 1852:0.980392 1853:1 1854:0.0588235 1855:0.0796461 1856:0.964706 1857:0.94902 1858:0.996078 1859:0.0874525 1860:0.136978 1861:0.894118 1862:0.878431 1863:0.92549 1864:0.111111 1865:0.73141 1866:0.968627 1867:0.952941 1868:0.996078 1869:0.0331126 1870:0.64658 1871:1 1872:0.988235 1873:1 1874:0.0542169 1875:0.172488 1876:0.964706 1877:0.956863 1878:0.980392 1879:0.0140845 1880:0.491037 1881:0.964706 1882:0.960784 1883:0.968627 1884:0.0344828 1885:0.298977 1886:0.941176 1887:0.941176 1888:0.941176 1889:0.0408163 1890:0.294827 1891:0.917647 1892:0.917647 1893:0.917647 1894:0.0243902 1895:0.255506 1896:0.898039 1897:0.898039 1898:0.898039 1901:1 1902:1 1903:0.972549 1906:0.988235 1907:1 1908:0.964706 1911:0.964706 1912:0.972549 1913:0.94902 1916:0.941176 1917:0.945098 1918:0.937255 1921:0.937255 1922:0.933333 1923:0.941176 1926:0.909804 1927:0.901961 1928:0.92549 1931:0.878431 1932:0.866667 1933:0.901961 1936:0.913725 1937:0.898039 1938:0.941176 1941:0.984314 1942:0.964706 1943:1 1946:0.968627 1947:0.94902 1948:1 1951:0.941176 1952:0.92549 1953:0.972549 1956:0.905882 1957:0.890196 1958:0.937255 1961:0.901961 1962:0.886275 1963:0.929134 1966:0.992157 1967:0.980392 1968:1 1971:0.984314 1972:0.972549 1973:1 1976:0.976471 1977:0.972549 1978:0.988235 1981:0.972549 1982:0.968627 1983:0.976471 1986:0.94902 1987:0.94902 1988:0.94902 1991:0.921569 1992:0.921569 1993:0.921569 1996:0.901961 1997:0.901961 1998:0.901961 
1.9421114942523028 1:0.956863 2:0.988235 3:0.921569 4:0.0208333 5:0.691904 6:0.968627 7:0.992157 8:0.94902 9:0.0125786 10:0.0891924 11:0.976471 12:0.960784 13:0.984314 14:0.00862069 15:1 16:0.976471 17:0.956863 18:0.992157 19:0.00819672 20:0.320359 21:0.980392 22:0.956863 23:0.960784 24:0.02 25:0.465719 26:0.976471 27:0.956863 28:0.945098 29:0.0195312 30:0.624101 31:0.992157 32:0.968627 33:0.972549 35:0.496185 36:0.992157 37:0.972549 38:0.968627 40:0.2479 41:0.984314 42:0.972549 43:0.952941 44:0.00921659 45:0.497791 46:0.984314 47:0.968627 48:0.964706 49:0.0263158 50:0.332999 51:0.956863 52:0.929412 53:0.980315 54:0.0675676 55:0.59923 56:0.980392 57:0.952941 58:1 59:0.0157068 60:0.153169 61:0.976471 62:0.94902 63:0.976471 64:0.0231481 65:0.717903 66:0.996078 67:0.972549 68:0.992157 69:0.0209205 70:0.161607 71:0.980392 72:0.94902 73:0.976471 74:0.00847458 75:0.572867 76:0.980392 77:0.952941 78:0.980392 79:0.0144231 80:0.190752 81:0.960784 82:0.945098 83:0.968627 84:0.037234 85:0.770486 86:0.980392 87:0.976471 88:0.992157 89:0.0437158 90:0.162441 91:0.968627 92:0.94902 93:0.956175 94:0.0283019 95:0.571099 96:0.980392 97:0.960784 98:0.968627 101:0.968627 102:0.984314 103:0.941176 104:0.00704225 105:0.366378 106:0.964706 107:0.968627 108:0.952381 109:0.0120482 110:0.438911 111:0.968627 112:0.94902 113:0.984314 114:0.0178571 115:0.581081 116:0.980392 117:0.956863 118:1 119:0.00711744 120:0.823137 121:0.996078 122:0.976471 123:0.980392 124:0.02 125:0.0488436 126:0.988235 127:0.976471 128:0.960784 129:0.0203046 130:0.968488 131:0.992157 132:0.976471 133:0.972549 134:0.0185185 135:0.0356177 136:0.988235 137:0.976471 138:0.96063 139:0.00529101 140:0.873906 141:0.991968 142:0.980392 143:0.964706 144:0.0227273 145:0.968528 146:0.996078 147:0.976471 148:0.980392 149:0.0318725 150:1 151:0.988235 152:0.964706 153:1 154:0.0156863 155:0.248123 156:0.972549 157:0.94902 158:0.992157 159:0.0120968 160:0.497 161:0.972332 162:0.960784 163:0.968 164:0.032967 165:0.524525 166:0.976471 167:0.968627 168:0.968254 169:0.0253165 170:1 171:0.976471 172:0.960784 173:0.983871 174:0.0111732 175:0.174958 176:0.968627 177:0.952941 178:0.976285 179:0.0289855 180:0.425749 181:0.94902 182:0.94902 183:0.94902 184:0.0308642 185:0.624471 186:0.956863 187:0.968627 188:0.960784 189:0.0191083 190:0.79875 191:0.984314 192:0.976471 193:0.972549 194:0.0394737 195:0.327052 196:0.952941 197:0.945098 198:0.941176 201:0.980315 202:0.972549 203:0.972549 205:0.747131 206:0.984314 207:0.968627 208:0.992157 209:0.00460829 210:0.747997 211:0.988235 212:0.960784 213:1 214:0.011236 215:0.295606 216:0.976471 217:0.94902 218:1 219:0.0108303 220:0.19413 221:0.964706 222:0.956863 223:0.956175 224:0.00558659 225:0.418514 226:0.960784 227:0.960784 228:0.937008 229:0.0502793 230:0.533271 231:0.968627 232:0.968254 233:0.942623 234:0.0232558 235:0.543428 236:0.976471 237:0.976471 238:0.952941 239:0.0137931 240:0.423858 241:0.964706 242:0.956863 243:0.952941 244:0.0136519 245:0.424339 246:0.956863 247:0.945098 248:0.952941 249:0.0594059 250:0.606454 251:0.988235 252:0.972549 253:0.992157 254:0.0127119 255:0.44762 256:0.984314 257:0.972549 258:0.980392 259:0.0243902 260:0.925915 261:0.988235 262:1 263:0.964 264:0.056338 265:0.176099 266:0.937255 267:0.952941 268:0.929412 269:0.0425532 270:0.57993 271:0.956863 272:0.956863 273:0.980392 274:0.0333333 275:0.641891 276:0.968627 277:0.980392 278:0.996063 279:0.0530973 280:0.0633835 281:0.945098 282:0.980392 283:0.941176 284:0.0136364 285:0.444778 286:0.941176 287:0.984314 288:0.917695 289:0.0439024 290:0.682484 291:0.988235 292:1 293:0.968627 294:0.0955414 295:0.181531 296:0.933333 297:0.956863 298:0.913725 301:0.992157 302:0.960784 303:0.988235 305:0.618956 306:0.992157 307:0.960784 308:1 309:0.024735 310:0.954271 311:0.992157 312:0.964706 313:1 314:0.017094 315:0.140771 316:0.956863 317:0.94902 318:0.996078 319:0.0215517 320:0.495666 321:0.956863 322:0.956863 323:0.980237 324:0.028777 325:0.623968 326:0.972549 327:0.983871 328:1 330:1 331:0.976378 332:0.984314 333:1 334:0.0295858 335:0.985547 336:0.976471 337:0.988235 338:1 339:0.0416667 340:0.0789206 341:0.964706 342:0.964706 343:0.988235 344:0.0208333 345:0.708362 346:0.988235 347:0.980392 348:1 349:0.0289855 350:0.973515 351:0.992157 352:0.988235 353:0.996078 354:0.0516605 355:0.116979 356:0.945098 357:0.956863 358:0.94902 359:0.0325203 360:0.571481 361:0.952941 362:0.976471 363:0.956863 364:0.016 365:0.624043 366:0.960784 367:0.984314 368:0.980392 369:0.00392157 370:1 371:0.945098 372:0.972549 373:1 374:0.0529101 375:0.188199 376:0.905882 377:0.933333 378:0.968627 379:0.0710383 380:0.615629 381:0.941176 382:0.984314 383:0.972222 385:0.497739 386:0.94902 387:0.996078 388:0.946939 389:0.0238095 390:0.46767 391:0.952941 392:0.992157 393:0.940945 394:0.0457516 395:0.0578289 396:0.945098 397:0.984314 398:0.921569 401:1 402:0.960784 403:1 404:0.0397351 405:0.2845 406:0.964706 407:0.937255 408:0.964706 409:0.0246914 410:0.695335 411:0.964706 412:0.972549 413:0.976471 414:0.0182648 415:0.574835 416:0.964706 417:0.980392 418:1 419:0.0206612 420:0.96848 421:0.952941 422:0.968627 423:1 424:0.141463 426:0.937255 427:0.952941 428:1 429:0.160377 430:0.0131785 431:0.901961 432:0.909804 433:1 434:0.297872 435:0.99167 436:0.921569 437:0.92549 438:1 439:0.25 440:0.983414 441:0.94902 442:0.952941 443:1 444:0.116667 445:0.0182434 446:0.945098 447:0.952941 448:0.992095 449:0.0228571 450:0.124078 451:0.937255 452:0.952941 453:0.956863 454:0.0555556 455:0.606636 456:0.964706 457:0.984314 458:0.988189 459:0.00478469 460:0.120247 461:0.945098 462:0.972549 463:1 464:0.185714 466:0.929412 467:0.964706 468:1 469:0.279167 471:0.901961 472:0.945098 473:1 474:0.531915 475:0.991494 476:0.917647 477:0.960784 478:1 479:0.302752 481:0.933333 482:0.960784 483:1 484:0.11165 485:0.96554 486:0.968627 487:0.992157 488:1 489:0.059633 490:0.186859 491:0.92549 492:0.960784 493:0.92126 494:0.0632184 495:0.706427 496:0.968627 497:1 498:0.944444 501:1 502:0.972549 503:1 504:0.020979 505:0.191468 506:0.964706 507:0.94902 508:0.972549 509:0.0460251 510:0.632993 511:0.972549 512:0.992157 513:1 514:0.0336538 515:0.266445 516:0.921569 517:0.94902 518:1 519:0.153527 520:0.0935854 521:0.811765 522:0.827451 523:0.988142 524:0.172414 525:0.0686382 526:0.701961 527:0.713725 528:0.925926 529:0.212766 530:0.0354417 531:0.647059 532:0.643137 533:0.886275 534:0.127907 535:0.952756 536:0.705882 537:0.698039 538:0.929412 539:0.240909 540:0.900632 541:0.847059 542:0.843137 543:1 544:0.426036 545:0.966643 546:0.909804 547:0.917647 548:1 549:0.11245 550:0.943294 551:0.956863 552:0.972549 553:1 554:0.0555556 555:0.0405793 556:0.937255 557:0.952941 558:1 559:0.316062 560:0.104187 561:0.764706 562:0.780392 563:0.941176 564:0.307692 565:0.0661765 566:0.631373 567:0.654902 568:0.862745 569:0.196078 570:0.0306103 571:0.564706 572:0.607843 573:0.835294 574:0.240838 575:0.955095 576:0.623529 577:0.654902 578:0.881633 579:0.449438 580:0.912527 581:0.814229 582:0.819608 583:1 584:0.466667 585:0.95172 586:0.929412 587:0.937255 588:1 589:0.234043 590:0.012397 591:0.913725 592:0.960784 593:0.966667 594:0.0533981 595:0.702911 596:0.964706 597:1 598:0.968627 601:0.992157 602:0.968627 603:0.988235 604:0.0145455 605:0.872985 606:0.980392 607:0.976471 608:1 609:0.00621118 610:0.661881 611:0.960784 612:0.976471 613:1 614:0.183857 615:0.193742 616:0.772549 617:0.796078 618:0.964706 619:0.16358 620:0.136324 621:0.584314 622:0.584314 623:0.890196 624:0.160377 625:0.0972962 626:0.478431 627:0.47451 628:0.85098 629:0.0314465 630:0.280782 631:0.443137 632:0.431373 633:0.819608 634:0.0562249 635:0.652083 636:0.501961 637:0.484252 638:0.858824 639:0.0372671 640:0.905478 641:0.541176 642:0.513725 643:0.847059 644:0.264574 645:0.772005 646:0.776471 647:0.760784 648:1 649:0.174672 650:0.904949 651:0.886275 652:0.878431 653:1 654:0.33121 655:0.1362 656:0.717647 657:0.717647 658:0.968627 659:0.360248 660:0.172887 661:0.486275 662:0.478431 663:0.831373 664:0.0758294 665:0.205957 666:0.396078 667:0.388235 668:0.831373 669:0.04 670:0.109933 671:0.34902 672:0.345098 673:0.839216 674:0.0582011 675:0.241968 676:0.305882 677:0.301961 678:0.796078 679:0.177033 680:0.720718 681:0.490196 682:0.462745 683:0.897233 684:0.42735 685:0.910983 686:0.729412 687:0.713725 688:1 689:0.358974 690:0.89621 691:0.898039 692:0.952941 693:1 694:0.0316742 695:0.889149 696:0.92549 697:1 698:0.972549 701:0.964706 702:0.964706 703:0.964706 704:0.0314961 705:0.664953 706:0.972549 707:0.980392 708:1 709:0.0531401 710:0.206153 711:0.890196 712:0.909804 713:1 714:0.225191 715:0.229381 716:0.615686 717:0.635294 718:0.879518 719:0.226519 720:0.1341 721:0.439216 722:0.439216 723:0.854902 724:0.0245614 725:0.768659 726:0.458824 727:0.447059 728:0.941176 729:0.0206186 730:0.0913137 731:0.447059 732:0.431373 733:0.937255 734:0.0421687 735:0.0330742 736:0.443137 737:0.427451 738:0.917647 739:0.0208333 740:0.980655 741:0.470588 742:0.443137 743:0.894118 744:0.164384 745:0.769122 746:0.627451 747:0.6 748:1 749:0.150485 750:0.87078 751:0.717647 752:0.705882 753:1 754:0.264368 755:0.0900218 756:0.592157 757:0.57874 758:0.968504 759:0.258065 760:0.131936 761:0.443137 762:0.411765 763:0.921569 764:0.141026 765:0.151844 766:0.337255 767:0.309804 768:0.901961 769:0.00355872 770:0.749301 771:0.305882 772:0.294118 773:0.956863 774:0.095 775:0.0261499 776:0.301961 777:0.278431 778:0.92549 779:0.333333 780:0.114351 781:0.137255 782:0.0826772 783:0.643443 784:0.392344 785:0.753646 786:0.486275 787:0.462745 788:0.858824 789:0.576271 790:0.82303 791:0.862745 792:0.909804 793:1 794:0.0224215 795:0.744225 796:0.890196 797:0.976471 798:0.968627 801:0.960784 802:0.988235 803:0.976471 804:0.0271739 805:1 806:0.937255 807:0.972549 808:1 809:0.0487805 810:0.273978 811:0.854902 812:0.886275 813:1 814:0.438889 815:0.241662 816:0.509804 817:0.529412 818:0.839216 819:0.0639098 820:0.154393 821:0.415686 822:0.411765 823:0.904382 824:0.0531915 825:0.931246 826:0.411765 827:0.403922 828:0.992157 829:0.0597015 830:0.0868368 831:0.380392 832:0.372549 833:0.972549 834:0.0625 835:0.98674 836:0.396078 837:0.380392 838:0.964706 839:0.0689655 840:1 841:0.411765 842:0.388235 843:0.941176 844:0.134969 845:0.824971 846:0.505882 847:0.482353 848:0.996078 849:0.151515 850:0.942288 851:0.54902 852:0.529412 853:1 854:0.279221 855:0.0621183 856:0.462745 857:0.45098 858:0.945098 859:0.229299 860:0.0972608 861:0.356863 862:0.337255 863:0.937255 864:0.0714286 865:0.0690455 866:0.301961 867:0.290196 868:0.956863 869:0.140562 870:0.0836802 871:0.196078 872:0.2 873:0.913725 874:0.25 875:0.115936 876:0.0901961 877:0.0784314 878:0.768627 879:0.0414747 880:0.231717 881:0.113725 882:0.0511811 883:0.673228 884:0.159363 885:0.742304 886:0.305882 887:0.266667 888:0.709163 889:0.605263 890:0.744922 891:0.862745 892:0.898039 893:1 894:0.0423729 895:0.758489 896:0.901961 897:0.984314 898:1 901:0.913725 902:0.952941 903:0.980392 904:0.0392157 905:0.75907 906:0.937255 907:0.972549 908:1 909:0.08 910:0.145452 911:0.831373 912:0.866667 913:1 914:0.353909 915:0.219803 916:0.458824 917:0.482353 918:0.831373 919:0.0979381 920:0.361229 921:0.360784 922:0.360784 923:0.901961 924:0.0255319 925:0.887401 926:0.360784 927:0.34902 928:0.988235 929:0.0555556 930:0.0911504 931:0.317647 932:0.309804 933:0.960784 934:0.00787402 935:0.548391 936:0.329412 937:0.317647 938:0.956863 940:0.873453 941:0.345098 942:0.329412 943:0.937255 944:0.0662252 945:0.849437 946:0.384314 947:0.368627 948:0.952941 949:0.0855856 950:0.0537706 951:0.364706 952:0.34902 953:0.909804 954:0.108844 955:0.0756148 956:0.321569 957:0.301961 958:0.894118 959:0.1 960:0.0401727 961:0.282353 962:0.258824 963:0.936759 964:0.20398 965:0.0800662 966:0.172549 967:0.152941 968:0.878431 969:0.129555 970:0.0957788 971:0.0588235 972:0.0666667 973:0.80315 974:0.025641 975:0.010542 976:0.0745098 977:0.0745098 978:0.772549 979:0.0439024 980:0.154016 981:0.105882 982:0.0627451 983:0.67451 984:0.244318 985:0.741839 986:0.313725 987:0.278431 988:0.733333 989:0.656863 990:0.718856 991:0.843137 992:0.882353 993:1 994:0.0367347 995:0.746908 996:0.886275 997:0.952941 998:1 1001:0.933333 1002:0.94902 1003:1 1004:0.273092 1005:0.0147863 1006:0.87451 1007:0.901961 1008:1 1009:0.250859 1010:0.0174985 1011:0.807843 1012:0.835294 1013:1 1014:0.509524 1015:0.100783 1016:0.505882 1017:0.529412 1018:0.901961 1019:0.320225 1020:0.103476 1021:0.337255 1022:0.337255 1023:0.878431 1025:1 1026:0.317647 1027:0.305882 1028:0.945098 1029:0.056701 1030:0.931727 1031:0.329412 1032:0.317647 1033:0.980392 1034:0.151961 1035:0.00698034 1036:0.317647 1037:0.305882 1038:0.968627 1039:0.149733 1040:0.0147484 1041:0.309804 1042:0.301961 1043:0.929412 1044:0.105263 1045:0.0442699 1046:0.298039 1047:0.286275 1048:0.898039 1049:0.14 1050:0.00375616 1051:0.294118 1052:0.27451 1053:0.898039 1054:0.197674 1055:0.0394721 1056:0.247059 1057:0.219608 1058:0.882353 1059:0.202128 1060:0.081445 1061:0.141176 1062:0.101961 1063:0.84585 1064:0.160428 1065:0.0729256 1066:0.0666667 1067:0.0431373 1068:0.806324 1069:0.0322581 1070:0.0265259 1071:0.0392157 1072:0.0470588 1073:0.788235 1074:0.00581395 1075:0.367269 1076:0.054902 1077:0.0627451 1078:0.73622 1079:0.0430108 1081:0.105882 1082:0.0941176 1083:0.640316 1084:0.321053 1085:0.774182 1086:0.380392 1087:0.376471 1088:0.783465 1089:0.454545 1090:0.814755 1091:0.831373 1092:0.870588 1093:1 1094:0.390558 1095:1 1096:0.866667 1097:0.92549 1098:1 1101:0.658824 1102:0.65098 1103:0.854902 1104:0.119522 1105:0.44028 1106:0.588235 1107:0.584314 1108:0.827451 1109:0.170732 1110:0.0655275 1111:0.478431 1112:0.482353 1113:0.8 1114:0.276836 1115:0.0868215 1116:0.337255 1117:0.337255 1118:0.752941 1119:0.111607 1120:0.541239 1121:0.345098 1122:0.329412 1123:0.858824 1124:0.227979 1125:0.463078 1126:0.286275 1127:0.278431 1128:0.866667 1129:0.173585 1130:0.43403 1131:0.211765 1132:0.208661 1133:0.815686 1134:0.31746 1135:0.495751 1136:0.215686 1137:0.215686 1138:0.818898 1139:0.257937 1140:0.511594 1141:0.243137 1142:0.25098 1143:0.830709 1144:0.293785 1145:0.443879 1146:0.184314 1147:0.184314 1148:0.764706 1149:0.492857 1150:0.484677 1151:0.160784 1152:0.152941 1153:0.751969 1154:0.320197 1155:0.473336 1156:0.113725 1157:0.105882 1158:0.730159 1159:0.373737 1160:0.453798 1161:0.0352941 1162:0.0196078 1163:0.694444 1164:0.354962 1165:0.500154 1166:0.0392157 1167:0.0313725 1168:0.721569 1169:0.352459 1170:0.504965 1171:0.054902 1172:0.0705882 1173:0.748031 1174:0.368159 1175:0.468005 1176:0.027451 1177:0.0470588 1178:0.662745 1179:0.554913 1180:0.496998 1181:0.0823529 1182:0.0901961 1183:0.607843 1184:0.511962 1185:0.556602 1186:0.258824 1187:0.27451 1188:0.681275 1189:0.215686 1190:0.66162 1191:0.458824 1192:0.490196 1193:0.809717 1194:0.133333 1195:0.955236 1196:0.501961 1197:0.54902 1198:0.831373 1201:0.764706 1202:0.721569 1203:1 1204:0.412621 1205:0.295087 1206:0.447059 1207:0.4 1208:0.745098 1209:0.132479 1210:0.35075 1211:0.333333 1212:0.282353 1213:0.705882 1214:0.187279 1215:0.883906 1216:0.454902 1217:0.415686 1218:0.886275 1219:0.389831 1220:0.936212 1221:0.541176 1222:0.521569 1223:1 1224:0.110092 1225:0.0553762 1226:0.482353 1227:0.482353 1228:0.968627 1229:0.00384615 1230:0.496922 1231:0.466667 1232:0.486275 1233:0.968254 1234:0.0348259 1235:0.664326 1236:0.486275 1237:0.517647 1238:0.992157 1239:0.0521327 1240:0.391646 1241:0.454902 1242:0.486275 1243:0.960784 1244:0.023622 1245:0.519436 1246:0.454902 1247:0.490196 1248:0.964706 1249:0.0917431 1250:0.42183 1251:0.419608 1252:0.45098 1253:0.933333 1254:0.211268 1255:0.476105 1256:0.403922 1257:0.435294 1258:0.921569 1259:0.202247 1260:0.515533 1261:0.411765 1262:0.45098 1263:0.937255 1264:0.154167 1265:0.481433 1266:0.396078 1267:0.431373 1268:0.933333 1269:0.138776 1270:0.489171 1271:0.380392 1272:0.407843 1273:0.952191 1274:0.109948 1275:0.57054 1276:0.419608 1277:0.444882 1278:0.992095 1279:0.0373832 1280:0.665299 1281:0.462745 1282:0.486275 1283:0.992157 1284:0.194215 1285:0.095317 1286:0.337255 1287:0.368627 1288:0.835294 1289:0.180328 1290:0.0430917 1291:0.278431 1292:0.305882 1293:0.729084 1294:0.202586 1295:0.861453 1296:0.427451 1297:0.454902 1298:0.858824 1301:0.905882 1302:0.870588 1303:1 1304:0.345725 1305:0.245258 1306:0.533333 1307:0.494118 1308:0.796078 1309:0.565854 1310:0.361603 1311:0.180392 1312:0.129412 1313:0.513725 1314:0.511521 1315:0.510516 1316:0.227451 1317:0.176471 1318:0.6 1319:0.346774 1320:0.670939 1321:0.462745 1322:0.439216 1323:0.856574 1324:0.0979592 1325:0.878963 1326:0.507874 1327:0.509804 1328:0.932806 1329:0.103627 1330:0.984797 1331:0.505882 1332:0.513725 1333:0.952941 1334:0.0570175 1335:0.793118 1336:0.545098 1337:0.568627 1338:1 1339:0.092 1340:0.0652004 1341:0.490196 1342:0.517647 1343:0.968627 1344:0.045082 1345:0.698111 1346:0.529412 1347:0.568627 1348:1 1349:0.0635838 1350:0.948278 1351:0.545098 1352:0.584314 1353:1 1354:0.0714286 1355:0.981221 1356:0.552941 1357:0.596078 1358:1 1359:0.0508475 1360:0.936369 1361:0.572549 1362:0.627451 1363:1 1364:0.0552764 1365:0.109677 1366:0.541176 1367:0.588235 1368:1 1369:0.0617284 1370:0.179499 1371:0.486275 1372:0.505882 1373:0.988235 1374:0.0368664 1375:0.0892754 1376:0.462745 1377:0.474308 1378:0.968379 1379:0.151639 1380:0.147661 1381:0.356863 1382:0.368627 1383:0.815261 1384:0.175676 1385:0.269063 1386:0.164706 1387:0.180392 1388:0.592157 1389:0.227642 1390:0.498445 1391:0.176471 1392:0.196078 1393:0.584314 1394:0.423611 1395:0.631854 1396:0.545098 1397:0.560784 1398:0.933333 1401:0.929412 1402:0.956863 1403:1 1404:0.0869565 1405:0.247582 1406:0.85098 1407:0.858824 1408:0.976285 1409:0.176471 1410:0.309539 1411:0.627451 1412:0.619608 1413:0.823529 1414:0.433155 1415:0.412515 1416:0.466667 1417:0.443137 1418:0.721569 1419:0.659218 1420:0.48223 1421:0.415686 1422:0.4 1423:0.721569 1424:0.56213 1425:0.520664 1426:0.454902 1427:0.431373 1428:0.827451 1429:0.0746888 1430:0.706031 1431:0.509804 1432:0.482353 1433:0.956693 1434:0.185714 1436:0.482353 1437:0.458824 1438:0.972549 1439:0.137124 1440:0.950709 1441:0.521569 1442:0.517787 1443:1 1444:0.103064 1445:0.00455286 1446:0.498039 1447:0.501961 1448:1 1449:0.150235 1450:0.000402851 1451:0.494118 1452:0.501961 1453:0.992157 1454:0.178862 1455:0.974803 1456:0.521569 1457:0.537255 1458:1 1459:0.259067 1460:0.975143 1461:0.552941 1462:0.580392 1463:1 1464:0.223214 1465:0.0111886 1466:0.545098 1467:0.559055 1468:1 1469:0.264822 1470:0.0403427 1471:0.478431 1472:0.466667 1473:0.959677 1474:0.176259 1475:0.0411972 1476:0.419608 1477:0.396078 1478:0.862745 1479:0.0714286 1480:0.528446 1481:0.462745 1482:0.45098 1483:0.781746 1484:0.297578 1485:0.473344 1486:0.45098 1487:0.447059 1488:0.698039 1489:0.495935 1490:0.53159 1491:0.564706 1492:0.564706 1493:0.776471 1494:0.65 1495:0.611136 1496:0.866667 1497:0.870588 1498:1 1501:0.945098 1502:0.988235 1503:0.980392 1504:0.0294118 1505:0.759402 1506:0.964706 1507:0.996078 1508:1 1509:0.0514286 1510:0.227839 1511:0.921569 1512:0.937255 1513:1 1514:0.0585106 1515:0.600543 1516:0.945098 1517:0.945098 1518:1 1519:0.163043 1520:0.24783 1521:0.819608 1522:0.807843 1523:1 1524:0.473373 1525:0.300208 1526:0.498039 1527:0.482353 1528:0.780392 1529:0.480198 1530:0.433166 1531:0.333333 1532:0.298039 1533:0.705882 1534:0.545455 1535:0.509915 1536:0.34902 1537:0.305882 1538:0.784314 1539:0.221818 1540:0.540178 1541:0.4 1542:0.362205 1543:0.859438 1545:0.750818 1546:0.396078 1547:0.364706 1548:0.876494 1549:0.111111 1550:0.112048 1551:0.337255 1552:0.313725 1553:0.822581 1554:0.0388889 1555:0.516237 1556:0.341176 1557:0.333333 1558:0.791667 1559:0.0740741 1560:0.916234 1561:0.377953 1562:0.388235 1563:0.787402 1564:0.0781893 1565:0.234575 1566:0.309804 1567:0.317647 1568:0.690196 1569:0.284698 1570:0.50187 1571:0.329412 1572:0.313725 1573:0.717647 1574:0.467532 1575:0.564252 1576:0.52549 1577:0.501961 1578:0.85098 1579:0.409594 1580:0.606169 1581:0.843137 1582:0.823529 1583:1 1584:0.162037 1585:0.634379 1586:0.960784 1587:0.94902 1588:1 1589:0.016129 1590:0.246001 1591:0.956863 1592:0.945098 1593:1 1594:0.0328947 1595:0.659071 1596:0.976471 1597:0.972549 1598:1 1601:0.952941 1602:0.964706 1603:1 1604:0.0327869 1605:0.705257 1606:0.968627 1607:0.980392 1608:1 1609:0.010582 1610:0.925678 1611:0.972549 1612:0.988235 1613:1 1614:0.0186047 1615:0.0368514 1616:0.968627 1617:0.980392 1618:1 1619:0.0227273 1620:0.0965381 1621:0.94902 1622:0.956863 1623:1 1624:0.0721154 1625:0.266932 1626:0.878431 1627:0.882353 1628:1 1629:0.197802 1630:0.333511 1631:0.741176 1632:0.737255 1633:0.956863 1634:0.288889 1635:0.402387 1636:0.623529 1637:0.596078 1638:0.913725 1639:0.330317 1640:0.397631 1641:0.435294 1642:0.384314 1643:0.807843 1644:0.116667 1645:0.423007 1646:0.376471 1647:0.317647 1648:0.796078 1649:0.140187 1650:0.947037 1651:0.415686 1652:0.34902 1653:0.847059 1654:0.27451 1655:0.0475786 1656:0.329412 1657:0.278431 1658:0.729412 1659:0.0893617 1660:0.793233 1661:0.419608 1662:0.4 1663:0.733333 1664:0.353982 1665:0.635123 1666:0.670588 1667:0.670588 1668:0.921569 1669:0.211864 1670:0.560457 1671:0.760784 1672:0.760784 1673:0.972549 1674:0.155932 1675:0.602708 1676:0.894118 1677:0.894118 1678:1 1679:0.0714286 1680:0.610486 1681:0.968627 1682:0.960784 1683:1 1685:0.498165 1686:0.980392 1687:0.976471 1688:1 1690:0.497981 1691:0.980392 1692:0.976471 1693:1 1695:0.498575 1696:0.980392 1697:0.980392 1698:1 1701:0.964706 1702:0.976471 1703:1 1704:0.00819672 1705:0.618017 1706:0.968627 1707:0.984314 1708:1 1709:0.00823045 1710:0.423511 1711:0.964706 1712:0.988235 1713:0.984314 1714:0.00645161 1715:0.368454 1716:0.960784 1717:0.988235 1718:0.976471 1719:0.0163043 1720:0.841649 1721:0.972549 1722:0.992157 1723:1 1724:0.0221239 1725:0.93872 1726:0.972549 1727:0.988235 1728:1 1729:0.0301508 1730:0.192369 1731:0.933333 1732:0.94902 1733:1 1734:0.0511628 1735:0.307301 1736:0.886275 1737:0.877953 1738:1 1739:0.244713 1740:0.265215 1741:0.552941 1742:0.517647 1743:0.831373 1744:0.55665 1745:0.397034 1746:0.290196 1747:0.235294 1748:0.611765 1749:0.587678 1750:0.463235 1751:0.180392 1752:0.113725 1753:0.52549 1754:0.445993 1755:0.547644 1756:0.333333 1757:0.286275 1758:0.634921 1759:0.654206 1760:0.587232 1761:0.643137 1762:0.635294 1763:0.866667 1764:0.292763 1765:0.602532 1766:0.870588 1767:0.886275 1768:1 1769:0.0728745 1770:0.585553 1771:0.921569 1772:0.937255 1773:1 1774:0.047619 1775:0.631693 1776:0.968627 1777:0.984314 1778:1 1779:0.030303 1780:0.0184945 1781:0.980392 1782:0.984314 1783:1 1784:0.00411523 1785:0.495781 1786:0.988235 1787:0.988235 1788:0.988235 1789:0.00561798 1790:0.477875 1791:0.988235 1792:0.988235 1793:0.988235 1794:0.00813008 1795:0.48168 1796:0.988235 1797:0.988235 1798:0.988235 1801:0.972549 1802:1 1803:0.94902 1804:0.0392157 1805:0.948105 1806:0.980392 1807:1 1808:0.956863 1809:0.011976 1810:0.116742 1811:0.972549 1812:1 1813:0.945098 1814:0.0276243 1815:0.349894 1816:0.956863 1817:0.992157 1818:0.941176 1819:0.0618557 1820:0.491037 1821:0.956863 1822:0.984314 1823:0.956863 1824:0.02 1825:0.65703 1826:0.972549 1827:0.992157 1828:0.996078 1829:0.00995025 1830:1 1831:0.956863 1832:0.988235 1833:1 1834:0.0167364 1835:0.11816 1836:0.937255 1837:0.956863 1838:1 1839:0.0197044 1840:0.0627613 1841:0.92549 1842:0.921569 1843:1 1844:0.180488 1845:0.254292 1846:0.772549 1847:0.760784 1848:0.976471 1849:0.218884 1850:0.411396 1851:0.666667 1852:0.65098 1853:0.882353 1854:0.242215 1855:0.574906 1856:0.796078 1857:0.796078 1858:0.984314 1859:0.190114 1860:0.61271 1861:0.933333 1862:0.952941 1863:1 1864:0.0233918 1865:0.570758 1866:0.945098 1867:0.980392 1868:1 1869:0.0298013 1870:0.982339 1871:0.956863 1872:0.988235 1873:1 1874:0.0361446 1875:0.266579 1876:0.94902 1877:0.964706 1878:0.984314 1879:0.0328638 1880:0.650258 1881:0.984314 1882:0.992157 1883:0.996078 1884:0.00574713 1885:0.498404 1886:0.992157 1887:0.992157 1888:0.992157 1889:0.00680272 1890:0.495435 1891:0.992157 1892:0.992157 1893:0.992157 1894:0.00487805 1895:0.481971 1896:0.992157 1897:0.992157 1898:0.992157 1901:0.956863 1902:1 1903:0.894118 1906:0.980392 1907:1 1908:0.917647 1911:0.992157 1912:1 1913:0.941176 1916:0.988235 1917:1 1918:0.945098 1921:0.968627 1922:1 1923:0.956863 1926:0.964706 1927:0.992157 1928:0.972549 1931:0.952941 1932:0.984314 1933:0.980392 1936:0.921569 1937:0.956863 1938:0.992157 1941:0.941176 1942:0.956863 1943:1 1946:0.952941 1947:0.960784 1948:1 1951:0.909804 1952:0.92549 1953:1 1956:0.945098 1957:0.972549 1958:1 1961:0.952941 1962:0.988235 1963:1 1966:0.909804 