svm_type c_svc
kernel_type rbf
gamma 0.001953125
nr_class 2
total_sv 140
rho 0.021081278100609779
label 1 -1
nr_sv 70 70
SV
0.03125 1:0.0277778 2:0.192966 3:0.0314465 4:0.571727 5:0.0172414 6:0.925129 7:0.00409836 8:0.120559 9:0.008 10:0.925812 12:0.498801 13:0.0272727 14:0.0866669 15:0.0119522 16:0.675302 17:0.0414747 18:0.10886 19:0.0368421 20:0.704374 21:0.0540541 22:0.091492 23:0.0366492 24:0.341057 25:0.0462963 26:0.613473 27:0.0292887 28:0.454156 29:0.029661 30:0.684877 31:0.0721154 32:0.0318578 33:0.0265957 34:0.116932 35:0.0382514 36:0.541592 37:0.00943396 38:0.24526 41:0.0422535 42:0.925191 43:0.0361446 44:0.351358 45:0.0178571 46:0.778814 47:0.00711744 48:0.32128 49:0.03 50:0.55009 51:0.350254 52:0.484815 53:0.679012 54:0.503999 55:0.444444 56:0.486081 57:0.145455 58:0.514009 59:0.0119522 60:0.405726 61:0.0235294 62:0.800712 63:0.0645161 64:0.477089 65:0.472527 66:0.50927 67:0.388186 68:0.488678 69:0.486034 70:0.479194 71:0.15942 72:0.532894 73:0.0493827 74:0.650793 75:0.089172 76:0.0428992 77:0.00877193 78:0.618278 81:0.0949721 82:0.652473 83:0.0829493 84:0.130303 85:0.0561798 86:0.602044 87:0.223827 88:0.512535 89:1 90:0.551683 91:0.681564 92:0.544769 93:0.25969 94:0.44482 95:0.389655 96:0.415843 97:0.583618 98:0.474138 99:0.569307 100:0.489111 101:0.487288 102:0.532316 103:0.743902 104:0.558805 105:0.478873 106:0.515106 107:0.306383 108:0.4749 109:0.616667 110:0.400076 111:0.774336 112:0.478369 113:0.4 114:0.474632 115:0.0878049 116:0.599503 117:0.0254777 118:1 121:0.0428016 122:0.0826472 123:0.024735 124:0.696163 125:0.316239 126:0.636066 127:0.737069 128:0.611151 129:0.133094 130:0.947288 131:0.622222 132:0.0143639 133:0.286982 134:0.978976 135:0.50463 136:0.982673 137:0.630208 138:0.108532 139:0.342995 140:0.475964 141:0.416974 142:0.62357 143:0.280488 144:1 145:0.488 146:0.0210094 147:0.388235 148:0.987136 149:0.529101 150:0.971332 151:0.710383 152:0.151489 153:0.579186 154:0.381877 155:0.404762 156:0.484217 157:0.00653595 158:0.118817 161:0.0331126 162:0.637653 163:0.209877 164:0.734531 165:0.821918 166:0.634651 167:0.247934 168:0.155798 169:0.42439 170:0.125672 171:0.0377358 172:0.0101543 173:0.0159574 174:0.968185 175:0.166667 176:0.778595 177:0.477778 178:0.809718 179:0.462857 180:0.000911327 181:0.398148 182:0.131554 183:0.311005 184:0.14105 185:0.0380952 186:0.580915 187:0.0333333 188:0.728273 189:0.304965 190:0.756652 191:0.366972 192:0.856424 193:0.5 194:0.180715 195:0.577982 196:0.36238 197:0.126437 198:0.483464 201:0.013986 202:0.657967 203:0.669456 204:0.720252 205:0.153846 206:0.485762 207:0.394191 208:0.136006 209:0.0877743 210:0.125218 211:0.0553191 212:0.568077 213:0.0116279 214:0.49446 215:0.0545455 216:0.5755 217:0.183432 218:0.778963 219:0.15261 220:0.886258 221:0.373737 222:0.120351 223:0.0310881 224:0.138673 225:0.0316742 226:0.0407433 227:0.0196078 228:0.83524 229:0.0628272 230:0.0648626 231:0.421348 232:0.746577 233:0.509091 234:0.949655 235:0.840426 236:0.274141 237:0.169903 238:0.406865 241:0.112727 242:0.761572 243:1 244:0.733809 245:0.421525 246:0.245273 247:0.108025 248:0.202314 249:0.0613208 250:0.628999 251:0.0157233 252:0.0592619 253:0.0240964 254:0.705148 255:0.0993789 256:0.0970219 257:0.0403587 258:0.656501 260:0.506554 261:0.0700637 262:0.0267358 263:0.0496894 264:0.202422 265:0.0521327 266:0.525606 267:0.02 268:0.41103 269:0.0529101 270:0.610276 271:0.0334928 272:0.127889 273:0.57265 274:0.746823 275:0.784615 276:0.237834 277:0.226244 278:0.296429 281:0.15748 282:0.70794 283:0.758454 284:0.773749 285:0.389313 286:0.243044 287:0.127072 288:0.363326 289:0.045614 290:0.0395911 291:0.0309278 292:0.620362 293:0.0481928 294:0.296906 295:0.046875 296:0.648766 297:0.210046 298:0.496033 299:0.18932 300:0.45225 301:0.258621 302:0.513576 303:0.251613 304:0.511418 305:0.0192308 306:0.318632 307:0.0106762 308:1 309:0.02 310:0.214806 311:0.00938967 312:0.540839 313:0.62201 314:0.727163 315:0.768362 316:0.243235 317:0.331839 318:0.185845 321:0.0543478 322:0.943597 323:0.743902 324:0.745757 325:0.5 326:0.211677 327:0.210526 328:0.331315 329:0.0797872 330:0.683463 331:0.0149254 332:0.798927 333:0.0520833 334:0.100558 335:0.316092 336:0.666139 337:0.435583 338:0.481363 339:0.472727 340:0.486404 341:0.577922 342:0.499018 343:0.592357 344:0.448837 345:0.0663265 346:0.392002 347:0.00401606 348:0.622235 349:0.0277778 350:0.433634 351:0.0552995 352:0.796868 353:0.458167 354:0.70678 355:0.675439 356:0.243451 357:0.25 358:0.0798356 361:0.0588235 362:0.875119 363:0.66 364:0.773685 365:0.415638 366:0.034373 367:0.448454 368:0.351674 369:0.106383 370:0.533455 371:0.0555556 372:0.0249966 373:0.106299 374:0.691623 375:0.549133 376:0.768594 377:0.0397351 378:0.489905 379:0.0405405 380:0.634664 381:0.0544218 382:0.471451 383:0.726667 384:0.221722 385:0.0895522 386:0.264618 387:0.0161943 388:0.682748 389:0.0717949 390:0.122347 391:0.234146 392:0.68682 393:0.607955 394:0.627535 395:1 396:0.16326 397:0.0571429 398:0.0324713 401:0.0160643 402:0.172246 403:0.309278 404:0.741836 405:0.614286 406:0.83885 407:0.58427 408:0.203055 409:0.300448 410:0.417369 411:0.134021 412:0.627034 413:0.0490196 414:0.944047 415:0.620321 416:0.770175 417:0.546053 418:0.998104 419:0.055 420:0.864671 421:0.156977 422:0.155637 423:0.553191 424:0.149639 425:0.192513 426:0.0843447 427:0.0201613 428:0.169145 429:0.122093 430:0.631087 431:0.612903 432:0.660369 433:0.394737 434:0.223811 435:0.600791 436:0.14095 437:0.0515021 438:0.68486 441:0.0119522 442:0.621246 443:0.0609756 444:0.696988 445:0.847458 446:0.771422 447:0.544643 448:0.0069312 449:0.435233 450:0.321017 451:0.230189 452:0.464236 453:0.047619 454:0.475206 455:0.18254 456:0.740456 457:0.480226 458:0.823054 459:0.635714 460:0.994622 461:0.512315 462:0.0968293 463:0.444444 464:0.12822 465:0.0496183 466:0.603896 467:0.045082 468:0.801582 469:0.343284 470:0.652308 471:0.33526 472:0.576578 473:0.942584 474:0.139998 475:0.113725 476:0.128957 477:0.0266667 478:0.81972 481:0.0291262 482:0.581962 483:0.0512821 484:0.201141 485:0.173145 486:0.728667 487:0.903955 488:0.799482 489:0.678899 490:0.0530141 491:0.296154 492:0.350881 493:0.268657 494:0.472217 495:0.0379147 496:0.596932 497:0.110236 498:0.82024 499:0.114679 500:0.956218 501:0.316901 502:0.119163 503:0.0617978 504:0.0357933 505:0.0208333 506:0.195883 507:0.314286 508:0.622448 509:0.513089 510:0.626719 511:0.841121 512:0.131169 513:0.35124 514:0.0813738 515:0.0327869 516:0.355882 517:0.0431034 518:0.685599 521:0.63197 522:0.487226 523:0.44878 524:0.488567 525:0.0921659 526:0.448557 527:0.25 528:0.769103 529:0.591837 530:0.809642 531:0.632124 532:0.0676187 533:0.333333 534:0.36996 535:0.276 536:0.455788 537:0.0737705 538:0.635527 539:0.00578035 540:0.0644969 541:0.0571429 542:0.150055 543:0.0338983 544:0.620239 545:0.376884 546:0.618659 547:0.411523 548:0.604243 549:0.705069 550:0.109254 551:0.532787 552:0.125918 553:0.0777027 554:0.64445 555:0.0569106 556:0.128284 557:0.0347222 558:0.47954 561:0.395652 562:0.306954 563:0.397059 564:0.392573 565:0.84492 566:0.475371 567:0.195531 568:0.493151 569:0.449704 570:0.756946 571:0.556017 572:0.847563 573:0.517857 574:0.0354459 575:0.257525 576:0.317022 577:0.247911 578:0.496573 579:0.0422535 580:0.382867 581:0.0365854 582:0.534636 583:0.523316 584:0.592471 585:0.415179 586:0.632898 587:0.715415 588:0.111201 589:0.431655 590:0.102463 591:0.0294118 592:0.646519 593:0.0103806 594:0.18028 595:0.0325203 596:0.805473 597:0.0611111 598:0.171138 601:0.158824 602:0.0539981 603:0.177143 604:0.301821 605:0.755319 606:0.272924 607:0.880435 608:0.456081 609:0.284024 610:0.505991 611:0.242574 612:0.732282 613:0.806818 614:0.804142 615:0.574545 616:0.0106517 617:0.312741 618:0.239555 619:0.608187 620:0.488285 621:0.766667 622:0.592426 623:0.185185 624:0.659345 625:0.876543 626:0.0953032 627:0.323843 628:0.1299 629:0.021645 630:0.780251 631:0.0110701 632:0.544638 633:0.0231481 634:0.239482 635:0.0376344 636:0.637507 637:0.0394737 638:0.773008 641:0.92623 642:0.96404 643:0.248677 644:0.0369509 645:0.0465116 646:0.279817 647:0.672727 648:0.251579 649:0.769231 650:0.455751 651:0.120879 652:0.461198 653:0.133333 654:0.766899 655:0.633484 656:0.776571 657:0.704167 658:0.97539 659:0.457944 660:0.987009 661:0.4 662:0.0250848 663:1 664:0.110412 665:0.141593 666:0.115786 667:0.0338983 668:0.24169 669:0.040678 670:0.617429 671:0.0198413 672:0.0549906 674:0.498165 676:0.497981 678:0.498575 681:0.737705 682:0.761502 683:0.440329 684:0.947144 685:0.309677 686:0.00952548 687:0.048913 688:0.511645 689:0.769912 690:0.248468 691:0.633166 692:0.457612 693:0.0697674 694:0.535642 695:0.00906344 696:0.336181 697:0.46798 698:0.734104 699:0.473934 700:0.99204 701:0.501742 702:0.109392 703:0.00934579 704:0.235319 705:0.00986842 706:1 707:0.0161943 708:0.960692 709:0.0333333 710:0.101047 711:0.034632 712:0.545145 714:0.495781 716:0.477875 718:0.48168 721:0.0457516 722:0.42799 723:0.532934 724:0.742227 725:0.519337 726:0.908409 727:0.257732 728:1 729:0.236 730:0.248199 731:0.746269 732:0.304596 733:0.125523 734:0.442829 735:0.0197044 736:0.70757 737:0.0682927 738:0.196456 739:0.0772532 740:0.455947 741:0.0657439 742:0.651735 743:0.026616 744:0.108037 745:0.0116959 746:0.422124 747:0.0331126 748:0.482668 749:0.0542169 750:0.7288 751:0.0328638 752:0.109315 754:0.498404 756:0.495435 758:0.481971 
0.03125 1:0.0555556 2:0.57308 3:0.0188679 4:0.246366 5:0.0344828 6:0.0432958 7:0.0368852 8:0.430562 9:0.024 10:0.497305 11:0.00390625 12:1 13:0.0863636 14:0.943391 15:0.0717131 16:0.11117 17:0.0460829 18:0.578855 19:0.0368421 20:0.386661 21:0.0675676 22:0.794755 23:0.0837696 24:0.0160183 25:0.037037 26:0.28727 27:0.0753138 28:0.580357 29:0.0423729 30:0.201886 31:0.0576923 32:0.799214 33:0.0531915 34:0.127623 35:0.0819672 36:0.622778 37:0.0613208 38:0.472392 41:0.028169 42:0.366378 43:0.0682731 44:0.102838 45:0.05 46:0.758507 47:0.0462633 48:0.0806431 49:0.0266667 50:0.1653 51:0.0862944 52:0.196331 53:0.111111 54:0.594439 55:0.0634921 56:0.667644 57:0.0136364 58:0.906249 59:0.0677291 60:0.150296 61:0.0235294 62:0.0714735 63:0.0645161 64:0.778175 65:0.032967 66:0.749072 67:0.0464135 68:0.174664 69:0.0893855 70:0.116745 71:0.0483092 72:0.669029 73:0.0617284 74:0.703195 75:0.089172 76:0.816578 77:0.0964912 78:0.109315 81:0.173184 82:0.392669 83:0.156682 84:0.495992 85:0.0224719 86:0.896763 87:0.00361011 88:0.874272 89:0.0558659 90:0.346562 91:0.296089 92:0.510383 93:0.189922 94:0.50224 95:0.193103 96:0.50346 97:0.191126 98:0.484152 99:0.113861 100:0.42791 101:0.029661 102:0.498937 103:0.0772358 104:0.749003 105:0.0985915 106:0.992372 107:0.0851064 108:0.157037 109:0.0555556 110:0.592764 111:0.0619469 112:0.921006 113:0.0227273 114:0.528005 115:0.0146341 116:0.655382 117:0.0955414 118:0.22509 121:0.136187 122:0.0331268 123:0.134276 124:0.199941 125:0.111111 126:0.521883 127:0.0732759 128:0.582422 129:0.205036 130:0.610211 131:0.0611111 132:0.507521 133:0.0325444 134:0.633745 135:0.0324074 136:0.499028 137:0.244792 138:0.332842 139:0.304348 140:0.434228 141:0.0701107 142:0.435846 143:0.00813008 144:0.245933 145:0.164 146:0.541544 147:0.156863 148:0.510717 149:0.111111 150:0.363432 151:0.136612 152:0.724029 153:0.0769231 154:0.0142001 155:0.0142857 156:0.0486118 157:0.0784314 158:0.296269 161:0.112583 162:0.790252 163:0.0823045 164:0.0279593 165:0.0319635 166:0.101381 167:0.202479 168:0.639897 169:0.0780488 170:0.938771 171:0.0125786 172:0.112319 173:0.037234 174:0.679418 175:0.0885417 176:0.703262 177:0.0333333 178:0.24667 179:0.371429 180:0.271129 181:0.287037 182:0.430386 183:0.430622 184:0.567768 185:0.238095 186:0.533242 187:0.229167 188:0.427304 189:0.546099 190:0.443842 191:0.252294 192:0.510374 193:0.101942 194:0.588919 195:0.0275229 196:0.722109 197:0.109195 198:0.187657 201:0.013986 202:0.578589 203:0.104603 204:0.9448 205:0.149038 206:0.773556 207:0.0373444 208:0.346645 209:0.0658307 210:0.633399 211:0.0170213 212:0.707136 213:0.0377907 214:0.629307 215:0.0863636 216:0.894954 217:0.0650888 218:0.957342 219:0.0682731 220:0.218698 221:0.131313 222:0.499062 223:0.129534 224:0.532831 225:0.0542986 226:0.709938 227:0.027451 228:1 229:0.230366 230:0.272748 231:0.269663 232:0.378728 233:0.151515 234:0.465038 235:0.0106383 236:0.319927 237:0.0728155 238:0.16293 241:0.105455 242:0.170275 243:0.229814 244:0.620695 245:0.197309 246:0.696894 247:0.0185185 248:0.517028 249:0.0471698 250:0.537924 251:0.0377358 252:0.711664 253:0.064257 254:0.132857 255:0.173913 256:0.586501 257:0.0493274 258:0.762128 259:0.0524017 260:0.735717 261:0.0318471 262:0.46755 263:0.10559 264:0.195691 265:0.00947867 266:0.7484 267:0.064 268:0.665696 269:0.0952381 270:0.147383 271:0.220096 272:0.190257 273:0.132479 274:0.305501 275:0.123077 276:0.424485 277:0.135747 278:0.477584 281:0.0433071 282:0.673851 283:0.111111 284:0.869657 285:0.129771 286:0.760058 287:0.038674 288:0.914555 289:0.0210526 290:0.120696 291:0.00515464 292:0.367269 293:0.13253 294:0.699131 295:0.046875 296:0.175082 297:0.0684932 298:0.649247 299:0.0728155 300:0.706969 301:0.0632184 302:0.203386 303:0.0709677 304:0.250383 305:0.108974 306:0.585767 307:0.0142349 308:0.2479 309:0.085 310:0.199967 311:0.084507 312:0.198885 313:0.0861244 314:0.228287 315:0.0169492 316:0.403853 317:0.143498 318:0.0119633 321:0.152174 322:0.424305 323:0.191057 324:0.609125 325:0.177778 326:0.714101 327:0.0714286 328:0.950759 329:0.037234 330:0.966342 331:0.0497512 332:0.54118 333:0.0833333 334:0.617294 335:0.0172414 336:0.743252 337:0.0858896 338:0.598229 339:0.0727273 340:0.630436 341:0.0454545 342:0.300793 343:0.0254777 344:0.634967 345:0.0306122 346:0.153204 347:0.0361446 348:0.160407 349:0.1 350:0.251155 351:0.0875576 352:0.356566 353:0.0876494 354:0.385931 355:0.166667 356:0.206538 357:0.0211864 358:0.043255 361:0.0392157 362:0.00259531 363:0.084 364:0.989503 365:0.156379 366:0.974326 367:0.108247 368:0.86953 369:0.0851064 370:0.690849 371:0.0198413 372:0.777003 374:0.245292 375:0.104046 376:0.631851 377:0.0728477 378:0.565187 379:0.0135135 380:0.710273 381:0.0816327 382:0.0923503 383:0.0266667 384:0.140389 385:0.0348259 386:0.172431 387:0.0121457 388:0.361531 389:0.0307692 390:0.206987 391:0.0536585 392:0.258221 393:0.244318 394:0.285102 395:0.151961 396:0.203616 397:0.0285714 398:0.620362 401:0.108434 402:0.0868226 403:0.0446735 404:0.199093 405:0.128571 406:0.776253 407:0.241573 408:0.838132 409:0.0852018 410:0.905818 411:0.0257732 412:0.748622 413:0.0686275 414:0.644759 415:0.0748663 416:0.84233 417:0.0328947 418:0.106213 419:0.03 420:0.309449 421:0.0348837 422:0.467206 423:0.037234 424:0.405901 425:0.0106952 426:0.0705763 427:0.0322581 428:0.12982 429:0.0639535 430:0.0438257 431:0.0537634 432:0.985312 433:0.357895 434:0.16545 435:0.106719 436:0.136724 437:0.0214592 438:0.558842 441:0.0199203 442:0.678826 443:0.0650407 444:0.338218 445:0.107345 446:0.625915 447:0.178571 448:0.776495 449:0.217617 450:0.878891 451:0.109434 452:0.91237 453:0.026455 454:0.152388 455:0.0555556 456:0.705372 457:0.0282486 458:0.60389 459:0.0285714 460:0.286888 461:0.0246305 462:1 463:0.0757576 464:0.147982 465:0.0152672 466:0.152778 467:0.0491803 468:0.261671 469:0.0149254 470:0.132718 471:0.138728 472:0.14888 473:0.215311 474:0.195221 475:0.0196078 476:0.525337 477:0.01 478:0.947609 481:0.0631068 482:0.630594 483:0.0683761 484:0.0706579 485:0.0176678 486:0.147951 487:0.107345 488:0.641202 489:0.16055 490:0.782698 491:0.207692 492:0.884352 493:0.159204 494:0.990278 495:0.0900474 496:0.630568 497:0.0393701 498:1 499:0.059633 500:0.143438 501:0.00704225 502:0.170713 503:0.0393258 504:0.190215 505:0.00833333 506:1 507:0.0979592 508:0.117901 509:0.183246 510:0.0550099 511:0.252336 512:0.0558289 513:0.0991736 514:0.227003 515:0.0819672 516:0.447522 517:0.0991379 518:0.37215 521:0.0408922 522:0.207417 523:0.00487805 524:0.36943 525:0.0506912 526:0.656227 527:0.0282258 528:0.38895 529:0.0244898 530:0.571727 531:0.233161 532:0.776061 533:0.25 534:0.841173 535:0.116 536:0.0298099 537:0.0163934 538:0.601517 539:0.0635838 540:0.0416878 541:0.12381 542:0.0152129 543:0.211864 544:0.0123799 545:0.296482 546:0.032366 547:0.263374 548:0.0579244 549:0.184332 550:0.106808 551:0.106557 552:0.796528 553:0.0878378 554:1 555:0.0609756 556:0.173635 557:0.0972222 558:0.29498 561:0.0521739 562:0.0936281 563:0.0235294 564:0.924654 565:0.0641711 566:0.87317 567:0.0391061 568:0.0811677 569:0.0769231 570:0.371877 571:0.0871369 572:0.718489 573:0.2 574:0.811976 575:0.113712 576:0.883349 577:0.0779944 578:0.0626821 579:0.244131 580:0.056388 581:0.268293 582:0.0411558 583:0.248705 584:0.0486182 585:0.0803571 586:0.117977 587:0.0197628 588:0.269817 589:0.0179856 590:0.306375 591:0.0336134 592:0.836704 593:0.0692042 594:0.760453 595:0.0609756 596:0.989316 597:0.144444 601:0.205882 602:0.469191 603:0.188571 604:0.511551 605:0.0851064 606:0.620568 607:0.0706522 608:0.806516 609:0.112426 610:0.162955 611:0.0247525 612:0.371396 613:0.261364 614:0.731388 615:0.138182 616:0.896875 617:0.247104 618:0.091907 619:0.222222 620:0.147364 621:0.0555556 622:0.274222 623:0.106481 624:0.624704 625:0.0246914 626:0.540589 627:0.0213523 628:0.386895 629:0.0606061 630:0.268705 631:0.0516605 632:0.627194 633:0.0324074 634:0.789792 635:0.0537634 636:0.261948 637:0.0789474 638:0.677446 641:0.352459 642:0.456552 643:0.280423 644:0.441008 645:0.27907 646:0.485626 647:0.25 648:0.519865 649:0.149038 650:0.476603 651:0.043956 652:0.439535 653:0.0777778 654:0.873429 655:0.0995475 656:0.980169 657:0.0208333 658:0.309752 659:0.0373832 660:0.268218 661:0.00784314 662:0.749233 663:0.0340426 664:0.806106 665:0.0176991 666:0.9606 667:0.0423729 668:0.16009 669:0.0237288 670:0.139384 671:0.0119048 672:1 673:0.0447761 674:0.749083 675:0.0292683 676:0.2436 677:0.0816327 678:0.247862 681:0.0983607 682:0.00815134 683:0.0699588 684:0.0736435 685:0.0645161 686:0.2104 687:0.146739 688:0.392501 689:0.221239 690:0.403747 691:0.336683 692:0.445127 693:0.334884 694:0.494959 695:0.217523 696:0.560995 697:0.0295567 698:0.321589 699:0.042654 700:0.284037 701:0.00348432 702:0.247337 703:0.0327103 704:0.745108 706:0.493815 707:0.0323887 708:0.26384 709:0.0238095 710:0.303176 711:0.017316 712:0.614877 713:0.037037 714:0.680766 715:0.0393258 716:0.314537 717:0.097561 718:0.275603 721:0.0849673 722:0.045811 723:0.0718563 724:0.93146 725:0.0828729 726:0.813718 727:0.123711 728:0.930884 729:0.084 730:0.0244961 731:0.0945274 732:0.105373 733:0.0460251 734:0.330819 735:0.182266 736:0.311906 737:0.273171 738:0.474155 739:0.223176 740:0.465275 741:0.141869 742:0.49261 743:0.106464 744:0.537676 745:0.0935673 746:0.506446 747:0.0264901 748:0.330723 749:0.0361446 750:0.0954187 751:0.0469484 752:0.938356 753:0.0517241 754:0.815977 755:0.047619 756:0.148714 757:0.0536585 758:0.179053 
0.03125 1:0.0555556 2:0.616424 3:0.0188679 4:0.0343345 5:0.185345 6:0.21296 7:0.155738 8:0.693298 9:0.04 10:0.645684 11:0.0625 12:0.080424 13:0.2 14:0.141079 15:0.12749 16:0.658115 17:0.0645161 18:0.566915 19:0.0157895 20:0.497733 21:0.0540541 22:0.690439 23:0.0942408 24:0.0050183 25:0.0694444 26:1 27:0.117155 28:0.048505 29:0.0550847 30:0.0454416 31:0.230769 32:0.147027 33:0.0797872 34:0.369237 35:0.344262 36:0.61212 37:0.146226 38:0.600924 41:0.0422535 42:0.0950743 43:0.0240964 44:0.0913872 45:0.0857143 46:0.181 47:0.103203 48:0.786908 49:0.04 50:0.27448 51:0.106599 52:0.183059 53:0.0617284 54:0.643545 55:0.153439 56:0.641202 57:0.0818182 58:0.0330742 59:0.0916335 60:1 61:0.109804 62:0.0740072 63:0.0322581 64:0.960776 65:0.0824176 66:0.136233 67:0.105485 68:0.530538 69:0.100559 70:0.257708 71:0.0869565 72:0.481974 73:0.246914 74:0.610526 75:0.152866 76:0.639231 77:0.0745614 78:1 81:0.0167598 82:0.201953 83:0.0552995 84:0.379417 85:0.11236 86:0.251623 87:0.140794 88:0.707353 89:0.201117 90:0.0920865 91:0.351955 92:0.00935558 93:0.197674 94:0.937048 95:0.0931034 96:0.0676127 97:0.0307167 98:0.196181 99:0.108911 100:0.484347 101:0.101695 102:0.525277 103:0.0650407 104:0.498003 105:0.14554 106:0.625811 107:0.242553 108:0.0520923 109:0.438889 111:0.274336 112:0.971919 113:0.0909091 114:0.918705 115:0.0829268 116:0.128747 117:0.10828 118:0.942618 121:0.151751 122:0.975921 123:0.0636042 124:0.141479 125:0.0470085 126:0.215571 127:0.159483 129:0.402878 130:0.0800997 131:0.411111 132:0.978979 133:0.275148 134:0.928352 135:0.402778 136:0.980171 137:0.0833333 138:0.717939 139:0.0386473 140:1 141:0.0147601 142:0.203776 143:0.0325203 144:0.622967 145:0.352 146:0.0997642 147:0.486275 148:0.0553879 149:0.439153 150:0.969284 151:0.644809 152:0.923005 153:0.384615 154:0.969908 155:0.109524 156:0.127542 157:0.196078 158:0.528105 161:0.238411 162:0.746532 163:0.0699588 164:0.0673951 165:0.214612 166:0.206084 167:0.384298 168:0.114835 169:0.234146 170:0.115306 171:0.0283019 172:0.508846 173:0.191489 174:0.72574 175:0.5625 176:0.805967 177:0.627778 178:0.992931 179:0.108571 180:0.940909 181:0.0231481 182:0.90199 183:0.545455 184:0.101406 185:0.666667 186:0.119007 187:0.0416667 188:0.228645 189:0.0567376 190:0.346716 191:0.357798 192:0.710312 193:0.543689 194:0.864463 195:0.366972 196:0.940937 197:0.0574713 198:0.0898706 201:0.15035 202:0.574245 203:0.0376569 204:1 205:0.567308 206:0.183862 207:0.174274 208:0.104069 209:0.0658307 210:0.572 211:0.0340426 212:0.409563 213:0.0377907 214:0.430931 215:0.122727 216:0.719736 217:0.615385 218:0.797952 219:0.433735 220:0.968732 221:0.641414 222:0.110981 223:0.559585 224:0.1324 225:0.0180995 226:0.572209 227:0.0588235 228:0.455978 229:0.0471204 230:0.623779 231:0.101124 232:0.219713 233:0.509091 234:0.748333 235:0.569149 236:0.827433 237:0.0873786 238:0.928869 241:0.0981818 242:0.243897 243:0.229814 244:0.307368 245:0.457399 246:0.207549 247:0.0771605 248:0.676927 249:0.0141509 250:0.116489 251:0.0283019 252:0.983856 253:0.0481928 254:0.165666 255:0.0559006 256:0.289326 257:0.116592 258:0.704592 259:0.152838 260:0.854683 261:0.547771 262:0.112858 263:0.0559006 264:0.371285 265:0.0616114 266:0.689587 267:0.08 268:0.0932704 269:0.026455 270:0.407714 271:0.076555 272:0.178571 273:0.141026 274:0.725197 275:0.661538 276:0.747898 277:0.0769231 278:0.739992 281:0.0314961 282:0.264475 283:0.36715 284:0.255767 285:0.236641 286:0.242463 287:0.0497238 288:0.789433 289:0.0280702 290:0.228612 291:0.0309278 292:0.588557 293:0.0120482 294:0.245383 295:0.0260417 296:0.31399 297:0.0273973 298:1 299:0.160194 300:0.416666 301:0.431034 302:0.521013 303:0.0580645 304:0.141705 305:0.0512821 306:0.244276 307:0.0498221 308:0.616356 309:0.06 310:0.196589 311:0.0140845 312:0.308168 313:0.129187 314:0.769562 315:0.740113 316:0.759885 317:0.058296 318:0.113346 321:0.173913 322:0.00338804 323:0.325203 324:0.225301 325:0.5 326:0.361437 327:0.0977444 328:0.5689 329:0.0638298 330:0.0216857 331:0.0149254 332:0.399603 334:0.498965 335:0.0977011 336:0.153971 337:0.233129 338:0.680104 339:0.175758 340:0.758399 341:0.422078 342:0.209103 343:0.121019 344:0.482229 345:0.00510204 346:0.757806 347:0.0160643 348:0.21036 349:0.0444444 350:0.167675 351:0.0460829 352:0.333911 353:0.0876494 354:0.775384 355:0.622807 356:0.685131 357:0.144068 358:0.668606 361:0.14902 362:0.691084 363:0.096 364:0.0900046 365:0.427984 366:0.235297 367:0.360825 368:0.44115 369:0.0553191 370:0.68982 371:0.047619 372:0.0490791 373:0.0275591 374:0.171038 375:0.138728 376:0.545657 377:0.198675 378:0.594389 379:0.0810811 380:0.664519 381:0.217687 382:0.202512 383:0.186667 384:0.358003 385:0.119403 386:0.498675 387:0.0445344 388:0.371084 389:0.0307692 390:0.947688 391:0.097561 392:0.196893 393:0.494318 394:0.69212 395:0.539216 396:0.638956 397:0.0571429 398:0.702068 401:0.11245 402:0.241317 403:0.113402 404:0.546281 405:0.190476 406:0.27081 407:0.516854 408:0.303489 409:0.134529 410:0.4868 411:0.0154639 412:0.571441 413:0.0931373 414:0.763986 415:0.0427807 416:0.787299 417:0.0921053 418:0.95847 419:0.055 420:1 421:0.0348837 422:0.214114 423:0.106383 424:0.12928 425:0.13369 426:0.0904375 427:0.0887097 428:0.222749 429:0.116279 430:0.509874 431:0.102151 432:0.856059 433:0.721053 434:0.6749 435:0.162055 436:0.631174 437:0.055794 438:0.920948 441:0.0278884 442:0.654745 443:0.0569106 444:0.205988 445:0.124294 446:0.343041 447:0.392857 448:0.290376 449:0.26943 450:0.398592 451:0.0226415 452:0.0905783 453:0.10582 454:0.746532 455:0.0833333 456:0.02514 457:0.101695 458:0.940445 459:0.121429 460:0.893694 461:0.162562 462:0.0836561 463:0.156566 464:0.131983 465:0.0114504 466:0.671867 467:0.0614754 468:1 469:0.179104 470:0.136979 471:0.589595 472:0.702371 473:0.488038 474:0.63832 475:0.0627451 476:0.240269 477:0.07 478:0.799045 481:0.00970874 482:0.228553 483:0.0213675 484:0.983567 485:0.0459364 486:0.0934098 487:0.367232 488:0.269026 489:0.46789 490:0.359599 491:0.223077 492:0.499636 493:0.00497512 494:0.116979 495:0.00947867 496:0.0257322 497:0.0393701 498:0.762877 499:0.0321101 500:0.0866669 501:0.119718 502:0.0637984 503:0.0224719 504:0.144748 505:0.0541667 506:0.168379 507:0.0326531 508:0.164959 509:0.13089 510:0.613706 511:0.771028 512:0.654121 513:0.119835 514:0.566737 515:0.0786885 516:0.185954 517:0.133621 518:0.721142 521:0.0892193 522:0.0363028 523:0.0243902 524:0.156538 525:0.0552995 526:0.691833 527:0.0282258 528:0.136387 529:0.359184 530:0.251816 531:0.549223 532:0.402004 533:0.364035 534:0.489526 535:0.06 536:0.510671 537:0.0204918 538:0.698111 539:0.115607 540:0.116221 541:0.0428571 542:0.582889 543:0.029661 544:0.182651 545:0.080402 546:0.092458 547:0.242798 548:0.53268 549:0.635945 550:0.60487 551:0.405738 552:0.625436 553:0.0675676 554:0.18806 555:0.0406504 556:0.270896 557:0.0868056 558:0.703935 561:0.0565217 562:0.657636 563:0.0294118 564:0.967922 565:0.0909091 566:0.971793 567:0.122905 568:0.985373 569:0.0650888 570:0.0194196 571:0.26556 572:0.232347 573:0.339286 574:0.358522 575:0.324415 576:0.476301 577:0.0696379 578:0.426942 579:0.0422535 580:0.732958 581:0.0650407 582:0.0414334 583:0.0932642 584:0.272168 585:0.513393 586:0.588521 587:0.470356 588:0.591673 589:0.233813 590:0.634562 591:0.0252101 592:0.0516562 593:0.0519031 594:0.142845 595:0.0325203 596:0.396232 597:0.0611111 598:0.748462 601:0.1 602:0.454641 603:0.114286 604:0.457816 605:0.117021 606:0.479491 607:0.103261 608:0.591802 609:0.035503 610:0.792724 611:0.0940594 612:0.983213 613:0.232955 614:0.154024 615:0.327273 616:0.301776 617:0.420849 618:0.448908 619:0.280702 620:0.47276 621:0.166667 622:0.559307 623:0.648148 624:0.587006 625:0.411523 626:0.605462 627:0.0213523 628:0.79344 629:0.017316 630:0.70947 631:0.0332103 632:0.425143 633:0.0277778 634:0.556672 635:0.0645161 636:0.232698 637:0.0328947 638:0.57995 641:0.0409836 642:0.0418521 643:0.026455 644:0.393247 645:0.0465116 646:0.362991 647:0.0409091 648:0.358608 649:0.0817308 650:0.397863 651:0.120879 652:0.482464 653:0.105556 654:0.687089 655:0.0859729 656:0.102095 657:0.379167 658:0.233413 659:0.420561 660:0.454292 661:0.619608 662:0.606026 663:0.251064 664:0.611659 665:0.10177 666:0.120657 667:0.0423729 668:0.794131 669:0.0474576 670:0.64948 671:0.0277778 672:0.222838 673:0.0248756 674:0.215715 675:0.0292683 676:0.216856 677:0.0272109 678:0.208762 681:0.057377 682:0.679703 684:0.497649 685:0.0580645 686:0.1904 687:0.0217391 688:0.960528 689:0.00884956 690:0.241068 691:0.0854271 692:0.272012 693:0.027907 694:0.302954 695:0.0151057 696:0.180301 697:0.0541872 698:0.572404 699:0.14218 700:0.563975 701:0.101045 702:0.619774 703:0.107477 704:0.178724 705:0.0164474 706:0.114177 707:0.11336 708:0.62996 709:0.0285714 710:0.569228 711:0.038961 712:0.113929 713:0.0205761 714:0.275352 715:0.0337079 716:0.216812 717:0.0406504 718:0.222519 721:0.0326797 722:0.619971 723:0.0239521 724:0.116742 725:0.0607735 726:0.160732 727:0.0515464 728:0.807163 729:0.032 730:0.979799 731:0.119403 732:0.120853 733:0.0460251 734:0.157453 735:0.0689655 736:0.573595 737:0.160976 738:0.617208 739:0.0214592 740:0.83573 741:0.0588235 742:0.0796461 743:0.0874525 744:0.136978 745:0.111111 746:0.73141 747:0.0331126 748:0.64658 749:0.0542169 750:0.172488 751:0.0140845 752:0.491037 753:0.0344828 754:0.298977 755:0.0408163 756:0.294827 757:0.0243902 758:0.255506 
0.03125 1:0.0208333 2:0.691904 3:0.0125786 4:0.0891924 5:0.00862069 6:1 7:0.00819672 8:0.320359 9:0.02 10:0.465719 11:0.0195312 12:0.624101 14:0.496185 16:0.2479 17:0.00921659 18:0.497791 19:0.0263158 20:0.332999 21:0.0675676 22:0.59923 23:0.0157068 24:0.153169 25:0.0231481 26:0.717903 27:0.0209205 28:0.161607 29:0.00847458 30:0.572867 31:0.0144231 32:0.190752 33:0.037234 34:0.770486 35:0.0437158 36:0.162441 37:0.0283019 38:0.571099 41:0.00704225 42:0.366378 43:0.0120482 44:0.438911 45:0.0178571 46:0.581081 47:0.00711744 48:0.823137 49:0.02 50:0.0488436 51:0.0203046 52:0.968488 53:0.0185185 54:0.0356177 55:0.00529101 56:0.873906 57:0.0227273 58:0.968528 59:0.0318725 60:1 61:0.0156863 62:0.248123 63:0.0120968 64:0.497 65:0.032967 66:0.524525 67:0.0253165 68:1 69:0.0111732 70:0.174958 71:0.0289855 72:0.425749 73:0.0308642 74:0.624471 75:0.0191083 76:0.79875 77:0.0394737 78:0.327052 82:0.747131 83:0.00460829 84:0.747997 85:0.011236 86:0.295606 87:0.0108303 88:0.19413 89:0.00558659 90:0.418514 91:0.0502793 92:0.533271 93:0.0232558 94:0.543428 95:0.0137931 96:0.423858 97:0.0136519 98:0.424339 99:0.0594059 100:0.606454 101:0.0127119 102:0.44762 103:0.0243902 104:0.925915 105:0.056338 106:0.176099 107:0.0425532 108:0.57993 109:0.0333333 110:0.641891 111:0.0530973 112:0.0633835 113:0.0136364 114:0.444778 115:0.0439024 116:0.682484 117:0.0955414 118:0.181531 122:0.618956 123:0.024735 124:0.954271 125:0.017094 126:0.140771 127:0.0215517 128:0.495666 129:0.028777 130:0.623968 132:1 133:0.0295858 134:0.985547 135:0.0416667 136:0.0789206 137:0.0208333 138:0.708362 139:0.0289855 140:0.973515 141:0.0516605 142:0.116979 143:0.0325203 144:0.571481 145:0.016 146:0.624043 147:0.00392157 148:1 149:0.0529101 150:0.188199 151:0.0710383 152:0.615629 154:0.497739 155:0.0238095 156:0.46767 157:0.0457516 158:0.0578289 161:0.0397351 162:0.2845 163:0.0246914 164:0.695335 165:0.0182648 166:0.574835 167:0.0206612 168:0.96848 169:0.141463 171:0.160377 172:0.0131785 173:0.297872 174:0.99167 175:0.25 176:0.983414 177:0.116667 178:0.0182434 179:0.0228571 180:0.124078 181:0.0555556 182:0.606636 183:0.00478469 184:0.120247 185:0.185714 187:0.279167 189:0.531915 190:0.991494 191:0.302752 193:0.11165 194:0.96554 195:0.059633 196:0.186859 197:0.0632184 198:0.706427 201:0.020979 202:0.191468 203:0.0460251 204:0.632993 205:0.0336538 206:0.266445 207:0.153527 208:0.0935854 209:0.172414 210:0.0686382 211:0.212766 212:0.0354417 213:0.127907 214:0.952756 215:0.240909 216:0.900632 217:0.426036 218:0.966643 219:0.11245 220:0.943294 221:0.0555556 222:0.0405793 223:0.316062 224:0.104187 225:0.307692 226:0.0661765 227:0.196078 228:0.0306103 229:0.240838 230:0.955095 231:0.449438 232:0.912527 233:0.466667 234:0.95172 235:0.234043 236:0.012397 237:0.0533981 238:0.702911 241:0.0145455 242:0.872985 243:0.00621118 244:0.661881 245:0.183857 246:0.193742 247:0.16358 248:0.136324 249:0.160377 250:0.0972962 251:0.0314465 252:0.280782 253:0.0562249 254:0.652083 255:0.0372671 256:0.905478 257:0.264574 258:0.772005 259:0.174672 260:0.904949 261:0.33121 262:0.1362 263:0.360248 264:0.172887 265:0.0758294 266:0.205957 267:0.04 268:0.109933 269:0.0582011 270:0.241968 271:0.177033 272:0.720718 273:0.42735 274:0.910983 275:0.358974 276:0.89621 277:0.0316742 278:0.889149 281:0.0314961 282:0.664953 283:0.0531401 284:0.206153 285:0.225191 286:0.229381 287:0.226519 288:0.1341 289:0.0245614 290:0.768659 291:0.0206186 292:0.0913137 293:0.0421687 294:0.0330742 295:0.0208333 296:0.980655 297:0.164384 298:0.769122 299:0.150485 300:0.87078 301:0.264368 302:0.0900218 303:0.258065 304:0.131936 305:0.141026 306:0.151844 307:0.00355872 308:0.749301 309:0.095 310:0.0261499 311:0.333333 312:0.114351 313:0.392344 314:0.753646 315:0.576271 316:0.82303 317:0.0224215 318:0.744225 321:0.0271739 322:1 323:0.0487805 324:0.273978 325:0.438889 326:0.241662 327:0.0639098 328:0.154393 329:0.0531915 330:0.931246 331:0.0597015 332:0.0868368 333:0.0625 334:0.98674 335:0.0689655 336:1 337:0.134969 338:0.824971 339:0.151515 340:0.942288 341:0.279221 342:0.0621183 343:0.229299 344:0.0972608 345:0.0714286 346:0.0690455 347:0.140562 348:0.0836802 349:0.25 350:0.115936 351:0.0414747 352:0.231717 353:0.159363 354:0.742304 355:0.605263 356:0.744922 357:0.0423729 358:0.758489 361:0.0392157 362:0.75907 363:0.08 364:0.145452 365:0.353909 366:0.219803 367:0.0979381 368:0.361229 369:0.0255319 370:0.887401 371:0.0555556 372:0.0911504 373:0.00787402 374:0.548391 376:0.873453 377:0.0662252 378:0.849437 379:0.0855856 380:0.0537706 381:0.108844 382:0.0756148 383:0.1 384:0.0401727 385:0.20398 386:0.0800662 387:0.129555 388:0.0957788 389:0.025641 390:0.010542 391:0.0439024 392:0.154016 393:0.244318 394:0.741839 395:0.656863 396:0.718856 397:0.0367347 398:0.746908 401:0.273092 402:0.0147863 403:0.250859 404:0.0174985 405:0.509524 406:0.100783 407:0.320225 408:0.103476 410:1 411:0.056701 412:0.931727 413:0.151961 414:0.00698034 415:0.149733 416:0.0147484 417:0.105263 418:0.0442699 419:0.14 420:0.00375616 421:0.197674 422:0.0394721 423:0.202128 424:0.081445 425:0.160428 426:0.0729256 427:0.0322581 428:0.0265259 429:0.00581395 430:0.367269 431:0.0430108 433:0.321053 434:0.774182 435:0.454545 436:0.814755 437:0.390558 438:1 441:0.119522 442:0.44028 443:0.170732 444:0.0655275 445:0.276836 446:0.0868215 447:0.111607 448:0.541239 449:0.227979 450:0.463078 451:0.173585 452:0.43403 453:0.31746 454:0.495751 455:0.257937 456:0.511594 457:0.293785 458:0.443879 459:0.492857 460:0.484677 461:0.320197 462:0.473336 463:0.373737 464:0.453798 465:0.354962 466:0.500154 467:0.352459 468:0.504965 469:0.368159 470:0.468005 471:0.554913 472:0.496998 473:0.511962 474:0.556602 475:0.215686 476:0.66162 477:0.133333 478:0.955236 481:0.412621 482:0.295087 483:0.132479 484:0.35075 485:0.187279 486:0.883906 487:0.389831 488:0.936212 489:0.110092 490:0.0553762 491:0.00384615 492:0.496922 493:0.0348259 494:0.664326 495:0.0521327 496:0.391646 497:0.023622 498:0.519436 499:0.0917431 500:0.42183 501:0.211268 502:0.476105 503:0.202247 504:0.515533 505:0.154167 506:0.481433 507:0.138776 508:0.489171 509:0.109948 510:0.57054 511:0.0373832 512:0.665299 513:0.194215 514:0.095317 515:0.180328 516:0.0430917 517:0.202586 518:0.861453 521:0.345725 522:0.245258 523:0.565854 524:0.361603 525:0.511521 526:0.510516 527:0.346774 528:0.670939 529:0.0979592 530:0.878963 531:0.103627 532:0.984797 533:0.0570175 534:0.793118 535:0.092 536:0.0652004 537:0.045082 538:0.698111 539:0.0635838 540:0.948278 541:0.0714286 542:0.981221 543:0.0508475 544:0.936369 545:0.0552764 546:0.109677 547:0.0617284 548:0.179499 549:0.0368664 550:0.0892754 551:0.151639 552:0.147661 553:0.175676 554:0.269063 555:0.227642 556:0.498445 557:0.423611 558:0.631854 561:0.0869565 562:0.247582 563:0.176471 564:0.309539 565:0.433155 566:0.412515 567:0.659218 568:0.48223 569:0.56213 570:0.520664 571:0.0746888 572:0.706031 573:0.185714 575:0.137124 576:0.950709 577:0.103064 578:0.00455286 579:0.150235 580:0.000402851 581:0.178862 582:0.974803 583:0.259067 584:0.975143 585:0.223214 586:0.0111886 587:0.264822 588:0.0403427 589:0.176259 590:0.0411972 591:0.0714286 592:0.528446 593:0.297578 594:0.473344 595:0.495935 596:0.53159 597:0.65 598:0.611136 601:0.0294118 602:0.759402 603:0.0514286 604:0.227839 605:0.0585106 606:0.600543 607:0.163043 608:0.24783 609:0.473373 610:0.300208 611:0.480198 612:0.433166 613:0.545455 614:0.509915 615:0.221818 616:0.540178 618:0.750818 619:0.111111 620:0.112048 621:0.0388889 622:0.516237 623:0.0740741 624:0.916234 625:0.0781893 626:0.234575 627:0.284698 628:0.50187 629:0.467532 630:0.564252 631:0.409594 632:0.606169 633:0.162037 634:0.634379 635:0.016129 636:0.246001 637:0.0328947 638:0.659071 641:0.0327869 642:0.705257 643:0.010582 644:0.925678 645:0.0186047 646:0.0368514 647:0.0227273 648:0.0965381 649:0.0721154 650:0.266932 651:0.197802 652:0.333511 653:0.288889 654:0.402387 655:0.330317 656:0.397631 657:0.116667 658:0.423007 659:0.140187 660:0.947037 661:0.27451 662:0.0475786 663:0.0893617 664:0.793233 665:0.353982 666:0.635123 667:0.211864 668:0.560457 669:0.155932 670:0.602708 671:0.0714286 672:0.610486 674:0.498165 676:0.497981 678:0.498575 681:0.00819672 682:0.618017 683:0.00823045 684:0.423511 685:0.00645161 686:0.368454 687:0.0163043 688:0.841649 689:0.0221239 690:0.93872 691:0.0301508 692:0.192369 693:0.0511628 694:0.307301 695:0.244713 696:0.265215 697:0.55665 698:0.397034 699:0.587678 700:0.463235 701:0.445993 702:0.547644 703:0.654206 704:0.587232 705:0.292763 706:0.602532 707:0.0728745 708:0.585553 709:0.047619 710:0.631693 711:0.030303 712:0.0184945 713:0.00411523 714:0.495781 715:0.00561798 716:0.477875 717:0.00813008 718:0.48168 721:0.0392157 722:0.948105 723:0.011976 724:0.116742 725:0.0276243 726:0.349894 727:0.0618557 728:0.491037 729:0.02 730:0.65703 731:0.00995025 732:1 733:0.0167364 734:0.11816 735:0.0197044 736:0.0627613 737:0.180488 738:0.254292 739:0.218884 740:0.411396 741:0.242215 742:0.574906 743:0.190114 744:0.61271 745:0.0233918 746:0.570758 747:0.0298013 748:0.982339 749:0.0361446 750:0.266579 751:0.0328638 752:0.650258 753:0.00574713 754:0.498404 755:0.00680272 756:0.495435 757:0.00487805 758:0.481971 
0.03125 1:0.0277778 2:0.0170121 3:0.0251572 4:0.277935 5:0.0344828 6:0.592841 7:0.00409836 8:0.623097 9:0.02 10:0.142988 11:0.0078125 12:0.749401 13:0.0136364 14:0.204989 15:0.00398406 16:0.62395 17:0.0322581 18:0.0603065 19:0.0105263 20:0.246599 21:0.0810811 22:0.576103 23:0.052356 24:0.395265 25:0.0509259 26:0.554434 27:0.0627615 28:0.675286 29:0.0677966 30:0.157245 31:0.0288462 32:0.569515 33:0.0265957 34:0.495389 35:0.0273224 36:0.497037 37:0.0188679 38:0.457605 41:0.0352113 42:0.642722 43:0.00803213 44:0.566152 45:0.0214286 46:0.467449 47:0.0177936 48:0.411813 49:0.0266667 50:0.478913 51:0.0507614 52:0.512938 53:0.0246914 54:0.466719 55:0.037037 56:0.288118 57:0.0454545 58:0.559773 59:0.0517928 60:0.616185 61:0.0313725 62:0.555992 63:0.0120968 64:0.193983 65:0.0549451 66:0.498143 67:0.0759494 68:0.481418 69:0.0335196 70:0.525565 71:0.0338164 72:0.543928 73:0.0246914 74:0.499295 75:0.0191083 76:0.441974 77:0.0175439 78:0.491037 81:0.0223464 82:0.597853 83:0.0230415 84:0.686952 85:0.0168539 86:0.421609 87:0.0144404 88:0.497091 89:0.00558659 90:0.746648 91:0.027933 92:0.161237 93:0.0116279 94:0.209512 95:0.0206897 96:0.517825 97:0.0307167 98:0.565151 99:0.0346535 100:0.749406 101:0.0889831 102:0.042261 103:0.162602 104:0.968459 105:0.225352 106:0.973523 107:0.144681 108:0.0657843 109:0.0111111 110:0.749496 111:0.0530973 112:0.484281 113:0.0181818 114:0.457086 115:0.0195122 116:0.498495 117:0.0254777 118:0.497527 122:0.618956 123:0.024735 124:0.67536 125:0.0213675 126:0.433484 127:0.0258621 128:0.387346 129:0.0323741 130:0.0149076 131:0.127778 132:0.00956092 133:0.056213 134:0.960945 135:0.037037 136:0.96513 137:0.046875 138:0.0805512 139:0.193237 140:0.0489784 141:0.265683 142:0.0474181 143:0.264228 144:1 145:0.28 146:0.942226 147:0.223529 148:0.952173 149:0.10582 150:0.880303 151:0.0491803 152:0.196696 153:0.0226244 154:0.46618 155:0.0285714 156:0.499213 157:0.0326797 158:0.496467 161:0.013245 162:0.651649 163:0.0411523 164:0.778908 165:0.0456621 166:0.0165249 167:0.0743802 168:0.265175 169:0.0878049 170:0.304546 171:0.0188679 172:0.955065 173:0.12766 174:0.895063 175:0.197917 176:0.98741 177:0.316667 178:0.101236 179:0.314286 180:0.144393 181:0.101852 182:0.264847 183:0.23445 184:0.494892 185:0.285714 186:0.600788 187:0.241667 188:0.7096 189:0.184397 190:0.779562 191:0.0458716 192:0.0134843 193:0.0145631 194:0.494261 195:0.0137615 196:0.445585 197:0.0172414 198:0.497952 201:0.0174825 202:0.00882944 203:0.0711297 204:0.991134 205:0.173077 206:0.955333 207:0.0912863 208:0.0874403 209:0.0971787 210:0.292005 211:0.102128 212:0.409563 213:0.0494186 214:0.485005 215:0.0363636 216:0.0686271 217:0.189349 218:0.126124 219:0.0281124 220:0.223939 221:0.181818 222:0.612055 223:0.15544 224:0.490241 225:0.0904977 226:0.514065 227:0.14902 228:0.748826 229:0.125654 230:0.832079 231:0.0730337 232:0.674539 233:0.0181818 234:0.496664 235:0.0159574 236:0.445642 237:0.0145631 238:0.491941 241:0.0690909 242:0.10491 243:0.161491 244:0.0602533 245:0.201794 246:0.901898 247:0.0925926 248:0.923592 249:0.0896226 250:0.185977 251:0.072327 252:0.379482 253:0.172691 254:0.399207 255:0.242236 256:0.416918 257:0.0672646 258:0.459712 259:0.10917 260:0.681232 261:0.165605 262:0.707576 263:0.0745342 264:0.202422 265:0.0995261 266:0.33938 267:0.12 268:0.665035 269:0.227513 270:0.820248 271:0.15311 272:0.954428 273:0.017094 274:0.498411 275:0.0205128 276:0.453783 277:0.0180995 278:0.498734 281:0.0984252 282:0.150273 283:0.149758 284:0.200136 285:0.122137 286:0.756124 287:0.198895 288:0.728146 289:0.0280702 290:0.586881 291:0.0206186 292:0.620362 293:0.150602 294:0.263779 295:0.229167 296:0.317248 297:0.0958904 298:0.442 299:0.0873786 300:0.811165 301:0.183908 302:0.915467 303:0.277419 304:0.988977 305:0.0897436 306:0.212621 307:0.0640569 308:0.428401 309:0.125 310:0.747131 311:0.201878 312:0.733139 313:0.0334928 314:0.491513 315:0.039548 316:0.475159 317:0.0044843 318:1 321:0.0815217 322:0.198292 323:0.105691 324:0.151797 325:0.216667 326:0.748572 327:0.157895 328:0.71683 330:0.627483 331:0.0199005 332:0.873565 333:0.046875 334:0.159359 335:0.247126 336:0.155655 337:0.251534 338:0.14543 339:0.10303 340:0.457473 341:0.220779 342:0.495449 343:0.280255 344:0.729598 345:0.270408 346:0.997478 347:0.11245 348:0.150372 349:0.216667 350:0.632582 351:0.262673 352:0.845369 353:0.2749 354:1 355:0.192982 356:0.0303379 357:0.0805085 358:0.480896 361:0.101961 362:0.210326 363:0.068 364:0.40696 365:0.193416 366:0.738986 367:0.262887 368:0.885023 369:0.0765957 370:0.00704211 371:0.031746 372:0.510096 373:0.0826772 374:0.266998 375:0.271676 376:0.168974 377:0.0662252 378:0.904527 379:0.153153 380:0.562744 381:0.306122 382:0.392445 383:0.353333 384:0.438544 385:0.238806 386:0.666539 387:0.153846 388:0.928271 389:0.261538 390:0.0749192 391:0.0731707 392:0.859394 393:0.147727 394:0.805902 395:0.352941 396:0.862023 397:0.265306 401:0.060241 402:0.458551 403:0.0859107 404:0.240415 405:0.0666667 406:0.560765 407:0.314607 408:0.794733 409:0.255605 410:0.933012 411:0.185567 412:0.0117176 413:0.220588 414:0.264797 415:0.171123 416:0.254002 417:0.335526 418:0.683948 419:0.12 420:0.62227 421:0.104651 422:0.379639 423:0.260638 424:0.294586 425:0.139037 426:0.394283 427:0.0483871 428:0.630225 429:0.104651 430:0.529048 431:0.193548 432:0.548653 433:0.205263 434:0.447464 435:0.225296 436:0.630895 437:0.206009 438:0.799791 441:0.0796813 442:0.296461 443:0.0365854 444:0.299446 445:0.124294 446:0.362388 447:0.111607 448:0.568922 449:0.207254 450:0.770777 451:0.260377 452:0.9027 453:0.365079 454:0.116151 455:0.0753968 456:0.384826 457:0.248588 458:0.751339 459:0.1 460:0.782957 461:0.0344828 462:0.246089 463:0.222222 464:0.215764 465:0.164122 466:0.382179 467:0.241803 468:0.543015 469:0.218905 470:0.56636 471:0.150289 472:0.58407 473:0.0956938 474:0.0506547 475:0.0862745 476:0.165521 477:0.216667 478:0.764165 481:0.101942 482:0.175881 483:0.0982906 484:0.518264 485:0.0353357 486:0.34065 487:0.101695 488:0.290335 489:0.146789 490:0.450155 491:0.180769 492:0.718781 493:0.208955 494:0.94715 495:0.175355 496:0.124434 497:0.165354 498:0.766898 499:0.100917 500:0.858575 501:0.0915493 502:0.190038 503:0.0168539 504:0.321542 505:0.0833333 506:0.453732 507:0.122449 508:0.52491 509:0.104712 510:0.511412 511:0.135514 512:0.302386 513:0.00826446 514:0.743925 515:0.0983607 516:0.0903801 517:0.275862 518:0.677757 521:0.0520446 522:0.602131 523:0.0682927 524:0.20942 525:0.0599078 526:0.296956 527:0.0564516 528:0.648864 529:0.138776 530:0.260441 531:0.165803 532:0.487288 533:0.162281 534:0.634692 535:0.1 536:0.0370479 537:0.147541 538:0.819596 539:0.248555 540:0.899453 541:0.0333333 542:0.118403 543:0.148305 544:0.562413 545:0.0301508 546:0.566058 547:0.0288066 548:0.401102 549:0.0368664 550:0.342936 551:0.196721 552:0.134435 553:0.141892 554:0.0607574 555:0.134146 556:0.726861 557:0.211806 558:0.651195 561:0.0391304 562:0.396432 563:0.0176471 564:0.181904 565:0.0320856 566:0.265688 567:0.0614525 568:0.522168 569:0.0118343 570:0.172092 571:0.0373444 572:0.195364 573:0.0857143 574:0.332094 575:0.113712 576:0.495666 577:0.091922 578:0.565303 579:0.253521 580:0.748891 581:0.199187 582:0.883242 583:0.0621762 584:0.156607 585:0.0401786 586:0.545804 587:0.083004 588:0.030396 589:0.208633 590:0.117964 591:0.172269 592:0.232075 593:0.15917 594:0.553001 595:0.365854 596:0.621835 597:0.172222 598:0.615418 601:0.0882353 602:0.21138 603:0.0457143 604:0.439598 605:0.037234 606:0.58878 607:0.0597826 608:0.242474 609:0.0532544 610:0.414862 611:0.0643564 612:0.571334 613:0.0170455 614:0.571007 615:0.0109091 616:0.30791 617:0.0694981 618:0.325393 619:0.263158 620:0.557695 621:0.344444 622:0.776456 623:0.319444 624:0.986004 625:0.251029 626:0.0699704 627:0.181495 628:0.0577813 629:0.0519481 630:0.13804 631:0.173432 632:0.502973 633:0.314815 634:0.604702 635:0.166667 636:0.626556 637:0.0131579 638:0.417808 641:0.0327869 642:0.274831 643:0.026455 644:0.276243 645:0.0139535 646:0.405096 647:0.0181818 648:0.42245 649:0.0240385 650:0.436237 651:0.0274725 652:0.436055 653:0.0277778 654:0.493718 655:0.0135747 656:0.559673 657:0.0916667 658:0.874853 659:0.168224 660:0.248383 661:0.2 662:0.517161 663:0.0851064 664:0.70952 665:0.159292 666:0.103437 667:0.122881 668:0.62477 669:0.159322 670:0.69598 671:0.047619 672:0.774958 673:0.0348259 674:0.609142 675:0.0243902 676:0.602193 677:0.0136054 678:0.498575 681:0.0327869 682:0.311199 683:0.0164609 684:0.372062 685:0.0258065 686:0.455366 687:0.0217391 688:0.454343 689:0.0176991 690:0.419375 691:0.0201005 692:0.421609 693:0.0139535 694:0.503887 695:0.0574018 696:0.266748 697:0.17734 698:0.671212 699:0.189573 700:0.9401 701:0.139373 702:0.239359 703:0.200935 704:0.441505 705:0.131579 706:0.597499 707:0.0850202 708:0.621943 709:0.138095 710:0.714505 711:0.108225 712:0.632964 713:0.0123457 714:0.696251 715:0.00561798 716:0.738938 717:0.0162602 718:0.0398542 721:0.0196078 722:0.334781 723:0.011976 724:0.369101 725:0.0110497 726:0.423973 727:0.0206186 728:0.415922 729:0.008 730:0.309784 731:0.0149254 732:0.238304 733:0.0041841 734:1 735:0.0246305 736:0.179789 737:0.121951 738:0.318692 739:0.218884 740:0.737094 741:0.0519031 742:0.958235 743:0.0912548 744:0.194437 745:0.0467836 746:0.648802 747:0.0960265 748:0.531139 749:0.337349 750:0.61594 751:0.0234742 752:0.777498 753:0.0172414 754:0.906118 755:0.0272109 756:0.0302152 757:0.0243902 758:0.0530546 
0.03125 1:0.263889 2:0.52741 3:0.27044 4:0.620645 5:0.0431034 6:0.0324246 7:0.0655738 8:0.497462 9:0.128 10:0.547235 11:0.109375 12:0.55539 13:0.113636 14:0.630571 15:0.0677291 16:0.213 17:0.0967742 18:0.453302 19:0.168421 20:0.512678 21:0.27027 22:0.515943 23:0.162304 24:0.513489 25:0.111111 26:0.472444 27:0.150628 28:0.524935 29:0.182203 30:0.449941 31:0.149038 32:0.3723 33:0.132979 34:0.294764 35:0.224044 36:0.572987 37:0.0943396 38:0.450161 41:0.239437 42:0.511998 43:0.0562249 44:0.347649 45:0.182143 46:0.568717 47:0.117438 48:0.572209 49:0.0666667 50:0.545256 51:0.106599 52:0.505717 53:0.166667 54:0.486857 55:0.0687831 56:0.586613 57:0.0772727 58:0.544713 59:0.0756972 60:0.595387 61:0.145098 62:0.481567 63:0.217742 64:0.485161 65:0.269231 66:0.523996 67:0.14346 68:0.550367 69:0.212291 70:0.34724 71:0.21256 72:0.344048 73:0.333333 74:0.51401 75:0.216561 76:0.503282 77:0.00438596 78:0.236555 81:0.189944 82:0.0921138 83:0.133641 84:0.673613 85:0.134831 86:0.539791 87:0.194946 88:0.511871 89:0.24581 90:0.521672 91:0.201117 92:0.529021 93:0.0852713 94:0.147318 95:0.0689655 96:0.597909 97:0.0409556 98:0.549746 99:0.20297 100:0.637595 101:0.0550847 102:0.80803 103:0.0365854 104:0.195592 105:0.117371 106:0.444747 107:0.0425532 108:1 109:0.3 110:0.083666 111:0.150442 112:0.0321132 113:0.0863636 114:0.136368 115:0.195122 116:0.353612 117:0.261146 118:0.564809 121:0.0856031 122:0.652759 123:0.166078 124:0.634778 125:0.252137 126:0.591375 127:0.12931 128:0.474386 129:0.0719424 130:0.00522188 131:0.6 132:0.054478 133:0.239645 134:0.974632 135:0.444444 136:0.988512 137:0.40625 138:0.960653 139:0.111111 140:1 141:0.110701 142:0.579462 143:0.0731707 144:0.730938 145:0.396 146:0.0671147 147:0.494118 148:0.0448913 149:0.470899 150:0.0253795 151:0.540984 152:0.977583 153:0.41629 154:0.961672 155:0.1 156:0.170788 157:0.470588 158:0.487571 161:0.278146 162:0.651649 163:0.238683 164:0.705706 165:0.0776256 166:0.734181 167:0.272727 168:0.149586 169:0.707317 170:0.0862941 171:0.198113 172:0.0413939 173:0.111702 174:0.00820708 175:0.182292 176:0.855403 177:0.433333 178:0.812003 179:0.588571 180:0.921304 181:0.157407 182:0.0315788 183:0.473684 184:0.129402 185:0.5 186:0.118198 187:0.0166667 188:0.205351 189:0.198582 190:0.183801 191:0.119266 192:0.66732 193:0.519417 194:0.797503 195:0.46789 196:0.89418 197:0.189655 198:0.194017 201:0.269231 202:0.547716 203:0.305439 204:0.59623 205:0.100962 206:0.281186 207:0.647303 208:0.158815 209:0.122257 210:0.096291 211:0.0680851 212:0.716753 213:0.00581395 214:0.115306 215:0.0954545 216:0.680809 217:0.0946746 218:0.881129 219:0.429719 220:0.745887 221:0.5 222:0.0677454 223:0.518135 224:0.152669 225:0.0859729 226:0.514897 227:0.054902 228:0.212719 229:0.026178 230:0.437615 231:0.129213 232:0.23918 233:0.339394 234:0.704922 235:0.755319 236:0.807181 237:0.174757 238:0.950755 241:0.0509091 242:0.700964 243:0.0993789 244:0.340699 245:0.479821 246:0.209283 247:0.271605 248:0.236801 249:0.0566038 250:0.673059 251:0.0345912 252:0.72206 253:0.0321285 254:0.698102 255:0.0124224 256:0.0416878 257:0.121076 258:0.679943 259:0.0786026 260:0.858503 261:0.11465 262:0.068195 263:0.10559 264:0.0737087 265:0.109005 266:0.152877 267:0.024 268:0.194745 269:0.042328 270:0.31655 271:0.0334928 272:0.217057 273:0.0598291 274:0.153736 275:0.789744 276:0.703337 277:0.248869 278:0.634136 281:0.0984252 282:0.828232 283:0.275362 284:0.152741 285:0.320611 286:0.234318 287:0.458564 288:0.285935 289:0.0491228 290:0.585771 291:0.056701 292:0.733513 293:0.0722892 294:0.963681 295:0.0625 296:0.754657 297:0.0639269 298:0.957329 299:0.0436893 300:0.838046 301:0.103448 302:0.0321431 303:0.0451613 304:0.152856 305:0.0641026 306:0.138266 307:0.0106762 308:1 309:0.065 310:0.152585 311:0.0610329 312:0.176816 313:0.177033 314:0.763188 315:0.875706 316:0.69001 317:0.107623 318:0.508697 321:0.0326087 322:0.536947 323:0.0772358 324:0.27692 325:0.288889 326:0.248792 327:0.37218 328:0.280438 329:0.319149 330:0.490914 331:0.00995025 332:0.166753 333:0.0833333 334:0.759438 335:0.0344828 336:0.0255965 337:0.110429 338:0.867729 339:0.139394 340:0.01699 341:0.11039 342:0.937268 343:0.133758 344:0.076792 345:0.0306122 346:0.106509 347:0.0160643 348:0.155031 349:0.0722222 350:0.124391 351:0.0599078 352:0.178592 353:0.410359 354:0.69042 355:0.600877 356:0.65321 357:0.0423729 358:0.236228 361:0.0470588 362:0.565104 363:0.092 364:0.241544 365:0.119342 366:0.227421 367:0.304124 368:0.28038 369:0.314894 370:0.319057 371:0.166667 372:0.482179 373:0.0393701 374:0.777235 375:0.0462428 376:0.275955 377:0.0927152 378:0.535092 379:0.0045045 380:0.87468 381:0.0884354 382:0.940579 383:0.0133333 384:0.799531 385:0.0995025 387:0.0647773 388:0.0926247 389:0.0410256 390:0.149432 391:0.136585 392:0.708572 393:1 394:0.642058 395:0.269608 396:0.604546 397:0.126531 398:0.143155 401:0.0481928 402:0.195148 403:0.0893471 404:0.32091 405:0.12381 406:0.39486 407:0.213483 408:0.312144 409:0.29148 410:0.314124 411:0.42268 412:0.404202 413:0.264706 414:0.54024 415:0.0962567 416:0.522487 417:0.0723684 418:0.300287 419:0.045 420:0.338804 421:0.104651 422:0.683972 423:0.143617 424:0.0757324 425:0.0320856 426:0.641371 427:0.00806452 428:0.0858107 429:0.0290698 430:0.643225 431:0.88172 432:0.636358 433:0.515789 434:0.645617 435:0.130435 436:0.115596 437:0.055794 438:0.0268929 441:0.0557769 442:0.568688 443:0.0569106 444:0.312892 445:0.152542 446:0.330726 447:0.160714 448:0.393787 449:0.103627 450:0.313366 451:0.25283 452:0.17462 453:0.142857 454:0.362191 455:0.0595238 456:0.375233 457:0.0508475 458:0.25932 459:0.0571429 460:0.286888 461:0.0640394 462:0.223389 463:0.0656566 464:0.835581 465:0.0152672 466:0.047961 467:0.0163934 468:0.744953 469:0.681592 470:0.627493 471:0.728324 472:0.619537 473:0.0717703 474:0.26683 475:0.054902 476:0.145472 477:0.116667 478:0.767329 481:0.0194175 482:0.397233 483:0.025641 484:0.149206 485:0.0282686 486:0.258496 487:0.242938 488:0.202574 489:0.431193 490:0.0872068 491:0.253846 492:0.0393835 493:0.228856 494:0.0880905 495:0.0995261 496:0.183378 497:0.0354331 498:0.326294 499:0.0550459 500:0.192678 501:0.126761 502:0.203769 503:0.0786517 504:0.675132 505:0.0541667 506:0.966282 507:0.502041 508:0.643193 509:0.743455 510:0.619769 511:0.0280374 512:0.604113 513:0.107438 514:0.164395 515:0.0295082 516:0.307398 517:0.0646552 518:0.888061 521:0.0929368 522:0.0543456 523:0.0146341 524:0.401126 525:0.110599 526:0.280778 527:0.455645 528:0.221546 529:0.326531 530:0.0719843 531:0.0569948 532:0.902214 533:0.0570175 534:0.955454 535:0.076 536:0.0561995 537:0.0901639 538:0.137483 539:0.0924855 540:0.122646 541:0.0238095 542:0.267099 543:0.0466102 544:0.0857359 545:0.542714 546:0.665763 547:0.670782 548:0.625791 550:0.87317 551:0.0532787 552:0.1367 553:0.0709459 554:0.0607574 555:0.109756 556:0.166751 557:0.0555556 558:0.273078 561:0.0652174 562:0.732917 563:0.0176471 564:0.947713 565:0.278075 566:0.220469 567:0.905028 568:0.266698 569:0.207101 570:0.608081 571:0.06639 572:0.971912 573:0.0357143 574:1 575:0.0635452 576:0.0360079 577:0.0473538 578:0.139546 579:0.00469484 580:1 581:0.0813008 582:0.134564 583:0.316062 584:0.700055 585:0.745536 586:0.662263 587:0.0474308 588:0.74905 589:0.0539568 590:0.0236898 591:0.121849 592:0.101806 593:0.017301 594:0.264814 595:0.0487805 596:0.351965 597:0.0722222 598:0.449122 601:0.0470588 602:0.759402 603:0.0628571 604:0.525831 605:0.111702 606:0.169898 607:0.858696 608:0.25466 609:0.869822 610:0.472361 611:0.524752 612:0.512174 613:0.329545 614:0.466708 615:0.269091 616:0.507439 617:0.297297 618:0.486789 619:0.362573 620:0.470337 621:0.45 622:0.52367 623:0.87037 624:0.614379 625:0.337449 626:0.614116 627:0.00355872 628:0.320985 629:0.0822511 630:0.102629 631:0.0295203 632:0.925129 633:0.0231481 634:0.566519 635:0.0483871 636:0.407956 637:0.111842 638:0.359394 641:0.57377 642:0.955773 643:0.15873 644:0.0928318 645:0.0232558 646:0.559582 647:0.104545 648:0.22431 649:0.302885 650:0.273382 651:0.461538 652:0.421891 653:0.627778 654:0.503688 655:0.443439 656:0.508548 657:0.345833 658:0.457156 659:0.406542 660:0.517176 661:0.403922 662:0.61511 663:0.289362 664:0.637867 665:0.0619469 666:0.439565 667:0.0762712 668:0.285291 669:0.0440678 670:0.425803 671:0.0992063 672:0.613892 673:0.0248756 674:0.688301 675:0.0731707 677:0.285714 678:0.0930869 681:1 682:0.9142 683:0.386831 684:0.979697 685:0.309677 686:0.00952548 687:0.0978261 688:0.0701887 689:0.0707965 690:0.989947 691:0.0653266 692:1 693:0.0465116 694:0.0930947 695:0.0694864 696:0.0853017 697:0.103448 698:0.132778 699:0.00947867 700:1 701:0.125436 702:0.753549 703:0.130841 704:0.848393 705:0.111842 706:0.0559776 707:0.121457 708:0.0519111 709:0.0761905 710:0.979997 711:0.038961 712:1 713:0.131687 714:0.0526306 715:0.297753 716:0.0230417 717:0.617886 718:0.0447064 721:0.562092 722:0.833169 723:0.610778 724:0.903802 725:0.441989 726:0.947335 727:0.42268 728:0.0179278 729:0.14 730:0.981515 731:0.199005 732:0.98389 733:0.117155 734:0.0896728 735:0.0394089 736:0.280522 737:0.0243902 738:0.137656 739:0.0171674 740:0.960943 741:0.0761246 742:0.822564 743:0.0798479 744:0.93251 745:0.187135 746:0.0475366 747:0.142384 748:0.996289 749:0.325301 750:0.973363 751:0.305164 752:0.0349824 753:0.316092 754:0.0914885 755:0.455782 756:0.0899326 757:0.35122 758:0.0627883 
0.03125 1:0.0555556 2:0.668804 3:0.333333 4:0.554611 5:0.327586 6:0.505402 7:0.32377 8:0.505555 9:0.308 10:0.497305 11:0.289062 12:0.490186 13:0.336364 14:0.511109 15:0.278884 16:0.503095 17:0.308756 18:0.495405 19:0.363158 20:0.495416 21:0.472973 22:0.489121 23:0.376963 24:0.493639 25:0.351852 26:0.505086 27:0.317992 28:0.498575 29:0.322034 30:0.486349 31:0.379808 32:0.499052 33:0.414894 34:0.49333 35:0.437158 36:0.458783 37:0.353774 38:0.447319 41:0.408451 42:0.690278 43:0.216867 44:0.643649 45:0.0321429 46:0.695206 47:0.0711744 48:0.984078 49:0.08 50:0.0173481 51:0.0913706 52:0.0219303 53:0.0617284 54:0.957476 55:0.0582011 56:0.0201262 57:0.05 58:0.985545 59:0.0438247 60:1 61:0.054902 62:0.00887435 63:0.0604839 64:0.978777 65:0.0769231 66:0.966279 67:0.0801688 68:1 69:0.122905 70:0.0200856 71:0.0869565 72:0.99116 73:0.0987654 74:0.00853796 75:0.178344 76:0.16346 77:0.263158 78:0.280162 81:0.368715 82:0.759123 83:0.0691244 84:0.737317 85:0.0842697 86:0.160702 87:0.00722022 88:0.371364 89:0.0446927 90:0.528564 91:0.027933 92:0.662884 93:0.0155039 94:0.913826 95:0.0310345 96:0.0246454 97:0.0204778 98:0.97363 99:0.0247525 100:0.0838351 101:0.00847458 102:0.12314 103:0.0121951 104:0.69759 105:0.00938967 106:0.170164 107:0.0170213 108:0.123379 109:0.00555556 110:0.624244 111:0.0309735 112:0.562331 113:0.0136364 114:0.905735 115:0.0585366 116:0.948638 117:0.299363 118:0.242888 121:0.280156 122:0.743756 123:0.0212014 124:0.818076 125:0.0299145 126:0.0480682 127:0.0215517 128:0.747834 129:0.0143885 130:0.173942 131:0.0166667 132:0.0772089 133:0.00591716 134:0.248755 135:0.037037 136:0.550336 137:0.0364583 138:0.540115 139:0.00966184 140:0.496185 141:0.00369004 142:0.873854 143:0.00813008 144:0.925809 145:0.016 146:0.248084 147:0.0156863 148:0.537858 149:0.037037 150:0.726999 151:0.0437158 152:0.149064 153:0.040724 154:0.359899 155:0.0761905 156:0.689417 157:0.281046 158:0.237251 161:0.450331 162:0.730216 163:0.00823045 164:0.5689 165:0.0182648 166:0.614877 167:0.0247934 168:0.572374 169:0.0341463 170:0.176536 171:0.0157233 172:0.94805 173:0.106383 174:0.957087 175:0.208333 176:0.996006 177:0.188889 178:0.00962847 179:0.04 180:0.0634535 181:0.0509259 182:0.497339 183:0.0430622 184:0.95045 185:0.185714 186:1 187:0.154167 188:0.00148435 189:0.113475 190:0.990035 191:0.0366972 192:0.917177 193:0.038835 194:0.157819 195:0.0321101 196:0.748546 197:0.310345 198:0.23806 201:0.22028 202:0.742987 203:0.0167364 204:0.897203 205:0.0336538 206:0.842264 207:0.0456432 208:0.0712689 209:0.031348 210:0.172745 211:0.114894 212:0.408123 213:0.0697674 214:0.41092 215:0.0363636 216:0.850174 217:0.177515 218:0.851432 219:0.108434 220:0.90761 221:0.181818 222:0.0918835 223:0.212435 224:0.107179 225:0.0678733 226:0.978826 227:0.0901961 228:0.647282 229:0.0732984 230:0.616181 231:0.129213 232:0.950719 233:0.030303 234:0.079913 235:0.0212766 236:0.674358 237:0.199029 238:0.210563 241:0.214545 242:0.76236 243:0.0124224 244:0.738938 245:0.00896861 246:0.422592 247:0.0246914 248:1 249:0.0943396 250:0.818659 251:0.072327 252:0.36981 253:0.168675 254:0.322715 255:0.0434783 256:0.368729 257:0.0852018 258:0.697616 259:0.0873362 260:0.571525 261:0.203822 262:0.380714 263:0.0931677 264:0.386143 265:0.146919 266:0.712827 267:0.104 268:0.601621 269:0.190476 270:0.384027 271:0.143541 272:0.642858 273:0.132479 274:0.979512 275:0.025641 276:0.178571 277:0.149321 278:0.262566 281:0.255906 282:0.735872 283:0.0241546 284:0.856511 285:0.0419847 286:0.264563 287:0.132597 288:0.99342 289:0.150877 290:0.770446 291:0.0979381 292:0.0913137 293:0.36747 294:0.154045 295:0.0677083 296:0.0503699 297:0.141553 298:0.732578 299:0.0728155 300:0.651778 301:0.195402 302:0.261115 303:0.103226 304:0.324431 305:0.282051 306:0.74453 307:0.124555 308:0.887391 309:0.205 310:0.128122 311:0.112676 312:0.226163 313:0.167464 314:0.802208 315:0.112994 316:1 317:0.156951 318:0.269261 321:0.298913 322:0.743083 323:0.0528455 324:0.634767 325:0.227778 326:0.202759 327:0.105263 328:0.873565 329:0.18617 330:0.81216 331:0.238806 332:0.0961046 333:0.223958 334:0.131026 335:0.16092 336:0.94741 337:0.269939 338:0.661669 339:0.0727273 340:0.845564 341:0.201299 342:0.193058 343:0.146497 344:0.27396 345:0.142857 346:0.912539 347:0.156627 348:0.909641 349:0.0611111 350:0.0765426 351:0.179724 352:0.173604 353:0.155378 354:0.88781 355:0.122807 356:0.760911 357:0.177966 358:0.190125 361:0.25098 362:0.875119 363:0.044 364:0.113194 365:0.205761 366:0.263626 367:0.128866 368:0.731051 369:0.114894 370:0.947853 371:0.142857 372:0.0789712 373:0.204724 374:0.0895629 375:0.352601 376:0.799567 377:0.350993 378:0.97269 379:0.121622 380:0.960911 381:0.278912 382:0.0564291 383:0.426667 384:0.129673 385:0.144279 386:0.961697 387:0.222672 388:0.84579 389:0.179487 390:0.0436833 391:0.253659 392:0.174694 393:0.306818 394:0.791636 395:0.132353 396:0.70751 397:0.179592 398:0.226115 401:0.220884 402:0.757082 403:0.0378007 404:0.720188 405:0.266667 406:0.26605 407:0.101124 408:0.482572 409:0.0717489 410:0.948464 411:0.180412 412:0.286141 413:0.0343137 414:0.36999 415:0.171123 416:0.849242 417:0.276316 418:0.856628 419:0.215 421:0.255814 422:0.0783931 423:0.239362 424:0.125177 425:0.0909091 426:0.972104 427:0.181452 428:0.727036 429:0.0174419 430:0.240722 431:0.231183 432:0.164714 433:0.410526 434:0.701639 435:0.0909091 436:0.650407 437:0.197425 438:0.233257 441:0.231076 442:0.793881 443:0.0691057 444:0.674838 445:0.265537 446:0.197243 447:0.241071 448:0.369896 449:0.222798 450:0.628767 451:0.154717 452:0.167664 453:0.169312 454:0.294614 455:0.0793651 456:0.652702 457:0.124294 458:0.869022 459:0.15 460:0.969955 461:0.1133 462:0.101702 463:0.151515 464:0.13302 465:0.0992366 466:0.687426 467:0.17623 468:0.676294 469:0.119403 470:0.140018 471:0.0924855 472:0.92478 473:0.358852 474:0.645521 475:0.0392157 476:0.493513 477:0.14 478:0.228796 481:0.325243 482:0.740444 483:0.034188 484:0.0469 485:0.00706714 486:0.747492 487:0.271186 488:0.286984 489:0.201835 490:0.447943 491:0.0384615 492:0.331923 493:0.144279 494:0.21142 495:0.056872 496:0.366378 497:0.0433071 498:0.748353 499:0.0688073 500:0.935068 501:0.140845 502:0.108497 503:0.0280899 504:0.606083 505:0.154167 506:0.675033 507:0.0653061 508:0.930308 509:0.125654 510:0.178506 511:0.443925 512:0.625684 513:0.132231 514:0.628966 515:0.0393443 516:0.171133 517:0.146552 518:0.226543 521:0.223048 522:0.745519 523:0.0146341 524:0.747773 525:0.078341 526:0.677071 527:0.0967742 528:0.100934 529:0.212245 530:0.273774 531:0.305699 532:0.437043 533:0.157895 534:0.436237 535:0.084 536:0.317306 537:0.00409836 538:0.322262 539:0.0404624 540:0.916547 541:0.0333333 542:0.874057 543:0.0974576 544:0.882883 545:0.120603 546:0.996062 547:0.106996 548:0.559249 549:0.364055 550:0.606898 551:0.127049 552:0.630132 553:0.00675676 554:0.0468505 555:0.0406504 556:0.157132 557:0.100694 558:0.259869 561:0.26087 562:0.749211 563:0.0294118 564:0.712652 565:0.0534759 566:0.177574 567:0.106145 568:0.613891 569:0.0473373 570:0.076114 571:0.174274 572:0.260845 573:0.217857 574:0.387808 575:0.227425 576:0.425297 577:0.100279 578:0.452673 579:0.0140845 580:0.788054 581:0.097561 583:0.150259 584:0.546174 585:0.419643 586:0.591209 587:0.288538 588:0.610168 589:0.0755396 590:0.589235 591:0.0168067 592:1 593:0.0207612 594:0.0867652 595:0.0121951 596:0.44414 597:0.211111 598:0.27861 601:0.376471 602:0.746605 603:0.0285714 604:0.851542 605:0.0425532 606:0.689271 607:0.0652174 608:0.144299 609:0.0650888 610:0.631561 611:0.00990099 612:1 613:0.130682 614:0.170826 615:0.214545 616:0.302593 617:0.343629 618:0.411269 619:0.479532 620:0.45669 621:0.544444 622:0.58183 623:0.444444 624:0.601961 625:0.209877 626:0.593904 627:0.0284698 628:0.682124 629:0.0735931 630:0.0939109 631:0.0184502 632:0.49268 633:0.0185185 634:0.80707 635:0.0215054 636:0.674482 637:0.328947 638:0.213399 641:0.47541 642:0.790198 643:0.0687831 644:0.865671 645:0.00930233 646:0.322287 647:0.0227273 648:0.716741 649:0.0240385 650:0.0258808 651:0.0494505 652:0.24547 653:0.0611111 654:0.659769 656:0.322427 657:0.183333 658:0.26715 659:0.242991 660:0.459114 661:0.286275 662:0.585112 663:0.144681 664:0.649486 665:0.0663717 666:0.0929636 667:0.0381356 668:0.189914 669:0.040678 670:0.626969 671:0.0238095 672:0.245554 673:0.0447761 674:0.623624 675:0.0292683 676:0.318685 677:0.22449 678:0.22861 681:0.516393 682:0.750489 683:0.0987654 684:0.846482 685:0.0709677 686:0.0184511 687:0.0217391 688:0.0271026 689:0.039823 690:0.932646 691:0.0603015 692:0.0312872 693:0.0465116 694:0.927694 695:0.0332326 696:0.971053 697:0.0640394 698:0.975626 699:0.0521327 700:0.0133754 701:0.0452962 702:0.0595068 703:0.0607477 704:0.0288646 705:0.0230263 706:1 707:0.00809717 708:0.747963 709:0.0142857 710:0.948243 711:0.04329 712:0.983709 713:0.0411523 714:0.953223 715:0.106742 716:0.0801289 717:0.325203 718:0.15518 721:0.372549 722:0.82269 723:0.341317 724:0.934222 725:0.320442 726:0.986261 727:0.453608 728:0.00403076 729:0.18 730:0.99639 731:0.253731 732:1 733:0.213389 734:0.990577 735:0.251232 736:1 737:0.24878 738:0.987398 739:0.253219 740:0.00368757 741:0.193772 742:0.0101415 743:0.174905 744:0.993065 745:0.274854 746:0.976301 747:0.18543 749:0.325301 750:0.00443707 751:0.206573 752:0.996319 753:0.287356 755:0.346939 756:0.0385797 757:0.292683 758:0.0760556 
0.03125 1:0.159722 2:0.582396 3:0.0503145 4:0.697334 5:0.00862069 6:0.61951 7:0.0368852 8:0.408107 9:0.104 10:0.614565 11:0.0234375 12:1 13:0.0136364 14:0.370231 15:0.0278884 16:0.62395 17:0.0322581 18:0.224003 19:0.0631579 20:0.632694 21:0.0608108 22:0.382307 23:0.0104712 24:0.674962 25:0.0231481 26:0.308893 27:0.0292887 28:0.498575 29:0.0127119 30:0.447596 31:0.0240385 32:0.210743 33:0.0691489 34:0.334113 35:0.0327869 36:0.422807 37:0.00943396 38:0.674163 41:0.0352113 42:0.112929 43:0.0481928 44:0.608759 45:0.0428571 46:0.611072 47:0.0320285 48:0.635871 49:0.0366667 50:0.373442 51:0.0659898 52:0.607937 53:0.0493827 54:0.498246 55:0.026455 56:0.463934 57:0.0454545 58:0.530578 59:0.0318725 60:0.675832 61:0.0470588 62:0.209036 63:0.0241935 64:0.571234 65:0.0494505 66:0.498143 67:0.0253165 68:0.391473 69:0.027933 70:0.335002 71:0.0724638 72:0.531042 73:0.0987654 74:0.367193 75:0.10828 76:0.414872 77:0.0526316 78:0.504506 81:0.111732 82:0.562333 83:0.0737327 84:0.579279 85:0.0393258 86:0.5955 87:0.0469314 88:0.614401 89:0.0893855 90:0.0327272 91:0.156425 92:0.960882 93:0.155039 94:0.0136097 95:0.0689655 96:0.971259 97:0.0580205 98:0.0336416 99:0.0049505 100:0.624107 101:0.0169492 102:0.373671 103:0.0447154 104:0.913646 105:0.187793 106:0.00864141 107:0.259574 108:0.0137797 109:0.3 110:0.979442 111:0.146018 113:0.0636364 114:0.0869831 115:0.0536585 116:0.303417 117:0.0764331 118:0.429292 121:0.0389105 122:0.956942 123:0.00706714 124:0.559968 125:0.0299145 126:0.763398 127:0.206897 128:0.0524146 129:0.269784 130:0.0312323 131:0.377778 132:0.00410879 133:0.195266 134:0.964375 135:0.25463 136:0.974589 137:0.276042 138:0.95776 139:0.135266 140:0.982884 141:0.0885609 142:0.107541 143:0.166667 144:0.0929352 145:0.204 146:0.0783606 147:0.145098 148:0.995689 149:0.280423 150:0.911279 151:0.344262 152:0.948658 153:0.149321 154:0.961977 155:0.052381 156:0.0529295 157:0.0849673 158:0.345483 161:0.13245 162:0.625 163:0.0246914 164:0.442465 165:0.187215 166:0.140092 167:0.305785 168:0.10542 169:0.136585 170:0.0585035 171:0.00314465 172:0.23913 173:0.12234 174:0.727577 175:0.203125 176:0.946004 177:0.394444 178:0.910938 179:0.417143 180:0.97154 181:0.356481 182:0.0570411 183:0.267943 184:0.102052 185:0.109524 186:0.126257 187:0.0291667 188:0.289231 189:0.0992908 190:0.828088 191:0.238532 192:0.824718 193:0.237864 194:0.894446 195:0.142202 196:0.921271 197:0.0574713 198:0.110778 201:0.0244755 202:0.645033 203:0.121339 204:0.220833 205:0.355769 206:0.200185 207:0.0580913 208:0.275013 209:0.0407524 210:0.771627 211:0.13617 212:0.994961 213:0.0523256 214:0.14707 215:0.0772727 216:0.386292 217:0.159763 218:0.724768 219:0.0803213 220:0.879948 221:0.106061 222:0.0353955 223:0.0725389 224:0.0737947 225:0.0542986 226:0.986719 227:0.0666667 228:0.189105 229:0.0418848 230:0.415477 231:0.207865 232:0.659349 233:0.284848 234:0.830241 235:0.244681 236:0.864597 237:0.116505 238:0.93968 241:0.0109091 242:0.289944 243:0.273292 244:0.194782 245:0.264574 246:0.148121 247:0.0555556 248:0.245683 249:0.0754717 250:0.317214 251:0.0754717 252:0.697336 253:0.0321285 254:0.750276 255:0.136646 256:0.164909 257:0.147982 258:0.53052 259:0.0786026 260:0.578261 261:0.0382166 262:0.926066 263:0.142857 264:0.0269623 265:0.123223 266:0.957876 267:0.044 268:0.0375391 269:0.047619 270:0.782499 271:0.062201 272:0.148535 273:0.141026 274:0.725197 275:0.220513 276:0.779926 277:0.126697 278:0.813229 281:0.0393701 282:0.228561 283:0.347826 284:0.256334 285:0.0496183 286:0.208105 287:0.0883978 288:0.0885381 289:0.0596491 290:0.32826 291:0.0824742 292:0.667964 293:0.0542169 294:0.0254534 295:0.166667 296:0.890749 297:0.086758 298:0.0364453 299:0.126214 300:0.090418 301:0.126437 302:0.0845344 303:0.0516129 304:0.184819 305:0.134615 306:0.719249 307:0.0213523 308:0.722943 309:0.08 310:0.529463 311:0.00938967 312:0.540839 313:0.0956938 314:0.688624 315:0.282486 316:0.847323 317:0.170404 318:0.810154 321:0.0163043 322:0.312892 323:0.325203 324:0.225301 325:0.166667 326:0.341301 327:0.0714286 328:0.579859 329:0.0851064 330:0.230507 331:0.0696517 332:0.460279 333:0.09375 334:0.310743 335:0.166667 336:0.726402 337:0.165644 338:0.0538398 339:0.115152 340:0.397762 341:0.155844 342:0.50187 343:0.0509554 344:0.037959 345:0.132653 346:0.62633 347:0.104418 348:0.842125 349:0.177778 350:0.0444719 351:0.0691244 352:0.951643 353:0.0717131 354:0.175943 355:0.25 356:0.701744 357:0.237288 358:0.698622 361:0.0470588 362:0.287682 363:0.228 364:0.263944 365:0.201646 366:0.39861 367:0.108247 368:0.43539 369:0.00425532 370:0.415685 371:0.0714286 372:0.0705085 373:0.0787402 374:0.200721 375:0.17341 376:0.493815 377:0.284768 378:0.617429 379:0.0045045 380:0.122767 381:0.217687 382:0.227262 383:0.186667 384:0.673476 385:0.134328 386:0.390251 387:0.101215 388:0.531984 389:0.14359 390:0.512295 391:0.102439 392:0.611151 393:0.0568182 394:0.61021 395:0.308824 396:0.642169 397:0.204082 398:0.640677 401:0.0281124 402:0.152174 403:0.0790378 404:0.281017 405:0.219048 406:0.281344 407:0.179775 408:0.176981 409:0.121076 410:0.386206 411:0.0824742 412:0.497242 413:0.0833333 414:0.65838 416:0.495992 417:0.0197368 418:0.425453 419:0.01 420:0.402094 421:0.19186 422:0.408385 423:0.420213 424:0.562709 425:0.245989 426:0.456645 427:0.157258 428:0.532118 429:0.145349 430:0.441974 431:0.145161 432:0.525236 433:0.226316 434:0.667323 435:0.205534 436:0.690713 437:0.055794 438:0.668119 441:0.0119522 442:0.688244 443:0.0650407 444:0.209662 445:0.39548 446:0.245261 447:0.111607 448:0.549034 449:0.15544 450:0.346732 451:0.0264151 452:0.30153 453:0.10582 454:0.540093 455:0.123016 456:0.5146 457:0.231638 458:0.484094 459:0.4 460:0.568733 461:0.128079 462:0.742775 463:0.227273 464:0.980291 465:0.236641 466:0.0328708 467:0.196721 469:0.174129 471:0.0520231 472:0.522337 473:0.181818 474:0.748537 475:0.113725 476:0.684385 477:0.02 478:0.598317 481:0.00485437 482:0.357128 483:0.0512821 484:0.229874 485:0.169611 486:0.287211 487:0.310734 488:0.506735 489:0.192661 490:0.308765 491:0.0730769 492:0.578126 493:0.104478 494:0.647246 495:0.056872 496:0.758056 497:0.15748 498:0.976721 499:0.33945 500:0.0494018 501:0.232394 502:0.0862544 503:0.123596 504:0.0586824 505:0.179167 506:0.0144446 507:0.0489796 508:0.931904 509:0.235602 510:0.684516 511:0.196262 512:0.0151411 513:0.280992 514:0.871459 515:0.111475 516:0.893381 517:0.0215517 518:0.0489381 521:0.0260223 522:0.0773346 523:0.0097561 524:0.747773 525:0.0368664 526:0.212423 527:0.145161 528:0.29788 529:0.2 530:0.34669 531:0.362694 532:0.508237 533:0.140351 534:0.51645 535:0.152 536:0.0968169 537:0.0983607 538:0.182882 539:0.0809249 540:0.7688 541:0.052381 542:0.181038 543:0.131356 544:0.295434 545:0.301508 546:0.57674 547:0.242798 548:0.583733 549:0.165899 550:0.417808 551:0.204918 552:0.453917 553:0.391892 554:0.591134 555:0.264228 556:0.608993 557:0.03125 558:0.621658 561:0.0217391 562:0.549617 563:0.00294118 564:0.872365 565:0.0106952 566:0.61951 567:0.0837989 568:0.239726 569:0.0591716 570:0.523917 571:0.141079 572:0.298313 573:0.25 574:0.334968 575:0.29097 576:0.484859 577:0.147632 578:0.451071 579:0.0892019 580:0.596041 581:0.0447154 582:0.539583 583:0.284974 584:0.53518 585:0.330357 586:0.548632 587:0.256917 588:0.541259 589:0.172662 590:0.48379 591:0.247899 592:0.57394 593:0.121107 594:0.622846 595:0.00813008 596:0.570195 597:0.0388889 598:0.151223 601:0.0352941 602:0.0967107 603:0.0228571 604:0.709298 606:0.494091 607:0.0163043 608:0.294196 609:0.0177515 610:0.57054 611:0.0346535 612:0.268389 613:0.0511364 614:0.360252 615:0.156364 616:0.297354 617:0.274131 618:0.376371 619:0.415205 620:0.511759 621:0.383333 622:0.612887 623:0.212963 624:0.607428 625:0.119342 626:0.584637 627:0.0177936 628:0.549346 629:0.012987 630:0.800149 631:0.0110701 632:0.49268 633:0.0277778 634:0.615833 635:0.0268817 636:0.246001 637:0.0394737 638:0.671468 641:0.0163934 642:0.745023 643:0.015873 644:0.748201 645:0.00465116 646:0.874721 648:0.496726 649:0.00480769 650:0.245713 651:0.00549451 652:0.119716 653:0.00555556 654:0.114007 655:0.0135747 656:0.217007 657:0.129167 658:0.233749 659:0.102804 660:0.424972 661:0.14902 662:0.626751 663:0.0893617 664:0.70419 665:0.0353982 666:0.0729627 667:0.0211864 668:0.24169 669:0.0305085 670:0.629894 671:0.00793651 672:0.674289 673:0.00497512 674:0.247246 675:0.0097561 676:0.168516 677:0.0136054 678:0.122508 681:0.0245902 682:0.904674 683:0.0123457 684:0.905977 685:0.0129032 686:0.821946 687:0.00543478 688:1 689:0.00884956 690:0.166399 691:0.00502513 692:0.36999 693:0.00465116 694:0.377541 695:0.021148 696:0.264381 697:0.0394089 698:0.304842 699:0.0805687 700:0.471636 701:0.0766551 702:0.549616 703:0.0560748 704:0.608126 705:0.00986842 706:0.79875 707:0.00809717 708:0.570318 709:0.0142857 710:0.589232 711:0.004329 712:0.614877 713:0.0123457 714:0.0859339 715:0.0224719 716:0.0862815 717:0.0243902 718:0.0603719 721:0.0261438 722:0.92522 723:0.0299401 724:0.851024 725:0.0165746 726:0.906052 727:0.0206186 728:1 730:0.489643 731:0.00497512 732:0.365254 733:0.0083682 734:0.421722 735:0.0246305 736:0.328103 737:0.0439024 738:0.608272 739:0.00429185 740:0.624357 741:0.017301 742:0.244777 743:0.0190114 744:0.437843 745:0.0467836 746:0.622331 747:0.00662252 748:0.675286 750:0.493295 751:0.0140845 752:0.236555 753:0.0114943 754:0.173579 755:0.0204082 756:0.148714 757:0.0097561 758:0.0934503 
0.03125 1:0.0277778 2:0.668804 3:0.0440252 4:0.172218 5:0.12931 6:0.0458085 7:0.344262 8:0.082672 9:0.24 10:0.981416 11:0.199219 12:0.916416 13:0.154545 14:0.867636 15:0.171315 16:1 17:0.0460829 18:0.984067 19:0.0105263 20:0.748867 21:0.0135135 22:0.318372 23:0.0157068 24:0.0900946 25:0.296296 26:0.02231 27:0.439331 28:0.0461221 29:0.305085 30:0.0310388 31:0.278846 32:0.943935 33:0.393617 34:0.938082 35:0.371585 36:0.978933 37:0.0896226 38:0.0269134 41:0.0140845 42:0.164844 43:0.216867 44:0.0839429 45:0.346429 46:0.0850893 47:0.145907 48:0.135256 49:0.0866667 50:0.653898 51:0.248731 52:0.687903 53:0.0740741 54:0.92595 55:0.179894 56:0.73838 57:0.159091 58:0.950111 59:0.0239044 60:0.926124 61:0.0431373 62:0.083724 63:0.318548 64:0.141256 65:0.368132 66:0.118423 67:0.0126582 68:0.405303 69:0.0167598 70:0.550527 71:0.270531 72:0.516601 73:0.358025 74:0.581699 75:0.369427 76:0.768992 77:0.27193 78:0.936438 81:0.24581 82:0.216548 83:0.359447 84:0.158684 85:0.157303 86:0.00303054 87:0.0433213 88:0.640533 89:0.212291 90:0.60847 91:0.24581 92:0.557766 93:0.0775194 94:0.69584 95:0.037931 96:0.0202987 97:0.136519 98:0.712973 99:0.029703 100:0.0239668 101:0.190678 102:0.209332 103:0.333333 104:0.137978 105:0.15493 106:0.520439 107:0.0553191 108:0.474734 109:0.372222 110:0.85117 111:0.336283 112:0.997897 113:0.136364 114:0.212894 115:0.2 116:0.529256 117:0.458599 118:0.75764 121:0.303502 122:0.20919 123:0.212014 124:0.172804 125:0.269231 126:0.580182 127:0.262931 128:0.584225 129:0.158273 130:0.657479 131:0.138889 132:0.104237 134:1 135:0.125 136:0.624271 137:0.125 138:0.747709 139:0.236715 140:0.011909 141:0.335793 142:0.180387 143:0.154472 144:0.590221 145:0.204 146:0.0448463 147:0.305882 148:0.121416 149:0.126984 150:0.865443 151:0.448087 152:0.834587 153:0.352941 154:0.965261 155:0.180952 156:0.206024 157:0.333333 158:0.651376 161:0.569536 162:0.185353 163:0.106996 164:0.599073 165:0.200913 166:0.617392 167:0.0495868 168:0.549716 169:0.0780488 170:0.41092 171:0.0125786 172:0.938564 173:0.218085 174:0.918629 175:0.213542 176:1 177:0.172222 178:0.14278 179:0.211429 180:0.966074 181:0.231481 182:0.0476946 183:0.325359 184:0.165566 185:0.171429 186:0.394238 187:0.0958333 188:0.38505 189:0.070922 190:0.13294 191:0.165138 192:0.718757 193:0.427184 194:0.800645 195:0.252294 196:0.994183 197:0.114943 198:0.223134 201:0.125874 202:0.159489 203:0.108787 204:0.731395 205:0.0625 206:0.7958 207:0.0373444 208:0.589962 209:0.0815047 210:0.21758 211:0.225532 212:0.0873365 213:0.136628 214:0.937512 215:0.136364 216:0.873212 217:0.337278 218:0.12904 219:0.100402 220:0.00826057 221:0.20202 222:0.0140176 223:0.212435 224:1 225:0.149321 226:0.213823 227:0.239216 228:0.3849 229:0.0942408 230:0.549746 231:0.0280899 232:0.497421 233:0.351515 234:0.753856 235:0.287234 236:0.775005 237:0.237864 238:0.204694 241:0.116364 242:0.0500104 243:0.416149 244:0.95039 245:0.300448 246:0.936404 247:0.188272 248:0.014464 249:0.339623 250:0.163326 251:0.100629 252:0.214894 253:0.2249 254:0.62492 255:0.10559 256:0.956446 257:0.255605 258:0.0700996 259:0.113537 260:0.109233 261:0.0382166 262:0.356139 263:0.229814 264:0.797578 265:0.104265 266:0.799936 267:0.276 268:0.23004 269:0.248677 270:0.470863 271:0.0334928 272:0.262829 273:0.286325 274:0.635552 275:0.34359 276:0.638564 277:0.289593 278:0.215632 281:0.188976 282:0.237863 283:0.144928 284:0.870674 285:0.209924 286:0.92772 287:0.276243 288:0.933782 289:0.150877 290:0.151273 291:0.293814 292:0.535276 293:0.13253 294:0.124465 295:0.234375 296:0.0779557 298:0.228393 299:0.0679612 300:0.576367 301:0.316092 302:0.435137 303:0.43871 304:0.585201 305:0.128205 306:0.76332 307:0.160142 308:0.050769 309:0.28 310:0.312343 311:0.211268 312:0.631098 313:0.311005 314:0.864185 315:0.101695 316:0.0133676 317:0.286996 318:0.159436 321:0.456522 322:0.341978 323:0.0284553 324:0.153243 325:0.166667 326:0.753906 327:0.157895 328:0.781113 329:0.271277 330:0.840284 331:0.348259 332:0.144198 333:0.208333 334:0.284618 335:0.0804598 336:0.839362 337:0.0674847 338:0.773928 339:0.284848 340:0.716889 341:0.181818 342:0.423383 343:0.140127 344:0.260294 345:0.153061 346:0.106509 347:0.208835 348:0.733743 349:0.288889 350:0.173123 351:0.18894 352:0.177 353:0.298805 354:0.727055 355:0.118421 356:0.0695235 357:0.233051 358:0.114443 361:0.494118 362:0.302305 363:0.156 364:0.481959 365:0.090535 366:0.705836 367:0.123711 368:0.822911 369:0.131915 370:0.730265 371:0.0674603 372:0.0675567 373:0.216535 374:0.216991 375:0.115607 376:0.658524 377:0.225166 378:0.882405 379:0.324324 380:0.82626 381:0.55102 382:0.0634917 383:0.466667 384:0.10651 385:0.079602 386:0.907604 387:0.105263 388:0.798793 389:0.25641 390:0.152651 391:0.17561 392:0.446907 393:0.238636 394:0.702905 395:0.0735294 396:0.163574 397:0.2 398:0.973925 401:0.457831 402:0.269783 403:0.32646 404:0.430513 405:0.0809524 406:0.539267 407:0.230337 408:0.825251 409:0.152466 410:0.937436 411:0.0824742 412:0.46026 413:0.166667 414:0.21232 415:0.101604 416:0.269113 417:0.118421 418:0.642141 419:0.165 420:0.854154 421:0.296512 422:0.0553331 423:0.0638298 424:0.0722805 425:0.101604 426:0.874566 427:0.0645161 428:0.893099 429:0.209302 430:0.562555 431:0.263441 432:0.370637 433:0.163158 434:0.638678 435:0.256917 436:0.165024 437:0.575107 438:0.670507 441:0.167331 442:0.262963 443:0.46748 444:0.300477 445:0.536723 446:0.448289 447:0.107143 448:0.636858 449:0.341969 450:0.790852 451:0.215094 452:0.0639448 453:0.174603 454:0.356042 455:0.103175 456:0.435525 457:0.124294 458:0.354872 459:0.157143 460:0.505773 461:0.0689655 462:0.769903 463:0.0505051 464:0.17586 465:0.0916031 466:0.588134 467:0.245902 468:0.698659 469:0.0895522 470:0.681107 471:0.300578 472:0.169778 473:0.148325 474:0.255923 475:0.262745 476:0.599665 477:0.45 478:0.620598 481:0.00970874 482:0.485703 483:0.252137 484:0.200663 485:0.409894 486:0.321877 487:0.711864 488:0.479096 489:0.220183 490:0.61168 491:0.2 492:0.84429 493:0.169154 494:0.0914955 495:0.0900474 496:0.284556 497:0.0433071 498:0.313403 499:0.114679 500:0.178506 501:0.084507 502:0.748333 503:0.0955056 504:0.655274 505:0.1125 506:0.554844 507:0.2 508:0.723443 509:0.109948 510:0.0667233 511:0.135514 512:0.159398 513:0.206612 514:0.552946 515:0.409836 516:0.606335 517:0.142241 518:0.650846 521:0.0483271 522:0.211824 523:0.0682927 524:0.574858 525:0.156682 526:0.223105 527:0.435484 528:0.310828 529:0.510204 530:0.452547 531:0.404145 532:0.593938 533:0.157895 534:0.939095 535:0.144 536:0.0836254 537:0.110656 538:0.184458 539:0.16763 540:0.425109 541:0.214286 542:0.578209 543:0.186441 544:0.620239 545:0.120603 546:0.442462 547:0.0823045 548:0.743018 549:0.0184332 550:0.383719 551:0.32377 552:0.567286 553:0.358108 554:0.60319 555:0.0325203 556:0.576514 557:0.0347222 558:0.589962 561:0.00869565 562:0.615663 563:0.0235294 564:0.175887 565:0.0374332 566:0.558064 567:0.0949721 568:0.285878 569:0.532544 570:0.274091 571:0.473029 572:0.414635 573:0.346429 574:0.526757 575:0.0401338 576:0.0252184 577:0.0362117 578:0.83111 579:0.0469484 580:0.49778 581:0.166667 582:0.54202 583:0.212435 584:0.594127 585:0.160714 586:0.17323 587:0.118577 588:0.644296 589:0.345324 590:0.603532 591:0.247899 592:0.614184 593:0.0103806 594:0.18028 595:0.0284553 596:0.636386 597:0.0888889 598:0.175464 601:0.0294118 602:0.0915834 603:0.0114286 604:0.622778 605:0.00531915 606:0.873522 607:0.0380435 608:0.147951 609:0.035503 610:0.355692 611:0.29703 612:0.266894 613:0.579545 614:0.324227 615:0.421818 616:0.504437 617:0.11583 618:0.74565 619:0.304094 620:0.906511 621:0.233333 622:0.967797 623:0.231481 624:0.081052 625:0.0123457 626:0.748863 627:0.437722 628:0.608955 629:0.203463 630:0.625389 631:0.0147601 632:0.199458 633:0.0231481 634:0.610597 635:0.0322581 636:0.272425 637:0.0526316 638:0.576514 641:0.0245902 642:0.745023 643:0.00529101 644:0.118701 645:0.00930233 646:0.24833 647:0.0136364 648:0.69682 649:0.0144231 650:0.297214 651:0.104396 652:0.278694 653:0.15 654:0.346599 655:0.515837 656:0.28589 657:0.4 658:0.4761 659:0.140187 660:0.792393 661:0.054902 662:0.858706 663:0.0680851 664:0.657311 665:0.579646 666:0.633134 667:0.0847458 668:0.654814 669:0.00677966 670:1 671:0.00396825 672:0.874259 674:0.498165 676:0.497981 678:0.498575 681:0.0163934 682:0.670179 684:0.497649 685:0.00645161 686:0.242145 687:0.0163043 688:0.695067 689:0.00442478 690:1 691:0.0301508 692:0.243988 693:0.0604651 694:0.314704 695:0.141994 696:0.296526 697:0.630542 698:0.314336 699:0.49763 700:0.54215 701:0.101045 702:0.727221 703:0.584112 704:0.622243 705:0.121711 706:0.611251 707:0.0283401 708:0.590271 709:0.0142857 710:0.546402 711:0.017316 712:0.924217 714:0.495781 716:0.477875 718:0.48168 721:0.00653595 722:0.873323 723:0.00598802 724:1 726:0.498052 727:0.0206186 728:0.566152 729:0.004 730:0.87241 731:0.0248756 732:0.0163124 733:0.0167364 734:0.0314768 735:0.044335 736:0.241068 737:0.326829 738:0.26512 739:0.369099 740:0.347599 741:0.49827 742:0.637345 743:0.155894 744:0.645809 745:0.0175439 746:0.799794 747:0.00331126 748:0.623932 749:0.0421687 750:0.127889 751:0.0328638 752:0.650258 754:0.498404 756:0.495435 758:0.481971 
0.03125 1:0.0208333 2:1 3:0.0503145 4:0.965029 5:0.0646552 6:0.746341 7:0.0532787 8:0.145609 9:0.048 10:0.613577 11:0.0390625 12:1 13:0.104545 14:0.0756238 15:0.0478088 16:0.130943 17:0.0875576 18:0.782065 19:0.173684 20:0.956168 21:0.317568 22:0.00898733 23:0.256545 24:0.993483 25:0.0833333 26:0.023931 27:0.0794979 28:0.0221457 29:0.0466102 30:0.971314 31:0.110577 32:0.993015 33:0.0691489 34:0.0152977 35:0.0437158 36:0.822747 37:0.0801887 38:0.767178 41:0.056338 42:0.112929 43:0.0562249 44:0.625987 45:0.0285714 46:0.647132 47:0.0213523 48:0.775453 49:0.0366667 50:0.233665 51:0.0659898 52:0.138224 53:0.141975 54:0.498246 55:0.0687831 56:0.432243 57:0.104545 58:0.0601232 59:0.063745 60:0.0594658 61:0.027451 62:0.203719 63:0.133065 64:0.763016 65:0.368132 66:0.00581157 67:0.0675105 68:0.951705 69:0.100559 70:0.405516 71:0.144928 72:0.559225 73:0.0432099 74:0.794004 75:0.0636943 76:0.746908 77:0.0394737 78:0.860321 81:0.122905 82:0.565804 83:0.0276498 84:0.696378 85:0.106742 86:0.991985 87:0.180505 88:0.980882 89:0.307263 90:0.0421094 91:0.122905 92:0.777896 93:0.0736434 94:0.0961143 95:0.137931 96:0.184713 97:0.0409556 98:0.0231127 99:0.0693069 100:0.57761 101:0.0508475 102:0.383042 103:0.170732 104:0.36718 105:0.239437 106:0.812667 107:0.217021 108:0.876952 109:0.0944444 110:0.972144 111:0.10177 112:0.14481 113:0.0454545 114:0.829474 115:0.097561 116:0.96849 117:0.121019 118:0.0201015 121:0.0311284 122:0.255806 123:0.0989399 124:0.0674374 125:0.235043 126:0.061128 127:0.0258621 128:0.570097 129:0.244604 130:0.928078 131:0.183333 132:0.958419 133:0.0473373 134:0.387217 135:0.157407 136:0.225915 137:0.177083 138:0.883675 139:0.0724638 140:0.968345 141:0.107011 142:0.562589 143:0.325203 144:0.228006 145:0.26 146:0.574889 147:0.313725 148:0.621281 149:0.0899471 150:0.556422 151:0.0546448 152:0.294546 153:0.0452489 154:0.0894836 155:0.0857143 156:0.542509 157:0.143791 158:0.62235 161:0.218543 162:0.291511 163:0.185185 164:0.171533 165:0.109589 166:0.762773 167:0.268595 168:0.225535 169:0.570732 170:0.57766 171:0.245283 172:0.618137 173:0.170213 174:0.330009 175:0.364583 176:0.349764 177:0.35 178:0.58761 179:0.308571 180:0.843419 181:0.231481 182:0.0693357 183:0.062201 184:0.305112 185:0.295238 186:0.577751 187:0.1125 188:0.581063 189:0.0496454 190:0.225045 191:0.114679 192:0.327853 193:0.165049 194:0.600677 195:0.0137615 196:0.69704 197:0.103448 198:0.203629 201:0.237762 202:0.166664 203:0.121339 204:0.342611 205:0.0913462 206:0.764722 207:0.273859 208:0.616589 209:0.0909091 210:0.567368 211:0.110638 212:0.606923 213:0.0203488 214:0.115306 215:0.2 216:0.261384 217:0.426036 218:0.373971 219:0.228916 220:0.589426 221:0.212121 222:0.898903 223:0.227979 224:0.658549 225:0.0542986 226:0.484861 227:0.054902 228:0.356124 229:0.204188 230:0.522745 231:0.0449438 232:0.163081 233:0.0727273 234:0.428311 235:0.0265957 236:0.410641 237:0.0242718 238:1 241:0.0654545 242:0.309043 243:0.285714 244:0.28456 245:0.394619 246:0.643189 247:0.0925926 248:0.640555 249:0.0283019 250:0.606783 251:0.0251572 252:0.22942 253:0.060241 254:0.557263 255:0.0310559 256:0.546705 257:0.242152 258:0.251295 259:0.283843 260:0.360859 261:0.66242 262:0.648121 263:0.223602 264:0.619085 265:0.0379147 266:0.0767491 267:0.08 268:0.692274 269:0.206349 270:0.18378 271:0.105263 272:0.552001 273:0.0512821 274:0.167891 275:0.0666667 276:0.22756 277:0.0226244 278:0.373417 281:0.0433071 282:0.0793554 283:0.0386473 284:0.193859 285:0.148855 286:0.661475 287:0.0552486 288:0.726541 289:0.00350877 290:0.371925 291:0.0360825 292:0.689102 293:0.0301205 294:0.422676 295:0.0104167 296:0.549121 297:0.0776256 298:0.201353 299:0.169903 300:0.336334 301:0.33908 302:0.645449 303:0.0580645 304:0.189726 305:0.0576923 306:0.732109 307:0.00711744 308:0.173902 309:0.005 310:0.0831793 311:0.084507 312:0.249749 313:0.0287081 314:0.289346 315:0.0508475 316:0.336048 317:0.0179372 318:0.232671 321:0.0108696 322:0.543974 323:0.0569106 324:0.756531 325:0.116667 326:0.869125 327:0.0451128 328:0.760515 329:0.00531915 330:0.427006 331:0.0547264 332:0.718177 333:0.03125 334:0.197132 335:0.0287356 336:0.19749 337:0.0184049 338:0.821936 339:0.0909091 340:0.252676 341:0.136364 342:0.58592 343:0.0636943 344:0.403282 345:0.0357143 346:0.718092 347:0.0160643 348:0.138405 349:0.0166667 350:0.695672 351:0.0875576 352:0.184001 353:0.0318725 354:0.434744 355:0.0614035 356:0.169868 357:0.0762712 358:0.686184 361:0.0509804 362:0.520342 363:0.036 364:0.514535 365:0.123457 366:0.753387 367:0.0670103 368:0.727549 370:0.108954 371:0.0277778 372:0.699766 373:0.019685 374:0.13723 375:0.0289017 376:0.240722 377:0.0596026 378:0.629894 379:0.036036 380:0.948661 381:0.00680272 382:0.745789 383:0.0733333 384:0.204351 385:0.0248756 386:0.596008 388:0.489225 389:0.0358974 390:0.329437 391:0.0195122 392:0.369726 393:0.102273 394:0.183471 395:0.00980392 396:1 397:0.0204082 398:0.153648 401:0.0401606 402:0.0884528 403:0.0446735 404:0.146302 405:0.157143 406:0.747891 407:0.0955056 408:0.904428 409:0.0358744 410:0.968383 412:0.87431 414:0.243988 415:0.0160428 416:0.495992 417:0.0460526 418:0.229195 419:0.055 420:0.774655 421:0.0523256 422:0.0228635 423:0.0478723 424:0.0626032 425:0.0160428 426:0.498265 427:0.0403226 428:0.538451 429:0.0406977 430:0.285563 431:0.0591398 432:0.184428 433:0.1 434:0.121325 435:0.00395257 436:0.11916 437:0.103004 438:0.987216 441:0.0438247 442:0.0669978 443:0.0487805 444:0.0205595 445:0.112994 446:0.739241 447:0.102679 448:0.888893 449:0.0829016 450:0.887076 451:0.0226415 452:0.947827 453:0.042328 454:0.960469 455:0.0396825 456:0.0452978 457:0.0677966 458:0.108758 459:0.0928571 460:0.557133 461:0.0295567 462:0.452869 463:0.0353535 464:0.704234 465:0.0267176 466:0.746648 467:0.0245902 468:0.310138 469:0.0597015 470:0.156937 471:0.138728 472:0.14888 473:0.0239234 474:0.465472 475:0.0941176 476:0.246984 477:0.103333 478:0.775355 481:0.0533981 482:0.366747 483:0.0470085 484:0.730146 485:0.0106007 486:0.55615 487:0.112994 488:0.733089 489:0.0733945 490:0.800112 491:0.0307692 492:1 494:0.116979 495:0.00473934 496:0.144778 497:0.0511811 498:0.72562 499:0.0137615 500:0.444586 501:0.0422535 502:0.289584 503:0.0449438 504:0.587536 505:0.0458333 506:0.817239 507:0.110204 508:0.0974637 509:0.115183 510:0.148047 511:0.0280374 512:0.0941207 513:0.0371901 514:0.0604557 515:0.104918 516:0.189613 517:0.133621 518:0.642198 521:0.063197 522:0.344448 523:0.0682927 524:0.668458 525:0.0322581 527:0.0483871 528:0.736099 529:0.0938776 530:0.888893 531:0.160622 532:0.960775 533:0.0350877 534:0.029287 535:0.016 536:0.522517 537:0.057377 538:0.698111 539:0.0346821 540:0.0347032 541:0.0285714 542:0.0124003 543:0.0423729 544:0.11389 545:0.0653266 546:0.0620567 547:0.0823045 548:0.0271479 549:0.0552995 550:0.128284 551:0.127049 552:0.0295975 553:0.131757 555:0.0528455 556:0.0100105 557:0.0277778 558:0.475576 561:0.0956522 562:0.339153 563:0.0323529 564:0.474728 565:0.0695187 566:0.864679 567:0.0558659 568:0.192705 569:0.189349 570:0.995297 571:0.257261 572:0.917467 573:0.132143 574:0.948318 575:0.0635452 576:0.992362 577:0.0111421 578:0.901323 579:0.00938967 580:0.152671 581:0.00406504 582:0.0497981 583:0.11399 584:0.0920618 585:0.0758929 586:0.123877 587:0.00790514 588:0.709912 589:0.118705 590:0.225882 591:0.235294 592:0.025858 593:0.110727 594:0.89724 595:0.0772358 596:0.70659 597:0.0277778 598:0.142336 601:0.382353 602:0.0395679 603:0.12 604:0.21542 605:0.159574 606:0.582927 607:0.222826 608:0.25031 609:0.112426 610:0.197537 611:0.247525 612:0.729442 613:0.153409 614:0.805188 615:0.101818 616:0.903165 617:0.111969 618:0.976077 619:0.0935673 620:0.0217207 621:0.105556 622:0.154013 623:0.0509259 624:0.0928374 626:0.875421 627:0.0747331 628:0.985511 629:0.489177 630:0.138259 631:0.0590406 632:0.697429 633:0.314815 634:0.639561 635:0.0645161 636:0.680406 637:0.105263 638:0.598565 641:0.827869 642:0.93913 643:0.455026 644:0.983285 645:0.0511628 646:0.123053 647:0.227273 648:0.283562 649:0.0384615 650:0.30314 651:0.186813 652:0.748491 653:0.0833333 654:0.634899 655:0.0542986 656:0.670723 657:0.195833 658:0.935048 659:0.257009 660:0.9971 661:0.137255 662:0.0669067 663:0.00425532 664:0.748711 665:0.0884956 666:0.2027 667:0.20339 668:0.204695 669:0.0983051 670:0.417046 671:0.357143 672:0.607812 673:0.0696517 674:0.592092 675:0.097561 676:0.695199 677:0.0136054 678:0.424573 681:0.377049 682:0.699751 683:0.390947 684:0.817736 685:0.148387 686:0.913089 687:0.315217 688:0.268232 689:0.172566 690:0.448667 691:0.226131 692:0.705281 693:0.102326 694:0.944137 695:0.126888 696:0.163567 697:0.0591133 698:0.60611 699:0.123223 700:0.686834 701:0.0627178 702:0.8115 703:0.135514 704:0.00266772 705:0.0986842 706:0.151838 707:0.129555 708:0.450588 709:0.266667 710:0.584502 711:0.0865801 712:0.486503 713:0.0493827 714:0.535099 715:0.0842697 716:0.671645 717:0.0325203 718:0.146025 721:1 722:0.484869 723:0.928144 724:0.61708 725:0.287293 726:0.645001 727:0.319588 728:0.184428 729:0.176 730:0.330995 731:0.208955 732:0.534572 733:0.0794979 734:0.581379 735:0.0788177 736:0.410437 737:0.136585 738:0.540556 739:0.133047 740:0.534549 741:0.0761246 742:0.460703 743:0.0608365 744:0.589766 745:0.140351 746:0.665008 747:0.0331126 748:0.634557 749:0.0120482 750:0.746648 751:0.0516432 752:0.109315 753:0.0287356 754:0.412119 755:0.0408163 756:0.673252 757:0.0390244 758:0.182561 
